/*
 * weight_biases.h
 *
 *  Created on: 26-Dec-2022
 *      Author: attit
 */

#ifndef SRC_WEIGHT_BIASES_H_
#define SRC_WEIGHT_BIASES_H_

//Weights for Layer 1
    float weight_for_layer_1 [30][784] ={{ 4.56861609e-01, -5.93789992e-01,  2.10777907e+00,
        -2.92526372e-01, -4.80302348e-01, -3.49686196e-01,
         1.08955035e-01,  1.79950356e+00, -1.59077175e+00,
         1.06288042e-01,  1.11738070e+00,  6.13449308e-01,
         5.48468147e-02,  3.79254376e-02,  2.47923837e+00,
        -1.34499272e+00, -4.64720322e-01, -1.13591929e+00,
         1.49183778e+00, -1.21161222e+00, -6.73421933e-01,
        -4.91320002e-02, -8.85402233e-02, -1.10369936e+00,
        -1.28091339e+00, -1.92779594e-01, -2.43469559e-01,
         1.25284898e+00, -5.83569686e-01,  1.24656182e-01,
         8.91479987e-01,  2.10879828e+00, -2.77984042e+00,
        -1.69243269e+00,  1.03187103e+00,  5.05669203e-01,
        -5.23395620e-01,  6.51242359e-02, -4.08061982e-03,
         3.01316348e+00, -1.33574116e-01, -4.68740057e-01,
        -1.54193057e+00, -3.54656376e-02, -5.94841178e-01,
         1.83169447e+00, -3.44606670e-01,  1.04589760e+00,
        -5.75523103e-01,  5.30538160e-01,  6.20716130e-01,
         8.66727707e-01, -4.34858552e-01,  1.08087169e+00,
        -3.39491326e-01,  4.84250423e-01,  9.98063781e-01,
        -1.08725184e+00,  1.38723690e+00, -1.45470167e+00,
        -4.87601117e-01, -3.65812578e-02, -7.81683231e-01,
         9.43960450e-01,  1.01719885e+00,  8.55517808e-01,
         1.67363622e+00,  1.15608350e+00,  1.16783828e+00,
        -4.19615993e-01,  5.31230702e-01,  5.09430394e-01,
         1.79974881e+00,  1.43148300e+00,  4.14479962e-01,
        -1.60085242e+00, -8.36104276e-01, -5.46990652e-01,
        -7.94708419e-01, -1.11024081e+00,  2.07288258e-01,
        -2.04631717e-01, -4.67094058e-01,  1.83736442e+00,
         1.24489530e+00, -3.80213902e-02, -7.06002245e-01,
        -1.30412164e+00,  9.86022665e-01, -1.41022767e+00,
        -1.69327430e+00, -1.22436414e+00, -5.80551655e-01,
         4.12386588e-01, -2.45789553e-01, -6.48043314e-01,
         1.33317213e+00,  4.11527309e-02,  2.87423896e-01,
         1.24612450e+00,  1.33464932e+00,  9.79843397e-01,
         6.94507247e-01,  2.42520389e+00, -2.30061740e+00,
         1.13439368e+00,  4.16528652e-01,  9.95738998e-01,
        -1.15292011e-01,  4.97807842e-01,  1.19727306e-01,
         6.10738389e-01,  9.08409287e-03,  1.14456335e+00,
         8.60211571e-01,  1.83413657e+00, -8.76076677e-01,
         1.78299657e+00,  8.38100520e-02,  1.23995004e+00,
         7.23959305e-01, -9.11571214e-01,  1.63217922e+00,
        -2.70119926e-01,  1.53373230e+00, -2.64281960e+00,
         5.27124272e-02,  5.19689332e-01,  7.41763673e-01,
        -2.59043096e-01,  2.71635780e-01,  1.46016491e-02,
         9.39804136e-01,  1.41932475e+00,  7.39188924e-01,
         7.81755405e-01,  2.01137072e+00, -3.65034036e-01,
        -7.32826477e-02, -9.61255325e-02,  8.78569720e-01,
         1.49431813e+00,  3.85972146e-02,  3.92514773e-01,
         1.67317404e+00, -1.14358348e+00, -1.78730265e-02,
         1.42843294e+00,  9.46697388e-01,  1.52550557e-01,
         2.91990218e-01,  9.24804836e-01, -4.05620678e-02,
         1.53527427e+00, -1.20509079e+00,  3.74426256e-01,
         8.78658361e-01,  1.35994250e+00,  3.56085997e-01,
         2.35039204e-01,  2.68289127e-01,  3.29754768e-01,
         6.28119145e-01,  1.25999827e+00,  3.40963458e-03,
         1.16503902e+00,  7.04115985e-01, -5.84875443e-01,
         1.09693440e-01, -7.56364755e-01,  7.28566490e-01,
         1.01911256e+00, -2.35110995e-01,  5.93545713e-01,
         2.46147884e+00,  1.19884603e+00,  1.48696602e+00,
         8.73035147e-01,  1.63130738e+00,  1.23939039e+00,
        -8.00896195e-02, -6.51497402e-01,  1.51804096e+00,
        -4.96353208e-01, -8.20610910e-01, -6.71619806e-02,
         7.86474383e-02,  4.21996372e-01,  6.46774238e-02,
        -6.88538070e-02,  8.92486507e-01, -1.47903408e-01,
         1.00111277e+00,  1.20736351e+00,  5.37236456e-01,
         4.08989784e-01,  6.97426464e-01,  5.86563793e-01,
        -9.72976315e-01, -1.83700364e-02, -7.10368629e-02,
         5.36648269e-01,  9.65227804e-01, -4.09938642e-01,
         1.35861554e-01, -5.78756003e-01,  5.23264559e-01,
        -2.89350037e-02,  9.69662112e-01, -8.55226981e-02,
         2.04314138e-01,  2.58164291e-01,  1.20444592e+00,
         1.50560475e-01,  1.09014699e-01, -3.02703455e-02,
         2.17563540e+00, -6.14547987e-01,  9.71810236e-01,
         1.94410912e-01,  1.44761909e-01,  7.25317266e-01,
         1.71834073e+00,  1.58616389e-01,  1.78343286e+00,
        -3.20748796e-01,  1.39103255e+00,  1.09848441e+00,
         2.42944606e-01,  1.38811306e+00,  8.81407829e-01,
        -1.62335009e-01,  1.60810909e+00,  4.57711098e-02,
         8.62315505e-01, -9.39596909e-02,  7.06026714e-01,
         4.37462003e-01,  7.95060925e-01,  6.11826053e-01,
         3.48064614e-01,  9.06199372e-02,  8.04710384e-01,
        -1.11798280e+00, -1.92570071e-02,  1.46787679e+00,
        -3.96101722e-01,  8.78364551e-01, -1.77378105e+00,
         1.86747249e+00, -9.69758780e-01,  1.27783813e+00,
         8.43078622e-01, -1.51478017e-01, -7.36129148e-01,
         2.82222517e-01, -2.04037133e-01, -5.92210287e-01,
         5.80907098e-01, -1.25776118e+00,  2.19137416e-01,
         7.45315100e-01, -1.14662207e+00, -2.11088887e-01,
        -3.54324127e-01, -2.16103482e-01,  7.26392345e-01,
        -1.40312418e+00, -1.82119836e-01, -1.64991261e+00,
        -1.58277112e-01,  1.31410976e-01, -1.42094075e+00,
        -8.31200601e-01, -2.44643073e+00, -7.29631788e-01,
         6.08085474e-01, -9.35548535e-01,  1.69255451e+00,
         1.46410375e+00, -2.52269374e+00, -3.05423102e-02,
        -1.29030832e+00,  9.72973956e-02,  4.00804441e-01,
        -1.28365317e+00, -5.04243362e-01,  2.31812907e-01,
        -8.59573044e-01, -9.72277132e-03,  4.11288782e-01,
         1.03686173e+00, -9.13554518e-01,  1.22954432e+00,
        -1.73177634e+00, -1.01043248e+00, -2.42400444e+00,
        -9.74067125e-01, -2.84316292e+00, -3.41238529e+00,
        -2.30147284e+00, -2.81117123e+00, -1.21351127e+00,
        -1.80562526e+00, -2.24399314e+00, -4.67529601e-01,
         1.14592577e+00,  1.16901492e+00, -2.14719072e+00,
        -1.09727945e+00, -1.28397688e-01, -9.62191115e-02,
         9.58615648e-01, -1.30905941e+00, -1.79014175e+00,
        -1.07488321e+00, -1.03844279e+00, -5.15252686e-01,
        -1.72666089e+00, -2.43444803e-01, -1.14739291e-01,
        -8.88649201e-01,  6.80836584e-01, -9.44037600e-01,
         3.65809134e-02,  1.14987904e-01,  1.85081940e+00,
        -7.23409751e-01,  7.19231970e-01, -2.36032240e-01,
        -3.54313262e+00, -1.98319504e+00, -2.74027832e-01,
        -2.83583558e-01, -2.21058802e+00, -6.19999309e-01,
         9.59192299e-02, -4.68380675e-01, -4.70513444e-02,
         1.33423806e+00, -3.35831811e-01, -3.15662407e-01,
        -1.55963465e+00, -1.12148629e+00, -7.71030938e-01,
        -1.65081098e+00,  9.19855931e-01, -7.50146760e-01,
         4.60581661e-01, -8.60018064e-01, -8.00420414e-01,
         1.31185659e+00,  9.20005978e-02, -3.98177369e-01,
         1.04617515e+00,  1.23161254e-01, -9.36835204e-01,
         6.12034547e-01, -2.45217019e+00, -1.64614274e+00,
        -8.92440852e-01, -1.48716718e+00, -1.51935426e-01,
        -8.94256113e-01,  2.03091773e+00,  1.69484660e-01,
        -1.55440224e+00, -2.19620319e+00,  5.49222260e-01,
         6.68649301e-02, -2.91777658e-01,  6.63691743e-01,
         5.85925131e-01, -6.89996220e-01,  1.06866177e+00,
        -3.02016818e-01, -9.45830569e-02,  6.57555658e-01,
         9.96603517e-01, -2.24460655e+00,  3.09605070e-01,
        -2.44139267e-03,  5.67565114e-01, -1.45317675e+00,
         2.80543696e-01, -1.21896473e+00,  2.72348685e-01,
        -1.89523489e+00, -3.79127622e-01, -1.37861758e+00,
        -1.03060903e+00, -9.10101061e-01,  1.13491972e+00,
        -1.58610716e+00, -1.25443100e+00, -9.59182899e-01,
        -6.35042337e-01,  1.17478669e+00, -4.25129844e-02,
        -1.76788369e-01, -1.07778361e+00,  7.38041961e-01,
         8.74602852e-01, -9.32538994e-01, -1.44636063e-01,
        -1.84223283e-01,  1.15382029e+00,  2.11293627e+00,
        -1.62029809e+00, -1.57510628e+00, -4.84980390e-01,
        -9.34265267e-01, -9.20164154e-01, -1.08318331e+00,
        -5.00503260e-01, -4.48505379e-01, -1.50046351e-01,
        -2.17173580e+00, -3.02248305e-01, -2.19670882e-01,
        -9.60679351e-02,  1.84477896e+00, -4.83007648e-02,
        -3.90231161e-01, -9.04109390e-01, -1.41962778e+00,
         7.91914553e-01, -6.91648844e-01, -2.14483179e+00,
        -1.85582532e+00,  6.00722456e-01, -8.40769949e-01,
         1.55617137e-01,  9.77655238e-01,  5.29672932e-01,
        -2.58963728e-01, -1.28674837e+00,  6.38416265e-04,
        -9.85147975e-01,  1.20763131e+00, -2.85480408e-01,
         6.36947412e-01, -4.87962242e-01,  4.25025804e-01,
         2.67772560e-01, -4.57585818e-01, -9.82808565e-01,
         4.06870068e-01, -1.13108895e-01, -6.33263649e-01,
         1.41195866e+00,  6.62514384e-01, -1.47682387e+00,
        -1.85658639e+00, -1.44882610e+00, -4.45265765e+00,
        -1.23225491e+00, -2.69242470e+00, -7.67876055e-01,
         8.32503568e-01,  1.04260113e+00,  3.81866096e-01,
         2.46475573e-01, -5.82615689e-01, -1.25988257e+00,
        -4.28897126e-01, -6.33438712e-01,  8.96225603e-02,
        -1.25015725e+00,  3.13518425e-01,  2.47281163e-01,
        -4.97552749e-01,  3.79290258e-01,  4.73171935e-01,
         1.15449946e+00,  1.01282894e+00, -9.41003957e-01,
         4.14782951e-01,  1.67899307e+00, -1.63109395e+00,
         1.48450039e+00, -2.09475789e+00, -3.29845097e+00,
        -4.38052903e+00, -4.67425367e+00, -3.81514188e+00,
        -4.48850509e+00, -5.26873552e+00, -3.98366574e+00,
        -2.38355005e+00, -1.28897609e+00, -1.49138987e+00,
        -7.28672557e-01, -2.12847691e+00,  8.14880675e-01,
         9.89529981e-01, -2.80061116e-01,  1.00348560e+00,
         1.73588871e-01,  2.28880422e-01,  1.90272206e+00,
        -3.35624665e-01,  2.15097265e-02, -2.22311006e-01,
         6.49016987e-01,  4.57101828e-01,  4.54371506e-01,
        -6.12740406e-01, -5.18379257e-01, -1.12638741e-01,
         3.43238212e-02, -8.70618893e-01, -2.41492430e+00,
        -3.65299864e+00, -3.10553385e+00, -4.36477612e+00,
        -4.76203958e+00, -2.92197136e+00, -3.19720966e+00,
         1.11684283e+00, -1.03736913e+00,  9.66801886e-01,
         1.13159464e+00,  8.06418380e-01,  2.39080207e+00,
         2.51979933e+00,  1.64504763e+00, -7.94589933e-01,
        -1.07244875e-01, -1.26626732e-01, -2.30446935e+00,
         2.65587252e+00,  1.17264236e-01,  1.28786098e-01,
         5.35361278e-01,  1.26256379e+00, -2.41273088e-01,
        -1.16786507e+00, -1.29889639e+00, -6.76962997e-01,
         6.81656007e-01, -1.55759143e-01, -7.89698132e-01,
         2.66428556e-01, -3.35432446e-01, -1.93990494e+00,
        -1.57168817e-01, -1.07504065e+00,  2.68027702e-01,
        -4.52468297e-02,  3.17731507e-01,  9.97711141e-02,
        -7.66765124e-01,  1.97051354e+00,  1.10037549e-01,
         8.82037230e-01, -1.21837246e+00,  1.03394057e+00,
         8.29820962e-01, -9.32132228e-01, -2.41925846e-01,
        -2.31605513e-03, -9.02821765e-01, -1.66094288e-02,
         1.24718303e+00,  1.09184520e+00,  2.95764648e-01,
        -1.41934314e+00,  4.73690718e-01,  3.58974436e-01,
         1.01116808e+00,  1.60767886e+00,  2.18989354e-01,
         4.95525927e-01, -5.21444444e-02, -4.90394331e-01,
         1.30218397e+00,  8.15709498e-01,  1.12307069e+00,
        -1.76735422e-02,  2.69859495e-01,  1.42047918e+00,
         4.81416741e-02,  2.14655659e+00, -1.81558598e+00,
        -3.88821254e-01,  1.00872579e+00,  1.64652869e+00,
        -6.06254109e-01, -7.72916327e-01, -1.38506550e-01,
         3.38867563e-01,  5.17097780e-01, -6.20784722e-01,
        -4.39365353e-01,  4.58805860e-01,  1.11192220e+00,
         1.30909802e+00,  8.29540015e-01,  1.47710698e+00,
         1.12288942e+00,  1.86713950e+00,  1.94357070e+00,
         2.77223391e-01,  1.74811190e-01, -8.31489932e-01,
         1.66008112e+00, -5.82016751e-01,  6.31254795e-01,
         1.26921847e+00,  1.15443328e+00,  2.88466841e-01,
         3.03891455e-01, -4.65789519e-01,  1.38264039e+00,
         1.10318882e+00, -1.18059724e+00, -4.74423026e-01,
         1.09536734e+00,  1.52857360e+00,  1.30232254e+00,
         1.52165128e+00,  7.91623253e-01,  1.13414177e+00,
         9.82850273e-01,  1.27306291e+00,  6.03613108e-01,
         1.60360582e+00,  3.07230664e-01,  5.66832243e-02,
         7.59052558e-01,  8.94042154e-01, -3.44509143e-01,
         1.43692524e+00,  2.99009494e-01,  6.99744704e-01,
        -1.30884113e+00,  6.41507279e-01,  1.10738726e+00,
        -4.95039014e-02, -1.50462479e-01, -6.36541372e-01,
        -2.17967276e+00,  2.47873130e-01,  2.55939523e-01,
        -6.45568186e-01, -2.58193694e+00,  9.37043966e-01,
         1.43597274e-01, -1.03234751e+00,  1.50812584e+00,
         5.31195132e-01, -6.80190320e-02, -9.21478222e-02,
         1.30572911e+00,  1.07792089e+00,  5.51177835e-01,
         2.76093483e-01,  2.77160846e-01, -5.68472451e-01,
         2.26857684e-02,  4.24028292e-01,  2.71868901e-01,
         9.03563454e-01, -1.95063401e+00,  1.67502866e-01,
         6.09918238e-01,  1.69864592e+00,  1.49325873e+00,
        -2.11921748e+00, -3.87102559e-02,  6.28552472e-01,
         1.32532973e+00, -3.91852887e-02,  4.06652783e-01,
         1.88489101e+00,  6.84954436e-01,  5.55868574e-01,
         2.29061015e+00,  1.34189746e+00,  2.45650549e+00,
         2.29820705e+00,  2.09851092e+00,  1.23491769e+00,
         5.51621543e-01,  9.86662711e-01,  1.75132177e+00,
        -8.85229017e-02,  8.54315195e-01,  4.90716107e-01,
        -1.85579060e-01, -4.83785689e-01,  8.46810685e-01,
         1.77460070e-01,  2.45116046e-01,  1.66263493e+00,
         1.10917211e+00, -8.11098475e-01,  4.41560921e-01,
         3.97689222e-02, -4.88293053e-01,  7.44888856e-01,
         2.27565969e-01, -7.63012118e-01, -4.85031694e-01,
         4.36765551e-01,  2.05062142e+00,  4.75749268e-01,
         5.26992886e-01, -1.37065316e+00,  1.38539058e+00,
         7.42461838e-01,  1.69929381e+00,  1.28437539e+00,
         1.32387376e+00, -2.04004499e-02, -6.41032810e-01,
        -1.08002325e-01, -1.48925308e+00,  3.86275488e-01,
         1.89423095e-01, -2.26356615e+00, -3.26449741e-01,
         1.10555838e+00,  1.12542823e+00, -1.36675101e+00,
        -4.40985297e-01,  3.88461108e-01, -1.17407930e+00,
         1.41875900e+00,  2.33727235e-01,  4.57740300e-01,
         7.07528524e-01,  8.83614951e-02, -5.06887520e-01,
        -1.27689735e+00,  8.45617087e-01,  4.61498409e-01,
        -2.47798131e-01, -5.15617352e-01,  3.02004286e-01,
         3.12421191e-01, -3.23380272e-01,  9.46845979e-01,
         2.07246091e-02, -2.14865666e-01,  2.30945068e+00,
         3.03894670e-01, -7.63396637e-01, -1.47479999e-01,
        -1.22335068e-01,  1.23477167e+00, -4.38823384e-01,
         1.55684036e+00,  1.65601806e+00, -1.26298356e+00,
        -9.12193970e-01, -1.38318878e-01, -7.75699523e-01,
         4.72164582e-01, -1.71788919e-01, -1.89539349e-01,
        -8.65348132e-01, -6.83551897e-01, -9.49045378e-01,
         2.20581247e-01,  1.80850735e+00,  2.76265667e-01,
        -9.58108017e-01,  1.37413990e-01, -1.31398903e+00,
         1.06209627e-01, -8.11727979e-01,  1.46483996e+00,
        -8.68593662e-01, -1.15527310e+00, -1.19513649e+00,
         1.27735667e+00,  8.46766423e-02,  2.99860230e-01,
        -1.28879199e+00,  2.11521548e+00,  6.07264397e-01,
        -6.98649448e-01},
       {-4.14998406e-01, -1.00021428e+00,  1.19312425e+00,
        -1.23112612e-01, -4.79526882e-01,  1.91103428e+00,
        -1.04033902e+00,  1.76782174e-01, -1.24068917e+00,
         7.38986366e-01, -8.55525697e-01, -1.55255494e+00,
         1.25899170e+00,  3.48964683e-01,  3.40205507e-01,
        -6.58897104e-01,  2.76278594e-01,  3.29605724e-01,
         1.28135119e+00, -6.97593041e-01,  2.62651907e-01,
        -3.63450727e-01, -5.40975677e-01, -2.00614853e+00,
         1.50013037e-01,  5.91407975e-01,  9.75267875e-01,
        -7.89382033e-01,  1.20530081e-01, -8.82489471e-02,
         3.56170757e-01,  3.78178238e-01,  1.85928961e+00,
         2.02059924e-01, -9.77262430e-01,  1.05090181e+00,
        -6.68688080e-02, -3.05566949e-01, -1.63074250e+00,
         7.14193260e-01,  7.25886362e-01, -1.93579450e+00,
        -2.80272322e-02,  3.65963427e-01, -1.03144480e+00,
        -6.53689263e-01, -9.80347942e-01,  1.36819860e-01,
        -9.83661658e-01, -1.35833357e-01, -5.32572849e-01,
        -1.54836963e+00, -8.45376342e-01,  1.52109339e+00,
         7.61245913e-01,  8.32219325e-01,  1.64250899e+00,
        -2.97322925e-01, -1.24810754e+00,  5.78020561e-01,
        -1.53107934e+00,  5.35848308e-01, -9.02170001e-01,
         1.55952635e+00,  6.81618848e-01, -1.59794346e+00,
        -6.87444239e-01, -7.72327041e-01,  3.04789626e-01,
        -8.72462306e-02, -3.45139360e-01,  1.13747260e+00,
         7.55047972e-01, -7.75153561e-02,  3.91047423e-01,
        -5.85711007e-01,  1.86801495e+00, -9.57500559e-02,
        -5.09090319e-01, -2.24111595e-01,  1.39214353e+00,
         1.06793339e-01,  3.49307010e-01,  8.93020340e-01,
         9.91015986e-01,  8.30193250e-02,  5.81361398e-01,
        -6.01326251e-01,  2.12484775e+00, -1.83182661e+00,
         9.99841278e-02,  3.92381145e-02, -5.81980539e-01,
        -2.06704445e+00,  4.26332335e-01, -9.31400914e-01,
        -6.42450505e-01, -1.99639587e+00, -1.45601913e+00,
        -5.97070403e-01,  4.48069673e-01,  9.81705791e-01,
        -1.99548719e-01,  2.03334062e-02,  1.58199759e+00,
        -1.18531607e+00,  5.67975067e-01, -5.42779205e-01,
         1.08914575e+00,  1.80581368e-01,  9.89225837e-01,
        -8.04567093e-01,  9.35173005e-02,  7.93627357e-03,
         2.39406629e-01, -1.31091937e-01, -1.03920906e+00,
         7.72417896e-01, -1.74644601e-01, -5.89233093e-01,
        -6.26532328e-01,  3.67776528e-01,  4.99590850e-01,
         1.65648212e+00, -5.41433957e-01, -5.48849455e-01,
        -1.44441673e-01,  1.51454743e+00,  1.09024815e+00,
         6.54973600e-01,  1.08579330e+00, -1.20402814e-01,
         1.76201827e+00, -2.57721166e-03,  2.25148743e+00,
         4.38417982e-01, -1.16611094e+00, -5.93863754e-01,
         1.81464624e+00, -8.74948360e-01, -5.52619856e-01,
         9.96964542e-02,  2.33614942e+00,  5.14225113e-01,
         4.96022303e-01, -1.40780657e+00, -1.02950089e+00,
         1.36295965e-01,  1.71013033e+00, -1.23882386e+00,
        -8.30576073e-01,  9.28770916e-01,  3.91379398e-01,
        -7.85312132e-01,  9.25688205e-02, -7.33354692e-01,
        -9.34484416e-01, -2.71578501e-01, -1.87179686e-01,
        -3.18555545e-01,  1.78783202e+00,  9.64586595e-01,
         8.19248238e-01,  3.12552487e-01, -4.50363327e-01,
         1.09007115e+00,  5.69373703e-01, -2.55538259e-03,
         3.01928852e-01,  2.33295599e-01, -1.47368719e+00,
         4.91362326e-01,  9.24067335e-01, -9.24861526e-01,
         1.17376073e-01,  7.68043878e-01,  6.87008990e-01,
         7.94194872e-02,  5.20447952e-01, -4.05519144e-01,
        -5.33266311e-02,  2.09134226e-01, -6.26355879e-01,
         7.77077182e-01, -2.22657687e-01,  1.53941726e+00,
        -2.27553307e-01, -1.17399260e+00, -2.19679806e-02,
         1.61864521e+00, -9.91490414e-01, -5.06520918e-01,
        -6.58455918e-01, -1.31970059e+00,  1.50794060e+00,
        -5.38050325e-01,  4.28949469e-01, -3.04219331e-01,
        -6.44429991e-01, -4.58715480e-01,  1.30971784e+00,
        -1.96783971e+00,  2.97724329e-01,  1.18028609e+00,
         8.19596880e-01,  1.13344108e+00,  5.38538721e-01,
         1.22086004e-01,  4.98164535e-01,  4.92563283e-01,
         6.72302200e-01, -6.55111842e-01,  3.86121503e-01,
         9.73434194e-01, -6.66654507e-02,  3.60457564e-01,
        -1.34181193e+00,  4.63918627e-01,  1.11357804e+00,
        -3.83130084e-01, -4.84732468e-01,  1.01165734e+00,
        -1.92603871e+00, -4.24480027e-01,  7.74806586e-01,
        -1.35049300e+00,  1.52933378e+00,  9.45486296e-01,
        -5.54437407e-01, -1.16498125e+00,  1.12210888e-01,
         6.01157627e-01, -1.05198980e+00, -7.02715223e-01,
        -9.08559477e-01,  1.00549812e+00,  3.44431195e-01,
        -9.69159831e-01,  1.68468601e-01,  3.71366495e-01,
         5.72235486e-01,  7.64046943e-01, -1.52278160e+00,
        -5.25846359e-01, -4.19973391e-01,  1.89109142e+00,
         9.15074217e-01,  1.04908427e+00,  4.05465611e-01,
         1.75675945e+00,  9.69769567e-01,  7.70262851e-02,
        -1.12412094e+00,  3.64566686e-01, -1.30448182e+00,
        -2.95666193e-01, -3.13014235e-01, -1.22247539e+00,
         1.77274082e+00, -1.76296272e+00,  4.78215056e-01,
         8.66501688e-01,  1.55502533e+00,  5.43000790e-01,
        -1.10165002e+00,  4.77714514e-01,  2.74413327e-01,
         1.64638805e-01, -1.17120654e+00,  7.56363416e-01,
         1.05887344e+00,  9.86860617e-01,  1.12980789e+00,
         5.67397341e-01,  3.76762268e-01,  1.27027817e+00,
        -1.85314232e+00,  6.46038658e-01,  1.59318573e-02,
        -1.07464974e+00,  1.86009528e+00,  1.47754526e+00,
         1.80629526e+00,  2.62387534e+00, -1.07103218e+00,
         1.26788224e-01,  1.44307014e+00, -6.79808648e-01,
         4.88376712e-01,  7.50219101e-01, -9.08686734e-03,
         3.42328957e-01,  1.68177590e-01,  3.45786378e-01,
         7.23185928e-01, -1.24057086e+00,  1.88365364e+00,
        -3.88685475e-01,  1.64410379e+00, -1.69197477e+00,
         1.12632131e-01, -3.60569012e-01,  1.25860846e+00,
         8.46542800e-01,  1.13083968e+00,  7.83387839e-01,
         6.89244487e-01, -1.56216920e+00, -8.37362822e-01,
        -7.42510827e-02, -8.40395122e-01,  7.49061837e-01,
         1.50347092e+00, -1.35223596e+00,  1.47222395e+00,
        -4.13843101e-01, -1.14238053e-01, -4.49709504e-01,
         7.98751141e-01,  2.55195334e+00,  2.05193274e+00,
         3.15466418e-01,  8.34450555e-01,  8.81035926e-01,
        -6.78674975e-01, -6.46724041e-01,  9.40182877e-01,
         1.86303205e+00,  5.89543433e-01,  3.69354740e-01,
        -4.00122167e-01,  3.80696015e-01,  9.98005731e-01,
         2.06284264e-01,  2.12179704e+00, -7.99801779e-01,
         1.46619115e+00, -6.64366747e-02, -6.70097593e-01,
         8.31699365e-01,  2.00948508e+00,  2.77955947e+00,
         1.05194072e+00, -9.79607375e-01, -3.09948300e-02,
         1.08775873e+00,  7.71356500e-02, -1.62710142e+00,
        -1.26496282e+00, -4.26982675e-01, -9.50642462e-01,
         3.21689835e-01,  1.69045289e+00,  5.14928353e-01,
        -6.35828470e-01,  1.19426930e+00, -1.35898078e+00,
         2.04289440e+00, -1.39715759e+00, -1.75689463e+00,
        -1.31008336e+00,  7.79628086e-01,  3.86162690e-01,
        -7.22980934e-01,  2.31065845e+00,  3.40836966e-01,
        -8.15260884e-01,  7.98660002e-01, -1.09626690e+00,
         1.25746893e+00, -1.66206351e-01, -3.14034378e-01,
         4.28618969e-01,  1.28340501e+00, -3.92072361e-01,
        -5.91164404e-01, -2.53850886e-01,  2.69311737e-01,
         1.04566125e+00,  1.18781488e+00,  1.79460672e-01,
         3.37337354e-01, -9.11251964e-01, -4.13694080e-01,
         3.11902230e-01,  5.23568167e-01, -8.90031068e-01,
         6.37675394e-01,  1.54121681e-01,  1.56335039e+00,
         1.59712172e+00, -1.44442249e+00, -1.56167090e-01,
         4.18367382e-01,  1.54977542e+00,  1.24873646e+00,
         1.60890585e+00,  8.70406692e-01,  3.65073156e-01,
        -7.35735273e-01,  1.06203963e-01, -2.80561738e-01,
        -8.53460614e-01, -2.32226974e-01, -5.26621905e-01,
         1.94665373e-01,  1.22226117e+00,  1.31065154e+00,
         8.77136867e-01,  1.35296574e+00,  9.54268534e-01,
        -3.42397547e-01,  2.12090004e+00, -6.54351594e-01,
        -2.89253246e-01,  4.83581380e-01,  3.55520958e-01,
         1.74960253e+00,  3.87962429e-01, -3.24104667e-02,
        -6.15409902e-01,  3.54107404e-01, -6.27030482e-01,
        -7.85147758e-01, -1.89654131e-01, -1.82167399e-01,
         1.03905144e+00, -6.89488382e-01, -5.64876400e-01,
        -4.68309584e-01,  1.44068229e+00, -3.61194939e-01,
        -7.28342708e-01, -1.95308493e-01, -9.26603535e-01,
         1.06929806e+00,  2.36000337e+00, -1.14181877e-01,
         9.07543466e-01,  6.81445872e-02, -2.03137942e-01,
        -1.43830732e-01, -2.90119791e-01,  4.00073169e-01,
         8.01998829e-01, -1.96436065e-01, -1.46035706e+00,
        -4.94447077e-01, -3.92939302e-01,  9.98826737e-01,
        -7.44645670e-01, -1.23427386e+00,  6.13430245e-01,
         1.98109312e-01, -5.45823778e-01,  8.06040039e-01,
        -1.71535903e+00,  1.53529918e+00,  1.53497577e+00,
         7.34441546e-01, -3.32750903e-01,  1.72237169e+00,
        -4.96196314e-01,  1.24269582e+00, -1.15491657e-01,
         2.46192018e-01,  1.49506593e-02,  2.17612920e+00,
        -1.88435540e+00, -1.87522297e-01,  1.36553489e+00,
        -2.35793270e-01,  1.25132969e+00, -9.79435614e-02,
        -2.84337960e-01, -1.75017547e+00, -2.05187764e+00,
         1.96728936e+00, -1.51680526e+00,  9.28794063e-01,
        -1.95284942e+00,  4.28208940e-01, -1.65698182e+00,
         1.11978931e-01,  4.23824547e-01, -6.88586006e-01,
         8.03525780e-01,  1.10287957e-01, -2.59198939e-01,
        -5.23522534e-01,  5.19614718e-01,  8.90550676e-01,
         3.10815043e-01,  4.76983285e-01,  1.49843708e+00,
        -2.35505809e-01,  9.42641069e-01, -2.35618000e-02,
         2.78189443e-01, -2.50620116e-01,  1.34969472e+00,
         9.01292760e-01, -7.67043805e-01,  2.07530236e+00,
         2.04126038e+00, -9.09047062e-01, -1.65800875e+00,
         9.79884420e-01, -1.69012361e-01,  6.43665533e-01,
         2.05059624e-01, -5.66416785e-01,  1.95494919e+00,
         1.35940861e+00, -1.12173765e+00, -1.81981788e-01,
         9.06031441e-02,  8.60576627e-01, -5.15629814e-01,
         1.84935891e+00, -4.47092459e-01, -6.37965444e-01,
        -1.33707941e-01, -9.26573477e-02,  2.18008914e-01,
         2.14718682e-01, -1.56595875e+00, -7.50306541e-01,
        -1.19409821e+00,  2.07425378e-01, -9.00324153e-01,
        -8.21178174e-01,  5.96091185e-01,  2.98286473e-01,
        -1.95482446e+00,  2.06064871e+00, -1.26293967e+00,
         1.12694832e+00, -8.31640116e-01, -2.30495962e-01,
        -1.01451468e+00, -4.43172662e-01,  9.54667291e-01,
         2.71284409e-02, -9.72076295e-01,  5.89360379e-02,
         9.52102210e-01, -5.74798158e-01,  3.11890895e-01,
        -3.96741121e-01, -6.72044506e-01, -6.94740485e-01,
        -5.38462986e-01, -4.38845039e-01, -2.34749004e+00,
        -2.38709901e+00, -1.17711845e+00, -1.23208459e-02,
         9.74225501e-01, -3.96308611e-02, -1.38901540e+00,
         2.73220568e+00, -3.98687051e-01,  6.68959802e-01,
        -5.57068111e-01, -5.91483262e-01, -3.10072833e-01,
         8.19573380e-01,  3.03333362e-01, -1.53760029e+00,
        -9.09973871e-03, -5.03469320e-01, -5.09308095e-01,
        -2.64877347e-01, -2.57656003e-01,  3.40819046e-02,
        -4.73459753e-01,  1.55538219e+00,  1.94922072e+00,
         1.52080592e+00,  1.02792000e+00, -6.55194046e-01,
         3.16342387e+00, -1.52007178e-01,  2.09856278e+00,
        -1.05430113e+00,  3.73666490e-02, -2.60923802e+00,
         5.06779240e-01,  1.77412941e-01, -1.01106864e-01,
        -7.91353122e-01,  2.32679237e+00, -1.97806635e-01,
         2.56045486e-01, -1.03365606e-01, -1.66323807e-01,
         2.09057917e+00,  3.21609708e-01,  6.20979578e-01,
         4.66773545e-01, -8.45691300e-01,  4.96319940e-01,
        -4.88744600e-01,  2.23732349e-01,  9.65446295e-01,
         1.66516902e+00,  1.87622583e-01,  2.70581869e-01,
         2.79549147e-01, -2.34998349e-01, -7.05223568e-01,
         9.98052782e-01,  5.81686316e-01, -1.87769250e+00,
         5.69594613e-01, -5.99423774e-01,  1.28904291e+00,
        -8.33293150e-02, -1.07980490e+00, -6.14361381e-01,
        -9.88563102e-01, -1.06904373e+00, -7.49750966e-01,
        -2.02820157e+00,  1.70768951e-01,  4.20078977e-01,
         7.29851851e-01,  3.80065390e-01,  3.18277319e-01,
         1.10087756e+00, -3.51056733e-02, -1.68142437e-02,
        -1.24059164e+00,  1.24361992e+00, -5.47572914e-01,
        -1.17844632e+00,  1.27618466e+00, -4.16144218e-01,
         1.77734638e-01,  1.95004979e-01,  2.64398653e-01,
         1.81109366e+00,  7.55858774e-01, -2.59458915e-01,
        -8.76342215e-02,  9.12009579e-01, -1.01235347e+00,
        -6.02295956e-01, -1.19400101e+00,  7.91980940e-01,
         6.23765686e-01,  1.49898256e+00,  3.09215748e-01,
         2.49503619e-01,  8.32067133e-01, -1.32331483e+00,
        -1.53298992e+00,  7.51366829e-02,  1.36813669e+00,
         1.81198597e+00, -3.36013658e-01,  4.94972766e-01,
        -9.61431145e-01,  9.26436216e-01,  1.88723384e+00,
         1.28953930e-01, -7.18762594e-01,  6.82475748e-01,
         1.13612955e+00,  1.15922960e+00,  5.63081309e-01,
         4.09805801e-01, -2.94948464e-01,  6.08531821e-01,
         7.04625650e-01, -2.93787883e-01, -4.08772013e-01,
        -1.51652118e+00,  2.05918274e-01, -1.42199754e-02,
        -8.45569005e-01, -1.01408981e+00,  1.92162504e+00,
        -3.54547440e-01, -6.97465469e-01, -4.01325093e-01,
        -1.24039319e-01, -6.00698279e-03,  4.15158138e-01,
         1.44865799e+00, -2.26281556e+00, -6.17794567e-01,
         1.50619780e+00, -4.47486449e-01,  6.28837563e-01,
        -3.38448689e-02,  6.18603974e-01,  1.60073029e+00,
         8.69518030e-01,  8.29914630e-01, -3.01165834e-01,
         7.22441754e-01, -9.41857295e-01, -7.90730251e-01,
        -9.65173626e-01,  1.25453121e+00,  1.52668486e+00,
         1.03278702e+00,  2.00271331e-01, -8.95593133e-01,
        -6.23160162e-01,  4.10579120e-01,  5.21038101e-01,
         2.91038544e-01,  4.20960324e-01, -1.38314610e+00,
         4.22306686e-01,  1.71601130e+00, -5.63562439e-01,
        -4.48420642e-01, -8.72552770e-01, -8.29071255e-01,
         5.16245502e-01,  1.73101407e+00,  2.58954745e+00,
         8.12239857e-01,  2.75197106e-02, -1.47483484e+00,
        -7.62836042e-02,  6.50820627e-01,  4.21513592e-01,
         8.07720694e-01,  9.83597267e-01,  8.68381820e-01,
         1.69390317e-02, -2.93319987e-01,  1.05161966e+00,
        -2.11995935e+00, -1.21715888e+00,  6.75406246e-01,
        -1.19544669e+00, -2.94540580e-01, -9.33841006e-01,
         2.91679940e-01,  1.73138473e-01, -3.49075960e-01,
        -2.57269501e-01,  2.76677075e-01, -8.10371775e-01,
         9.05726724e-01, -2.73993594e-01,  9.94600447e-02,
         5.14825755e-01, -5.32293169e-01,  8.29836687e-01,
        -6.67282214e-01,  6.44053474e-02,  8.49977785e-01,
         6.43154450e-01,  3.15866388e-01,  5.13819101e-01,
        -3.58955742e-01,  1.00281776e+00, -6.59240433e-01,
         3.64320825e-01,  5.72709619e-01,  8.08483719e-01,
         8.96065061e-02,  6.52209414e-01,  1.43552687e-01,
        -3.25372037e-01, -7.79998852e-01, -4.51304806e-01,
         2.52843864e-02,  1.26439621e+00, -2.57766024e-02,
        -8.03993276e-01, -8.01154305e-01, -1.69677785e+00,
        -7.12912785e-01,  1.57705104e+00, -1.72513456e+00,
         4.45885353e-01},
       { 1.20711840e+00, -1.88904760e-01, -4.00047488e-02,
        -8.23625626e-01,  8.04552976e-01,  1.58750533e+00,
        -6.59806702e-02, -1.50341851e+00, -8.79515660e-01,
         2.30605136e+00, -1.29173689e+00, -5.45726390e-01,
         1.21693881e+00,  7.33930983e-01, -2.59515847e+00,
        -7.21533223e-01,  1.31684276e+00,  4.58666012e-01,
        -5.09659776e-02, -3.78732259e-01,  5.41029456e-02,
         1.10191129e+00, -2.88279365e-01, -9.16319610e-01,
         2.30017597e-01, -1.64315808e+00,  5.03634097e-01,
         3.69875578e-01,  4.72756741e-01,  1.05842960e+00,
        -7.27229010e-01,  6.54829033e-01,  1.09780845e+00,
         1.49980831e+00, -3.00956132e-02, -1.83709284e-02,
         4.76050249e-02, -8.36145645e-01,  4.61176592e-01,
         2.40867814e+00, -2.15549558e+00,  1.49565416e+00,
        -1.00454503e+00,  1.56867618e+00,  1.37096592e-01,
         3.33909895e-02, -2.07562827e+00,  1.62852415e-01,
         1.76763670e+00,  1.32683439e+00,  1.83808987e-01,
        -2.68345563e+00, -2.26243680e+00, -2.58186288e+00,
        -1.08981463e+00, -1.05083289e+00,  2.95186084e-02,
        -1.50642224e+00,  6.59914221e-02, -5.54418505e-01,
        -1.37326122e+00,  2.05763125e-02, -1.81042951e-01,
        -6.75910713e-01, -3.13040544e-01, -4.70020014e-01,
         1.29989595e+00,  1.05316254e+00, -4.80419414e-01,
         3.60145341e+00, -2.25452520e-01,  1.26237162e+00,
         2.51552829e-01, -6.65062462e-01,  1.28966984e+00,
         2.36765593e+00, -8.15831695e-02, -6.37180446e-01,
        -4.61458862e-02, -1.61811064e+00, -1.10842539e+00,
         4.90558098e-01,  3.11187678e-01,  1.78806625e+00,
        -2.09525462e-01,  1.30605540e+00,  5.20224639e-01,
        -6.50261277e-01, -6.43409484e-01, -1.05255178e+00,
         1.18857321e+00,  1.02204410e+00,  2.61358407e+00,
         5.96092418e-01,  6.41473077e-01,  9.88667581e-02,
         4.77994636e-01,  2.14399500e+00, -3.34774126e-01,
         1.09612455e+00,  3.38182862e-01,  1.38548730e+00,
        -9.98881650e-01,  3.21160381e-02, -3.85350607e-02,
         8.13757694e-01,  7.55025916e-02,  1.12411280e+00,
        -9.18797894e-01,  2.22520755e+00, -1.46234409e+00,
        -1.70397567e+00, -4.85943320e-01,  1.39004961e-01,
         7.06372090e-01,  1.10704111e+00,  2.53724673e-01,
        -9.56760558e-01,  5.30749907e-01,  2.10998831e+00,
         1.57922321e+00, -1.64329791e-01, -3.89141584e-01,
         1.49614885e+00,  2.70549480e-01, -2.28174133e+00,
         4.60513587e-01,  1.01406346e+00, -1.24094647e-01,
         2.68713242e-01, -4.17939176e-01, -2.79673679e-01,
        -5.49520411e-01,  1.26942697e+00, -6.24685378e-02,
         9.87319090e-01,  1.37959220e-01,  2.33164219e-01,
        -6.01351953e-01,  8.06470825e-01, -4.48309100e-01,
         2.30642425e-01,  2.03167100e-02, -1.53944073e-02,
        -2.46965362e-01,  1.54522386e-01,  1.02587491e-01,
        -1.07237574e+00,  1.80620740e+00, -1.04405268e+00,
         9.16569325e-01,  7.10143242e-02, -9.07131064e-01,
         4.99853091e-02,  1.85566005e+00,  6.14286550e-01,
        -6.82585405e-01,  8.26076905e-01, -2.95581321e-01,
         4.07274717e-01,  1.14225719e+00,  5.97745018e-01,
         3.27334431e+00, -4.98741155e-01,  2.44627541e+00,
        -1.76471385e-01, -1.09306952e+00, -9.86651785e-01,
        -1.14801060e+00,  1.12808460e+00, -6.39946805e-01,
         2.20963189e+00, -1.50911274e+00, -1.00254211e+00,
        -4.94599011e-01,  8.88104559e-01, -1.20010816e+00,
        -1.55753341e-01, -2.64365853e+00,  2.52414485e-01,
        -2.15747771e-01, -4.69421995e-01, -1.79055486e+00,
        -2.09916714e+00, -5.25785780e-01,  8.44369149e-01,
        -7.09991865e-01, -5.33872103e-01, -2.19836742e+00,
        -1.90971088e-01, -2.24561722e+00, -5.80697795e-01,
        -3.36450562e-01, -3.96129294e-01,  2.19393101e-01,
        -1.79936567e+00,  1.65862894e+00,  1.30337190e+00,
         1.19298699e+00,  7.42018654e-02, -5.82723857e-01,
         1.01957269e-01, -1.18607114e+00,  5.16160472e-01,
         5.49173349e-01,  1.42668793e+00, -2.21848030e-01,
        -1.71601956e+00,  2.15112916e-01, -1.89364299e+00,
        -2.05576672e-01, -1.17670252e-01, -1.39878504e+00,
        -7.15948100e-01,  7.31982443e-01, -6.61355049e-01,
        -1.21533638e+00,  5.34317088e-01, -4.29028871e-01,
         2.24433387e-01, -6.45792190e-01,  2.91165237e+00,
        -8.59289310e-01, -1.28083364e+00,  5.06604288e-01,
         5.57058727e-01, -7.65085352e-01, -4.62544371e-01,
         4.99547126e-02,  1.13843619e+00, -1.11292888e+00,
         2.35055981e+00, -6.02222022e-01, -1.03795270e+00,
         1.02492688e+00, -2.02333893e-01, -8.09927886e-01,
        -2.03614833e+00,  5.59172172e-01,  9.87496398e-01,
         3.93253937e-01, -1.05209038e+00, -2.08377740e+00,
        -2.82955511e+00, -1.65420208e+00, -7.38122339e-01,
        -1.56449106e+00, -2.24169236e+00, -3.91451565e-01,
        -2.70221121e+00,  3.17680339e-02, -7.65747479e-01,
         1.13660781e+00,  2.12714201e-01,  7.81996985e-01,
        -3.27801869e-01,  6.83186352e-01,  1.04225391e+00,
        -1.59887959e+00, -1.19496852e+00, -1.32522593e+00,
        -6.29285575e-01, -1.64844794e-01, -5.88515985e-01,
         1.51824991e+00, -2.76848006e-01,  5.62315811e-01,
         5.20456210e-01, -2.28577716e-01, -1.93418100e+00,
        -8.85424707e-01, -1.10855777e+00, -9.67125691e-01,
        -6.86535616e-01, -2.72791150e+00, -1.04285778e-01,
         5.13962080e-02,  4.52680245e-02, -8.28569063e-01,
        -2.40458111e-01, -7.79380397e-01,  1.43059301e+00,
        -6.03481826e-02,  1.20948865e+00, -1.24960618e+00,
         3.83612021e-02,  1.18489393e+00,  9.70902348e-01,
         4.96846951e-01,  8.25459647e-01,  2.48814916e+00,
         1.27513470e+00,  1.44488515e-01,  3.52233222e+00,
         1.00277345e+00,  2.16206676e+00, -3.76482439e-01,
        -7.97812264e-01, -1.22397479e+00, -2.09315510e+00,
         2.86230599e-01, -2.35981011e+00,  5.35939436e-02,
         1.14430429e+00,  5.10039130e-01,  7.98198396e-02,
        -6.85416550e-01, -6.64984450e-01,  1.15322175e+00,
        -1.06115508e+00, -3.83629507e-01,  1.33613531e+00,
        -2.05720946e+00, -1.31092767e-01,  8.88046162e-01,
        -8.46190844e-01,  1.15569693e+00,  1.12922551e-01,
         1.62897764e+00,  1.37940118e+00,  1.60818729e+00,
         7.42749060e-01,  2.03930489e+00, -2.06447425e+00,
        -2.42022804e+00, -1.05577947e+00, -1.17751257e+00,
         7.58101038e-01,  3.28318965e-01,  1.64832985e+00,
         2.17235419e+00,  1.85809883e+00,  9.15798520e-01,
        -1.35266013e+00,  2.26902489e-01, -1.15421658e+00,
         5.47733274e-01, -3.88115241e-01,  4.64905760e-01,
         6.96980032e-01,  1.17207667e+00,  1.65336116e-01,
         2.40841371e+00,  1.57281679e+00,  1.90208150e+00,
         1.11516945e-02,  1.68719238e+00,  3.48363080e+00,
         3.93030535e+00,  2.18061528e+00, -9.47681974e-01,
        -1.59385133e+00, -6.46442128e-01, -1.27512995e+00,
         2.33504569e-01, -2.20999837e+00,  1.30987385e+00,
        -7.73482459e-01,  1.16999965e+00,  1.15275631e+00,
         2.10023684e+00, -1.14895522e+00, -3.21144834e-01,
        -9.64583851e-02, -1.08519707e+00,  9.78638984e-01,
        -3.06308542e-01, -9.97162393e-01,  1.78130751e-01,
        -1.14231348e-01,  1.99380274e+00, -5.95143951e-01,
         2.83898611e-01,  1.53573090e+00,  1.02482395e+00,
         9.80851936e-01,  1.41612325e+00, -1.68931492e+00,
        -1.74386289e+00, -1.45753890e+00, -9.87757653e-01,
         9.82737694e-02, -6.42966736e-01,  5.73421444e-01,
        -2.44669199e+00,  1.60137021e+00,  2.35678080e+00,
         1.81452750e+00,  2.30944047e+00, -8.86227183e-01,
        -1.72927003e+00, -1.53353775e+00,  8.39307029e-01,
        -9.38232403e-01,  7.20100169e-01, -2.91185420e-01,
         4.80892385e-01, -9.17318385e-01,  9.49939941e-01,
         3.62064590e-01,  6.48779031e-01,  2.55746778e+00,
        -9.92206413e-01,  2.97702261e+00, -3.58629714e-01,
        -2.19452307e+00, -3.60328960e+00,  6.65376487e-02,
        -3.49096376e+00,  6.15066809e-02, -6.76235054e-01,
         1.10531950e-01,  5.69315790e-01, -7.53594429e-01,
         1.16369011e+00,  1.96542012e+00,  8.67094691e-01,
         9.00581181e-02,  4.00130800e-01, -7.63684645e-01,
        -6.96592980e-01,  7.12094529e-01,  1.20992332e+00,
         2.17103861e-01, -7.09542604e-01, -3.62253805e-01,
        -5.09629695e-01,  1.08098410e+00,  5.23989058e-01,
         3.51270739e-01,  1.78223500e-01,  2.32895697e-01,
        -8.66703178e-01, -1.45708305e+00, -5.00803703e-01,
        -1.02304502e+00, -2.11285120e+00, -9.30785314e-01,
         4.18825288e-01, -3.00092233e-01, -4.37092712e-01,
         2.53206684e+00,  1.33281915e+00,  1.05278724e+00,
        -7.34724557e-01,  2.84910064e-01, -1.55467560e+00,
        -1.23309164e-01, -1.79282092e+00,  4.29494940e-01,
         8.34741819e-01, -1.61995818e+00,  1.06368655e-01,
        -3.31801457e-02, -9.18474569e-01,  2.90386849e-01,
         1.85078404e-01,  1.23426121e-01,  4.22060472e-02,
        -5.21063125e-01, -2.15080471e+00, -2.20174786e+00,
        -8.77727329e-01, -1.28265932e+00, -2.10125464e+00,
        -3.30684847e+00, -2.37292306e+00,  1.15598165e+00,
         4.25275845e-01, -1.47084707e+00, -9.86552530e-01,
        -1.11318813e+00,  5.17921845e-01, -6.03061095e-01,
         2.04248733e-01,  1.24201552e+00,  6.61993060e-01,
        -8.16561052e-01,  7.46642244e-01, -9.38900044e-01,
         1.96852958e+00,  2.91122969e-01,  7.72254610e-01,
        -1.17852822e+00,  3.32668090e-01, -2.27313044e-01,
         1.80605952e+00,  1.88944066e+00, -2.41980028e+00,
        -3.05739486e-01, -9.49562577e-01, -2.01603813e+00,
        -2.47231302e+00, -1.34679181e+00, -1.41407708e+00,
         1.48632426e-01,  3.60305726e-01, -1.20419933e+00,
         6.19425948e-01, -2.43079492e-01, -5.86545531e-01,
        -5.28973500e-01,  9.15193522e-01, -2.76586157e-01,
         7.67121805e-02, -9.94820258e-01, -6.50488551e-01,
         1.23617397e+00, -5.01104891e-03, -1.38649280e+00,
        -9.41722462e-01, -9.73751777e-01,  1.87654701e+00,
        -8.66981304e-03,  6.33868392e-01,  9.36674877e-01,
        -4.25745099e-01, -9.62548172e-01, -5.60609057e-01,
        -8.63884774e-01, -1.09644022e+00, -7.65854557e-02,
         1.66130788e+00, -6.33140886e-01,  1.53727316e+00,
         2.96540644e-01,  3.47180196e-01, -2.73525647e-01,
         1.21916984e+00, -1.00213005e+00, -8.10412363e-01,
        -3.39722470e-01, -5.04701244e-01,  6.82702861e-01,
         1.32381237e+00, -6.55540717e-01,  1.05235235e+00,
        -5.05627755e-02,  3.57006696e-01,  1.70429176e+00,
         1.20455251e+00,  8.31984947e-01,  8.98725898e-01,
         1.83517266e+00,  2.39187151e+00,  2.03033630e+00,
         2.11556455e-01, -2.63625471e-01,  4.50894827e-01,
         5.30275224e-01, -5.28478611e-01,  1.53570638e-01,
         3.49980646e-01, -1.03677500e+00,  9.71201654e-01,
         1.61566561e+00, -1.97228162e+00, -8.27438677e-01,
        -1.80308698e+00,  1.45288862e+00,  1.49101508e-01,
        -1.36251767e-01,  2.65576749e-03, -1.75543710e+00,
         2.12317876e-01, -2.67153843e+00,  1.73796548e+00,
         1.71881160e-02,  1.67635369e+00,  2.01167985e+00,
         1.23567492e+00,  1.07357635e+00,  2.16181620e+00,
         1.30033418e+00,  2.13471430e+00,  3.68962786e-01,
        -8.19427553e-01,  6.06900178e-01,  5.07644283e-01,
        -8.53728855e-01,  2.61721480e-01,  4.57594287e-01,
         5.98677406e-01, -3.34511720e+00,  4.31646177e-01,
        -1.30250595e+00,  1.15763698e+00,  1.57512920e-01,
        -2.27962028e-01, -2.21728496e-01, -7.01118579e-01,
         1.40015359e-01, -3.81513209e-01, -4.35481736e-01,
        -1.86981551e+00, -4.45913954e-01, -1.04640112e+00,
        -1.09150954e-01,  1.15264830e+00,  5.99356427e-01,
         1.00122670e+00, -2.28208220e-01,  1.97341821e+00,
         2.46310408e+00,  1.36204551e+00, -2.82639476e-01,
        -2.10076791e-01, -2.80679071e+00,  1.34349064e+00,
        -7.53794160e-01, -6.86273640e-01,  1.02524171e+00,
        -1.16931047e-01,  1.55506649e+00,  3.57793532e-01,
         5.03832779e-01, -9.40592944e-01,  1.06346705e-01,
         4.11805222e-01,  5.74619536e-01, -1.44610303e+00,
         1.72932014e-01, -5.03185951e-01,  9.73540586e-02,
        -2.05361552e-01,  3.51917301e-01, -6.44908546e-02,
        -5.62041033e-01,  2.16013122e-01,  7.07951556e-01,
         5.62056595e-01,  1.28116347e+00,  1.81557397e+00,
        -2.52484370e-01,  1.20621684e+00, -1.67674434e-01,
        -1.41790624e+00, -1.46787534e-01, -1.26244679e+00,
        -1.49176701e+00,  2.52758462e-01, -1.06864505e+00,
         7.93954170e-01, -6.85616611e-01, -1.51953543e-01,
        -1.12472126e+00, -1.07773710e+00,  1.31986435e-01,
         1.34409496e+00,  8.84100071e-02, -2.80025772e-01,
         2.86649847e-01,  1.52356269e-01,  7.27253837e-01,
        -4.46886437e-01, -1.54099168e-01,  2.47342471e-01,
         8.75134645e-01, -1.12700142e+00, -7.16543539e-01,
         2.53376679e-01, -2.04019293e+00, -7.25488333e-01,
        -1.65854347e+00,  1.32476776e+00, -1.60064873e+00,
        -1.24397579e+00, -4.31495423e-01, -8.68581875e-02,
         1.42493928e+00,  3.11069184e-01,  1.36882844e+00,
         4.59133511e-01, -4.94107167e-01,  1.94152760e-01,
        -2.04293425e+00, -1.74187948e-01,  1.78212304e+00,
        -6.58794345e-01, -1.31547778e+00,  8.44594391e-01,
         2.10968895e-01,  3.21874962e-01,  6.33178948e-01,
         1.56530390e-01,  8.13867624e-01,  6.13421457e-01,
        -2.36842863e+00, -1.29303285e+00, -1.63289997e+00,
        -4.02671226e-03,  3.60844303e-02,  2.12927922e+00,
        -1.22392865e+00, -5.80717200e-02,  8.81056927e-01,
         8.53514060e-01, -1.03658792e-01, -8.87141111e-01,
         5.27026502e-01,  4.06123306e-01, -3.73203217e-01,
         1.34118553e+00, -7.16390932e-01, -1.15414401e+00,
         1.56867135e-01, -8.30871804e-01,  6.54126412e-01,
        -3.18720853e+00, -9.44062911e-01, -1.39804668e+00,
        -3.46065773e-02,  2.82511959e-01, -2.04862554e+00,
        -1.11799312e+00,  7.23344649e-01,  1.30914904e+00,
        -1.63022468e+00, -3.55035657e-01,  1.20254868e+00,
        -2.12680496e-01, -1.09085977e+00, -9.30683455e-01,
        -5.50888014e-01,  2.47664561e-01,  4.47287521e-01,
        -3.64214159e-01,  4.97807852e-01, -7.50047399e-01,
        -6.27187686e-02, -5.27630294e-01, -3.32228748e-01,
        -1.19914338e+00,  6.80507996e-02, -1.13261525e-01,
         7.01442287e-01,  9.75964858e-03, -1.29959660e-01,
         3.51186934e-01,  1.31692854e+00,  3.80249060e-01,
         1.58340077e+00,  1.12331143e+00, -1.93574479e-01,
        -2.29196011e-01,  8.60847495e-01, -8.62330782e-01,
         9.99975134e-01,  9.52662953e-01,  4.35401336e-01,
        -6.75047397e-01,  7.89780976e-01, -2.30327645e-01,
         1.41128576e+00, -7.21513866e-01,  5.40346067e-01,
         1.75904307e+00, -1.11254051e+00,  2.27324956e+00,
         1.23821477e+00, -2.08561300e+00, -8.49055067e-01,
         1.98217711e-02,  6.12489751e-01, -1.04809666e+00,
        -2.17794791e-01,  2.09285541e+00,  3.27770795e-01,
         1.33014554e+00,  9.03673197e-01,  1.37068281e+00,
        -6.07346047e-01,  1.40250386e+00, -1.67283571e-01,
         6.23147822e-01,  1.11708636e+00,  1.31302662e+00,
        -1.64499552e-01,  1.52152591e-01, -1.57876938e-01,
         4.60402482e-01,  6.55843391e-01, -1.60499773e-01,
         1.95860706e+00},
       {-1.99264442e+00, -1.59665973e+00,  1.70288949e+00,
        -2.70733845e-01,  5.49591344e-03, -6.50501073e-01,
        -1.25296292e+00, -1.68978906e+00, -8.01314780e-01,
        -8.22130048e-01,  6.73039687e-01, -7.92596422e-01,
        -3.66646054e-01,  7.25689665e-01,  6.23374024e-01,
         7.60548295e-01, -7.90737103e-03, -4.10862708e-01,
        -1.63438978e+00,  4.31001468e-01,  1.38950219e-01,
         1.00903077e-01,  2.20277599e+00, -8.93436161e-01,
         9.76285724e-01,  1.56031000e+00,  9.90754964e-01,
         7.90097897e-01, -2.18791652e-01,  3.02510626e-01,
         7.91499109e-01, -1.08458585e+00,  1.01501283e+00,
         6.83262520e-01, -2.63614371e+00, -7.37692534e-01,
         4.34848011e-02,  5.31769049e-01, -4.00501376e-01,
         5.95715329e-01, -3.16740450e-01,  1.41776889e+00,
        -4.74821280e-01, -1.30165743e-01, -6.55114610e-01,
        -1.51289707e-01, -7.51817014e-01,  8.51312859e-01,
         5.46333643e-02,  7.44735144e-01, -2.36057095e-01,
         2.37573771e-01, -1.17544802e+00, -5.72304495e-02,
        -5.27256663e-01, -1.24503814e+00, -2.58376593e-01,
         2.18494509e-01,  8.71941188e-01,  4.21025715e-01,
         2.80615128e+00,  1.97217969e-01,  4.19775015e-01,
        -8.46354885e-01,  8.64232767e-01,  6.25517313e-01,
        -1.26949699e+00,  4.76883578e-01, -5.35459564e-01,
        -2.81243591e-01, -8.67647059e-02, -4.02934908e-01,
        -1.29028894e-02,  1.03076048e+00,  2.86706694e-01,
        -8.91825039e-01, -3.14408695e+00, -2.57836309e+00,
        -1.58670586e+00, -3.36146281e-01,  6.49716657e-01,
         5.79752887e-01, -8.18660267e-01,  1.02408098e-01,
        -9.19981265e-01, -1.16653791e+00, -6.75469498e-01,
        -1.31090569e-01,  2.43866887e-01, -2.42245360e-01,
        -1.39440630e+00, -3.23266078e-01,  1.23631487e-01,
         1.05667227e+00,  2.13720053e+00, -1.00757069e+00,
         1.53925815e+00,  1.92835524e+00,  2.55113438e-01,
         6.74502820e-01,  7.84191388e-01, -9.08647420e-01,
        -1.14397978e+00,  7.93283471e-01, -2.61550374e-01,
        -1.91649515e+00, -4.77682026e-01, -7.01521101e-01,
        -3.97629155e-01, -6.00855432e-01, -1.85694285e-01,
         2.22519725e-01, -4.28890336e-01,  5.91215029e-01,
         2.31160316e-01, -1.41485687e+00, -1.78737493e-01,
        -1.04484975e-02,  9.70419124e-01, -1.49668087e+00,
         1.22631121e+00,  3.93866138e-01,  3.96726977e-01,
        -7.41314561e-01,  1.02883555e+00, -3.71332566e-01,
         8.29922543e-01, -3.77395474e-01,  1.82350927e+00,
        -5.05930480e-01, -3.82038811e-01,  5.93346400e-02,
        -7.50266495e-01,  6.34301072e-01, -1.41562217e+00,
        -7.33708052e-01, -2.86374002e-01,  1.25520812e+00,
        -9.12796441e-01,  1.00749193e+00, -5.32069364e-01,
         1.74231252e+00,  2.62259706e-01,  1.90800569e+00,
        -1.70463659e+00, -3.67944997e-02, -1.57154082e+00,
         7.74211380e-01,  5.32548342e-01,  1.24273178e+00,
        -4.57251287e-01,  4.84298529e-01,  1.83562019e+00,
        -2.15131164e+00,  1.35594145e-01,  1.34678679e+00,
        -5.53301875e-01, -2.82645875e-01, -8.10001996e-01,
        -1.23318292e+00, -7.85580964e-01,  5.44566153e-01,
        -1.25961537e+00, -5.47918493e-01,  1.43800577e-01,
         9.30448742e-01, -9.87933861e-01,  1.25979786e-01,
         1.61305626e+00, -3.42240236e-01,  6.11944133e-01,
         3.61503361e-01, -1.56972416e+00,  6.74220062e-01,
         8.29498001e-01,  1.16363930e+00,  1.46270495e+00,
        -1.47803893e-01,  1.16648485e+00,  1.09277689e+00,
         1.12305176e+00,  3.26518023e-01, -1.27360463e-01,
         1.69505236e+00,  1.02630737e+00,  6.37603218e-02,
         9.87865980e-01,  1.21885770e-02,  2.04343855e-02,
         3.72893065e-01, -1.19215602e+00, -1.39078667e+00,
         1.26449683e+00,  3.57768445e-01,  4.79069345e-01,
         1.32227477e+00,  2.19711223e-01,  3.48824322e-01,
        -1.18665021e+00, -6.15920657e-01, -2.30221685e-01,
         7.67082953e-01, -6.66327986e-01,  8.69784207e-01,
         7.91689588e-01,  5.05375539e-01,  7.48461357e-01,
         1.03730567e+00,  6.82654278e-01, -1.29358900e-01,
        -1.41091672e+00, -3.47754682e-01,  1.07841173e+00,
         1.15599064e+00,  1.08091160e+00, -6.89425648e-02,
         7.90034004e-01,  9.00297065e-03,  1.71621597e+00,
         1.31379926e+00, -7.46286996e-01,  1.14097665e+00,
         1.08305020e+00, -1.08782625e+00,  1.04998962e+00,
         5.80474281e-03, -8.57424393e-01, -2.86699282e-01,
         4.31411536e-01, -8.54217581e-01, -1.72863076e+00,
         7.01830765e-01,  1.16540657e+00,  9.28988330e-02,
         9.34309105e-01,  2.54189970e-01,  3.67277025e-01,
         2.82205227e-01,  2.67014149e-02,  1.92481805e+00,
         3.87542811e-01, -1.29170408e+00, -5.22934453e-01,
         1.35943183e+00,  6.02951562e-01,  9.44216822e-01,
        -3.91144866e-01, -1.82190973e+00, -1.53609549e+00,
         5.83220555e-01, -1.71704047e-01,  4.93328646e-02,
         1.82965809e+00, -3.09692465e-01,  1.02927420e-01,
         1.47492501e+00,  8.13013823e-01,  3.68988015e-01,
         2.56099057e-01, -8.01374026e-01, -2.94925767e-01,
         2.81046180e+00,  1.46006204e-01,  1.18889727e+00,
         1.08523200e-01, -1.85123810e+00,  1.05122988e+00,
         2.71653336e+00,  1.74337979e+00,  3.74976010e-01,
        -2.01237692e-01,  1.89118903e-01, -1.07624881e+00,
         9.15266943e-01, -2.49041489e-01, -6.79985124e-01,
        -2.51773565e+00, -4.09435520e-01, -7.05402387e-01,
        -4.93147101e-01, -1.62460484e+00,  1.98038310e-01,
         6.44006779e-01, -1.02515661e+00,  4.27407098e-01,
        -9.37117708e-01, -6.54942473e-01, -1.94575248e+00,
        -7.22256585e-01,  2.12163692e-02,  1.04434221e+00,
        -1.12876943e+00, -1.42292463e+00, -2.06042549e+00,
        -5.85887435e-01,  2.54944899e+00,  1.82488469e+00,
         2.25871080e+00,  1.53344528e+00, -1.74221132e-01,
        -2.15562562e+00, -3.90408916e-01, -2.82489738e+00,
        -1.75543845e+00,  6.48988430e-02, -8.53765419e-01,
        -1.71873251e-01, -2.81898764e+00,  3.35725636e-01,
        -2.33151641e-01, -4.10574860e-01,  2.43039546e-01,
         1.13245268e-01, -7.11919026e-01, -7.30225041e-01,
        -2.45135272e+00,  6.09536436e-01,  5.99605624e-01,
        -7.99144487e-01, -1.38727990e+00, -1.75896828e+00,
        -1.94807162e+00, -3.38222913e+00,  1.41791686e+00,
         1.51111564e+00, -2.07521460e+00, -4.54647139e-01,
        -2.75487245e-01, -1.31399010e+00, -3.30442512e-01,
        -1.30827915e+00, -1.03048343e+00, -8.72182462e-01,
        -2.67091743e-01,  6.94804667e-01, -7.36704361e-01,
        -4.70058247e-01, -1.72010231e-01, -1.45465060e+00,
         5.28120917e-01, -3.13264293e-01, -2.56519702e+00,
        -3.41562273e-01, -7.30622188e-01, -1.97232897e+00,
        -2.76587195e+00, -4.57542799e+00, -3.32966656e+00,
        -2.31084714e+00, -3.13211326e+00, -2.73264230e+00,
        -4.27443191e-01, -1.47522803e+00,  1.91057004e-01,
        -1.85157554e+00, -6.70705826e-01, -1.35178381e+00,
        -2.29837700e-01,  1.55131952e-01, -1.73013925e+00,
        -6.56726779e-01,  3.38810333e-02,  9.34595856e-01,
         9.00961292e-01,  6.34197555e-02,  1.29174549e+00,
         7.96546119e-02, -1.73175093e-01, -2.53846814e-02,
        -1.56887026e+00, -2.44853567e+00, -2.54338466e+00,
        -3.50539944e+00, -3.25744404e+00, -2.91141977e+00,
        -2.66511398e+00, -1.62730496e+00, -2.29688227e+00,
        -2.22095667e+00, -1.44667713e+00, -2.29744909e+00,
        -5.39193738e-01, -2.20355079e-01, -1.41619243e+00,
        -2.16829761e+00, -2.29066221e+00,  4.75294101e-02,
         8.92759781e-01,  1.19580539e+00, -1.05989940e-01,
        -1.06506450e+00,  9.99728290e-01, -9.42556009e-01,
        -8.23586384e-01,  1.52912585e+00, -2.24824507e+00,
        -5.77119500e-01, -2.50696975e+00, -2.01727435e+00,
        -2.22273763e+00, -3.35803966e+00, -1.39662079e+00,
        -2.29959229e+00, -1.07000449e+00,  2.63881329e-01,
        -1.38880518e+00,  2.12765398e-01, -1.31837030e+00,
        -1.40441359e+00, -6.92627608e-01,  2.96402766e-01,
         8.84351313e-02, -2.84134844e+00, -5.49756138e-01,
         6.38664106e-01, -1.66436568e+00,  3.48464545e-01,
         1.41247789e-01, -3.49517839e-01, -6.23529705e-02,
         3.86798346e-01, -9.17072013e-01,  5.96377997e-01,
        -5.22232069e-03, -7.94886963e-01, -1.64853600e+00,
        -1.46510514e+00, -6.50864912e-01,  7.43462882e-01,
         1.69750524e+00, -3.96674616e-01,  1.00993510e+00,
        -1.78736839e+00, -6.06221356e-01, -4.08057784e-03,
        -3.05802053e-02,  3.06272545e-01, -5.11981424e-01,
        -2.65464009e+00, -1.11942912e+00, -8.44319021e-01,
        -2.53035465e-01,  9.73581355e-01,  4.23566678e-01,
         7.29049210e-01, -6.71393949e-01, -7.92920834e-01,
        -3.11033559e-02, -8.05442878e-01,  1.85380966e+00,
         1.20494410e+00,  1.81121438e+00, -1.94174050e+00,
        -2.52642520e+00, -2.71624788e-01, -9.94001465e-01,
        -4.11681684e-01,  1.73821595e+00,  7.65732018e-01,
         3.46212331e-01, -1.50039334e+00,  1.82595069e+00,
        -1.64465405e+00,  2.69061926e-01, -4.89088562e-02,
        -9.34431992e-02, -2.34625695e+00, -1.02489170e-01,
         8.83333413e-02,  1.01367652e+00, -1.82421679e-01,
         2.13786274e+00, -5.61647156e-01, -4.22032429e-02,
         3.15823114e-01,  8.53735452e-01,  1.94416249e-01,
        -4.79035690e-01, -2.02842172e+00, -1.57718779e-01,
        -3.57043401e-01,  2.49844705e-01,  2.50317910e+00,
         1.23611028e+00,  2.60822128e-01, -5.38547390e-01,
        -1.84721843e-02,  9.85374169e-01,  4.00903742e-01,
         3.53486321e-01,  4.38282171e-01, -4.83159494e-02,
        -1.01380328e-01, -1.04103888e+00, -2.49116887e-01,
        -1.85900020e+00, -4.86587558e-01, -8.06935689e-01,
         1.75422883e+00,  6.01475815e-01,  4.03091474e+00,
         2.53858778e+00, -1.52610297e+00, -4.41278143e-01,
         1.17754429e+00, -3.66871321e-01,  1.71406831e+00,
        -1.25828431e+00,  2.04165355e-01,  8.52108122e-01,
         1.00788622e+00,  1.63380800e+00,  2.65820331e+00,
         5.95699042e-01,  1.55751103e+00,  1.69806480e+00,
         2.00846578e+00,  1.99397596e+00, -3.55105661e-01,
        -9.63571477e-01, -1.15837976e+00, -2.83864435e+00,
        -2.96300066e-01, -3.19158601e-01, -5.56141152e-02,
         5.21961563e-01, -2.79865688e-01,  1.36617192e+00,
        -1.63920021e-01,  1.92928158e+00, -1.27581361e+00,
        -9.39101560e-01, -9.81184455e-01, -3.12199680e-01,
         1.20899034e+00, -5.03601993e-01,  1.01808370e+00,
        -8.67781479e-02,  8.76527349e-02,  1.23382907e+00,
         9.00230722e-01,  2.57562322e+00,  2.53521655e+00,
         2.18592235e+00,  1.02057576e+00,  2.21192429e+00,
        -7.19356845e-01, -4.25699522e-01,  8.85725797e-01,
        -1.47102932e+00,  5.61312718e-01, -2.02399898e-01,
        -1.38030999e+00,  2.90897152e-01,  6.36721220e-02,
        -1.01518882e+00,  1.80812182e+00, -3.19801901e-01,
         4.36429897e-01, -1.39194763e+00, -4.07687431e-01,
        -8.20807259e-01, -9.98340092e-02,  1.67589611e+00,
         1.89750771e+00,  9.81820585e-02,  1.62520269e+00,
         2.18862901e-01,  8.35215626e-01,  2.22467386e+00,
         1.22335177e+00,  2.21670572e+00,  6.04971964e-01,
        -4.38839144e-01,  4.35679929e-01, -7.43605388e-01,
        -9.24306436e-01,  7.21024439e-01,  3.17881197e-01,
         1.42692734e+00, -2.26270462e+00,  1.41846915e+00,
        -3.58113629e-01,  5.40062219e-01,  7.75291279e-01,
         1.91701445e+00,  1.51014110e+00, -1.90883117e-01,
        -9.95748718e-01, -4.83582070e-01,  6.40388042e-02,
        -1.19368396e+00,  1.78918314e-01,  1.04117717e+00,
        -5.27681407e-01, -3.84886984e-01, -4.65484460e-01,
         7.84054882e-01, -1.63000202e+00,  1.47040136e+00,
         1.09707226e+00, -1.45687082e+00, -2.93121799e-01,
         8.75941431e-01, -6.57855705e-01,  6.23175578e-01,
         9.05254817e-01, -3.52290785e-01,  2.18895415e+00,
         5.84319139e-01,  9.77652502e-01,  3.31242706e+00,
        -9.89846977e-01, -7.27825414e-02, -9.50972345e-01,
        -1.50653021e+00,  4.97478740e-01,  3.32171859e-01,
         8.41721046e-01, -1.95394257e-01,  1.13621213e+00,
         3.06740616e+00,  4.61547812e-03, -1.00398197e-01,
         1.42782577e+00, -1.01849498e-01,  1.18712869e+00,
        -1.54181234e+00, -8.70386017e-01, -5.61325564e-01,
        -8.77568371e-02, -9.32357777e-01, -3.69055886e-01,
         1.42331170e-01,  4.95718390e-01,  1.20840595e+00,
        -1.99867648e-01, -7.26089999e-01,  1.38702700e+00,
         6.39470197e-01, -1.64495119e-01, -1.05492795e+00,
        -5.82720366e-01,  8.55582435e-01,  1.27991099e+00,
        -2.87515972e-01,  5.58718274e-01,  2.79586296e-01,
         2.52626374e-01,  2.12727480e+00,  6.75273213e-01,
         1.43586591e+00, -2.82842785e+00, -1.20853978e+00,
        -1.54038905e-01,  8.77737412e-01,  1.75152797e-01,
        -5.44437556e-01, -8.33160387e-01, -8.27269714e-01,
        -6.65470491e-01, -1.72733587e+00, -1.66079723e+00,
         1.14146854e+00, -5.66107450e-01,  2.53241777e+00,
         9.58769796e-01,  3.08510935e-01,  5.49438335e-01,
         4.26592212e-01, -7.33106088e-01,  1.53143912e+00,
        -2.17505550e-01, -6.83565716e-01,  8.00971893e-01,
        -1.07208314e+00,  5.82434777e-01, -3.88760101e-01,
        -8.05904008e-01, -5.53400483e-01, -4.61753047e-01,
         1.24001334e-01, -1.88129731e+00, -6.29805487e-01,
         2.96883939e-01, -1.66674486e+00, -3.76128196e-02,
        -1.99698524e+00, -1.55900558e+00,  1.63027313e-01,
         2.37962662e-01, -1.91443050e+00,  5.22112965e-01,
        -1.20977257e+00,  5.79246727e-02,  4.15745206e-01,
        -5.69208492e-02,  1.02852809e-02,  4.05776220e-01,
        -1.09397697e-01, -1.53053879e+00, -2.37389158e-01,
         8.72619447e-01, -2.05864730e-01,  9.16674708e-01,
         4.75282809e-01,  6.45911496e-01, -1.03767732e-01,
        -1.00856648e+00, -1.24196454e+00, -6.65088140e-01,
        -2.01200820e+00, -9.47334433e-01,  1.54978375e-01,
        -4.07358935e-01,  5.60673046e-01,  1.27914575e+00,
         7.30152927e-01, -1.09036121e+00, -9.62489233e-01,
        -1.04100664e+00, -4.41964670e-01, -3.53890143e-01,
         8.03450721e-01, -3.96597544e-01, -3.26475232e+00,
         3.83438716e-01,  3.75740107e-01, -2.89338381e-01,
        -3.74865489e-02,  2.61230665e-01,  2.15582228e+00,
         2.18371813e+00, -8.94492433e-01,  7.53467728e-01,
         2.52677199e+00,  2.73161897e-01,  3.41077219e-01,
        -1.47676141e+00,  1.12565267e+00, -2.79408036e-02,
        -8.01538250e-01, -8.90562244e-01, -8.47476033e-01,
        -3.55719284e-01, -2.64479939e-01,  4.87809584e-01,
        -9.91991670e-01, -1.43759202e+00,  5.25956668e-01,
         1.23630681e+00, -7.57975916e-01,  1.68505425e+00,
         2.60133065e-01,  1.67085614e+00,  2.41893675e-01,
        -9.88747897e-01,  1.24360930e+00, -1.71021927e+00,
         7.47977631e-01, -1.41870653e+00, -2.19340577e-01,
         4.01895302e-01,  3.03709503e-01, -5.27583129e-01,
         6.12401938e-01, -5.57595202e-01,  8.38624450e-01,
        -6.24518366e-01,  5.19715336e-02,  2.99587691e-01,
        -2.63105932e-01,  1.84628304e+00,  2.05295296e-01,
         8.80762262e-01,  8.53261548e-01, -1.46885662e+00,
         5.69346773e-01, -4.94454395e-01, -1.19332838e+00,
         8.26028741e-01, -1.57724419e+00, -7.34236651e-01,
        -1.63177107e-01},
       { 6.54436516e-01,  3.28358510e-01,  1.43799867e+00,
         5.06600271e-01, -9.54712580e-01,  3.27444836e-02,
         4.62295937e-01, -1.98104055e-01, -1.19288009e+00,
        -3.66803320e-01, -4.77382318e-01, -1.36595235e+00,
         2.36507801e+00, -9.57003038e-01,  2.14553415e-01,
        -8.18020611e-01,  1.32550401e-01,  1.35450820e+00,
        -8.64929938e-01,  7.77995554e-01, -4.34348594e-01,
        -3.99965820e-02, -7.96602207e-01,  2.33205666e+00,
        -4.16500591e-01,  8.94862749e-01, -2.24314961e-01,
         1.20091779e+00, -4.40271837e-01,  9.78120674e-01,
         1.31217139e+00,  9.72740005e-01, -3.75708083e-01,
        -5.86253623e-01, -4.12762246e-01, -6.15286868e-01,
        -2.10161164e-01, -4.53801503e-01,  8.74152336e-01,
        -7.85913020e-02,  4.17658228e-01, -1.09483314e+00,
        -4.78009540e-01,  5.02872818e-01,  6.00676762e-01,
        -5.10344970e-01, -1.27824234e+00, -1.46695492e+00,
        -1.41129618e+00,  7.18683571e-01, -2.53052766e-01,
         8.48591425e-01,  4.72807946e-02,  1.36918986e-01,
        -2.29037816e-01, -5.12123342e-01, -1.08191960e+00,
        -4.52915668e-02, -8.98258111e-01,  4.29639929e-01,
         1.20805517e+00,  5.82522650e-01,  2.06194631e-01,
        -1.80261646e+00, -1.01698896e+00,  7.34265016e-01,
        -1.93768436e+00,  1.32508679e-01, -2.14885839e-01,
        -8.72982212e-01, -6.23208576e-01,  6.04707025e-01,
         2.51684898e-01, -6.07946650e-01, -1.98151966e+00,
        -1.12599037e-01, -7.90874800e-01,  2.79583199e-01,
        -4.83733301e-01, -1.41229131e+00,  3.65502638e-01,
        -6.89814566e-01, -5.92017383e-01,  8.11777647e-01,
         6.47969189e-01,  8.28832217e-01, -1.20506387e-01,
        -2.66362234e-01,  8.59177407e-01, -1.74260461e+00,
         1.27055152e+00, -3.73976308e-01, -9.25154391e-01,
        -5.56283863e-02, -2.99339886e-01, -1.00328618e+00,
         7.88344386e-01, -6.64386745e-01,  1.80495706e+00,
        -2.69928029e-01, -1.18987159e+00,  2.38581491e-01,
        -4.00742071e-01, -1.23971376e-01, -7.71023246e-01,
        -1.85226633e+00,  6.06028082e-01,  8.81665272e-01,
         1.23551139e+00, -2.56711280e+00, -4.72405082e-01,
         1.35957741e+00, -2.48377906e-01, -2.18156542e+00,
         9.00963487e-01,  1.88779407e-01, -2.15506354e-01,
        -1.33588717e+00,  1.55033867e+00, -1.54448690e-02,
         3.83320681e-01, -3.63447257e-01,  8.61900728e-01,
         1.71310106e+00,  1.79158996e+00,  8.17897168e-01,
        -1.81625886e+00, -3.65822688e-01, -1.01904923e+00,
        -1.69261213e+00, -9.88102562e-01, -1.03773684e+00,
         2.86978102e-03, -6.26401485e-01,  8.11527865e-01,
         2.22753934e+00,  3.54127105e-01,  9.48970399e-01,
         7.44466183e-01, -1.21761060e+00,  3.30376173e-01,
        -9.82303195e-02, -2.73608814e+00,  9.50775335e-01,
        -9.31760299e-01,  4.51838336e-01,  2.13427311e+00,
        -5.42734620e-01,  1.75213210e-01, -1.71067268e-01,
         6.43330898e-01, -9.67853167e-01,  5.95910773e-01,
        -5.72438170e-01, -2.13016190e+00,  4.01982194e-01,
         2.84903570e-02, -7.79583619e-01,  2.97380021e-01,
        -1.21922405e+00,  8.73873448e-01,  1.22043016e+00,
        -7.30652884e-02,  5.34888454e-01,  1.36725942e-01,
         2.80872890e+00,  1.84444955e+00,  9.70345843e-01,
         2.87681314e-01, -5.72846861e-01,  1.14799331e+00,
         1.83102268e+00, -1.03039037e-01, -9.20827364e-01,
         1.97911416e-01,  6.98785559e-01,  1.71607013e+00,
         1.62729940e+00,  3.34363560e-01,  1.33211744e+00,
         5.74096474e-01, -1.53055869e+00, -2.42766228e+00,
        -7.02346019e-01, -2.02433435e+00,  1.07382215e+00,
         5.09316096e-01, -6.92981715e-02, -3.12308817e-01,
        -2.38329151e-01,  1.53490380e+00,  7.36459454e-01,
         2.11037204e-01, -1.51815220e+00,  3.76142109e-01,
        -1.87400196e+00, -2.81500458e-01,  5.39886838e-01,
        -3.81141332e-02, -2.47039305e-01, -2.02878345e+00,
         4.06442475e-01, -2.90827566e-01,  1.85039696e+00,
         1.91200419e+00, -8.02506290e-01,  1.41802158e+00,
         1.38892416e-01,  1.67399913e-01,  9.07737919e-01,
         1.12424908e+00, -4.18887873e-01, -5.22905248e-01,
         9.08033515e-01, -1.29224643e+00,  6.56736468e-01,
         1.06383826e+00,  8.14069073e-01,  1.28822479e+00,
        -1.02832289e+00,  1.22185031e+00,  9.81642400e-01,
        -6.17975301e-01,  5.00311681e-01,  4.93835201e-01,
         1.05269427e+00,  1.11064507e-01,  1.20731099e+00,
         1.42438410e-01,  4.31551666e-02,  1.10372978e+00,
        -5.87920050e-01,  1.12957304e+00, -8.31638806e-01,
         6.06681874e-01, -5.96745600e-01,  9.33474383e-01,
        -1.25966740e+00,  7.04782122e-01,  3.91759356e-01,
        -1.75060488e-02,  7.49074012e-01, -1.00900691e-01,
         3.23657051e+00, -3.57143158e-01,  1.63495765e+00,
        -9.39112321e-01, -3.43729399e-01, -8.22000129e-01,
         1.29805477e+00, -4.34056332e-01, -1.11089013e+00,
        -1.17787978e+00, -6.21308869e-01,  1.63868759e+00,
        -6.81324165e-01,  3.69970399e-01,  2.18655155e+00,
         1.98274962e+00,  6.66859504e-01, -1.15188049e+00,
         5.13134516e-01,  5.39289832e-02, -1.03994052e-01,
         4.47268914e-01,  1.34309519e+00,  7.05546018e-02,
        -6.67430518e-02,  1.39366944e+00,  1.58706164e+00,
         2.05969803e+00,  2.17672845e-01,  2.15946266e-01,
         7.03124943e-01, -9.21382651e-01, -6.38096093e-01,
        -1.37492408e+00,  2.59431654e-01,  5.29726226e-01,
         6.87682245e-01, -3.24843539e-01,  5.84562418e-01,
        -9.21043858e-01,  1.26744997e-01,  1.56427249e+00,
         1.71641587e-01,  8.33267782e-01,  1.96415106e-01,
         6.30734217e-01, -1.84834643e+00, -7.90770599e-01,
         2.96850761e-02, -1.37964873e+00, -9.69770780e-01,
         8.65468599e-02,  8.54655932e-01,  2.75450874e+00,
         9.92165928e-01,  1.53737274e+00,  2.60970243e-01,
         6.48796435e-01, -4.00341904e-01, -1.84915253e-01,
        -7.37301636e-01, -1.69583506e-01,  1.88706597e+00,
        -2.91478060e-01, -9.78884588e-01, -4.93288414e-01,
        -4.99924503e-02, -2.80623521e-01, -4.92464431e-01,
        -4.25910579e-01,  8.17015481e-01,  1.79210048e+00,
         7.59778421e-01, -1.14737878e+00,  1.80342863e-02,
        -2.03445658e+00, -1.33527485e+00, -1.38699123e+00,
        -1.95582247e+00,  8.87183370e-01,  3.58348680e-01,
        -1.45298997e+00, -1.04289564e+00, -9.99406394e-01,
        -8.24892132e-01, -1.66273353e+00, -5.26552109e-01,
        -1.36904009e+00, -1.55428911e+00, -6.88490792e-01,
        -1.34692430e+00, -8.39805790e-01, -1.22509482e+00,
         6.64266902e-01, -1.38728139e+00, -2.70770196e-01,
         8.45606917e-01, -4.15889061e-01,  1.85784859e+00,
        -3.13110495e-01, -3.94372636e-01,  4.09852378e-01,
        -1.20056815e+00, -4.04400335e-01, -6.34062106e-01,
        -5.36931768e-01,  7.27595713e-03, -3.30769690e-01,
        -7.13105878e-01, -1.55928938e+00, -7.11242317e-01,
         1.18877903e-02, -3.88924174e-01, -1.52926060e+00,
        -3.23360690e-01,  6.84148947e-01,  3.75683666e-02,
        -3.23300186e-01,  4.89179175e-01, -2.12009951e-01,
        -3.70267051e-01, -5.76968345e-01, -7.68956089e-01,
         8.55982427e-01,  1.19204577e+00,  1.19728373e-01,
         1.40459786e+00,  2.57060971e+00,  1.04299193e-01,
        -1.30372390e+00, -2.83376701e+00, -8.48989863e-01,
         4.74874635e-01, -1.25697910e+00, -1.39017170e+00,
         1.66811470e+00,  9.00608248e-01, -1.03212362e+00,
        -1.46624911e+00, -8.69207218e-01, -1.56219504e+00,
        -8.51698494e-02,  2.15950641e+00,  3.04177578e-01,
        -1.66980981e+00,  2.26842746e-01,  1.64532377e+00,
        -5.21886843e-01, -3.24009242e-01,  6.97625933e-01,
        -5.52584452e-01,  9.76577062e-01,  6.73676675e-01,
         1.13430373e+00, -2.89297238e-01, -2.93302404e-01,
         3.29658963e-01,  1.34122632e+00,  1.63255663e+00,
        -1.42277225e+00,  3.44686235e-01, -2.79375278e+00,
        -3.51375092e+00, -9.43760575e-02, -1.55686923e+00,
         1.04626192e-01, -1.24781757e+00,  1.41384087e+00,
        -3.69100650e-01,  1.73312210e+00, -1.21436470e-01,
         9.42618908e-01,  1.07712895e+00, -8.79801817e-02,
         6.34092030e-01, -4.68440672e-01, -2.01354588e-01,
         7.39727185e-01, -1.70451510e+00, -3.29893842e-01,
         8.91299097e-01,  1.14597717e+00,  8.48427491e-01,
        -1.94185128e-01, -1.16171919e+00,  2.69024160e+00,
        -2.52256631e-01,  4.70241683e-01,  5.21988228e-02,
        -7.45508461e-01, -2.91858212e-01,  1.60086642e+00,
        -1.11592852e+00, -1.48017272e-01,  6.51090477e-01,
        -1.31104678e+00,  1.23004087e+00,  5.64364714e-01,
         2.50610690e-01,  1.08907257e+00,  7.57375118e-01,
        -7.90637881e-01,  6.85390186e-01,  6.45838214e-01,
         6.06096289e-01,  5.97292705e-01, -1.22545805e+00,
         4.10710972e-01,  4.67687012e-01, -5.85852837e-01,
         8.11900124e-01, -1.61646719e-01,  2.34149648e+00,
         6.98315597e-01,  3.11952580e-01,  5.34324783e-01,
        -7.21847554e-01, -9.01863861e-01,  1.43837664e-01,
         1.49916540e-01,  1.60949865e+00, -7.78332742e-01,
         6.41710492e-02,  6.65993057e-01,  5.14367381e-01,
         1.37516780e+00,  1.96339112e+00,  1.48556759e-01,
        -4.27015912e-02, -1.01668376e+00, -3.71012511e-01,
         1.95886047e+00,  3.51551767e-01,  1.22505267e+00,
        -4.32149710e-01,  6.44020110e-02, -2.12286132e+00,
         1.98530004e+00,  2.01640627e-01,  9.12632287e-01,
         6.62708465e-01, -4.85269751e-02,  1.19420907e-01,
        -1.04765206e+00,  9.48359962e-01, -9.24105424e-01,
         1.71154186e+00,  1.35104343e+00,  8.33634690e-01,
        -2.74702479e-01,  6.51754962e-01,  6.09985547e-01,
         1.70072268e+00,  4.51250133e-01,  5.04651530e-01,
         7.42085902e-01,  3.35910076e-01,  4.14082731e-01,
        -2.20825866e+00,  2.53422859e-01,  3.16717675e-01,
         2.43304769e-02, -8.32925128e-02,  1.00316332e+00,
         4.45498499e-01, -6.93301735e-01,  2.16226181e-01,
        -2.95104072e-01, -2.61859295e-01,  5.64000370e-01,
         1.15098128e+00, -1.17605106e+00, -3.12572745e-01,
         3.08750008e-01,  7.28319616e-01,  3.69486444e-01,
        -6.26630853e-01,  4.38192772e-01,  6.89593135e-01,
         7.79826256e-01,  1.24127220e+00,  8.15904691e-02,
        -1.66423646e-01, -8.54677301e-02,  1.03017490e+00,
         2.09113209e+00,  8.97020087e-01,  1.35887016e+00,
         5.67733573e-02,  1.97324088e+00,  1.37249217e+00,
        -1.46025000e-01,  6.01747984e-01,  1.24804065e+00,
        -4.60114649e-01, -2.61113824e-01,  9.21219526e-02,
        -1.12652591e+00,  2.23521625e+00, -3.07000804e+00,
         1.17732830e+00,  1.28569212e+00,  4.56500502e-02,
         6.81853224e-01,  7.11084103e-01, -1.60849707e+00,
        -1.39897211e+00, -6.09864939e-01,  7.71502344e-01,
         1.08622758e+00,  1.56881033e-02, -1.00570444e+00,
        -1.47219421e+00,  1.45031480e+00,  1.38899045e+00,
         2.02956299e+00,  4.76200297e-01, -5.65279589e-01,
        -5.41792407e-01,  7.07096992e-01, -1.75961179e+00,
         5.34624000e-01,  5.90828081e-01,  3.95486775e-01,
         1.15216763e-01,  3.30603707e-01,  9.72352288e-01,
         1.64200372e+00, -1.44486301e-01,  1.83947571e+00,
         1.91964871e+00, -5.87756880e-01, -6.63922451e-01,
         1.25820283e+00, -1.30478504e+00,  4.07753252e-01,
         1.53931912e+00,  1.84230769e+00, -4.81613474e-01,
         6.98641321e-01,  6.12102675e-01, -3.04082899e+00,
        -6.59328204e-01, -4.97707326e-01,  1.38349445e-01,
        -5.72111194e-01, -1.54845739e+00, -2.16289988e+00,
         2.22698807e+00,  1.61534525e+00, -2.93483616e-01,
         6.22330034e-01, -1.82341573e+00,  3.64169950e-01,
         7.17857084e-01, -6.18071587e-01, -9.66084223e-02,
         6.71673721e-01, -1.14630318e+00,  1.27202626e+00,
         7.43112386e-01,  5.77637915e-01,  1.21774635e+00,
         4.79251881e-01,  1.60440809e+00,  2.55180258e+00,
        -6.29116497e-01,  8.02701916e-02,  1.68521353e-01,
        -3.67236842e-01, -9.77047381e-01, -3.55242801e-01,
        -4.21746930e-01,  2.14008985e+00, -2.42059291e+00,
        -9.73477882e-01,  1.50534517e-01,  6.21321579e-01,
         1.86342620e+00, -5.02233158e-01,  1.43424660e+00,
        -3.94314703e-01,  5.17955788e-01, -5.92062879e-01,
         1.98122460e-01, -1.42964887e-01, -2.01916287e+00,
        -7.77205734e-01, -4.27113145e-01,  1.94297595e+00,
         9.46673298e-01, -9.01370277e-01,  2.12546992e+00,
         3.08084831e-01,  3.41945792e-01,  4.62595889e-01,
        -3.80963426e-01, -8.97856716e-01,  1.51155505e+00,
        -1.68076549e+00, -1.28778066e-01, -1.19662979e+00,
         1.22838792e-01, -3.35915842e-01, -2.15373254e+00,
        -4.93338740e-01,  9.57888521e-02,  4.20858207e-01,
         2.06888815e+00, -3.49072941e-01,  5.36993335e-01,
         5.37063774e-01,  4.82005146e-01, -9.09681966e-01,
        -1.73353219e+00, -1.06479531e+00, -3.88173621e-01,
         7.97740974e-01,  1.26896637e+00,  9.96764974e-01,
         1.01591291e+00,  4.73174968e-01, -7.48810660e-02,
        -1.09751662e-01, -3.26900135e-01, -1.65219272e+00,
         6.27396416e-01, -1.81753786e+00,  1.43153806e+00,
         3.84874576e-01,  5.99718475e-01,  2.93667729e+00,
         6.87468747e-01, -1.40381425e+00,  1.11379452e+00,
         1.77330251e+00, -1.09936042e+00, -1.17440106e+00,
        -1.40962878e+00, -1.04046863e+00,  7.37669427e-01,
        -8.61605011e-03,  1.47751450e+00, -3.70452467e-01,
         1.37706048e-01, -3.63973238e-01, -1.83945656e-01,
         8.28639589e-01,  7.13833402e-01,  3.09067838e-01,
        -2.41226075e+00, -9.01256909e-01,  1.98390937e-01,
         2.63016457e-01, -1.27851200e+00, -1.19617907e+00,
         8.38667586e-01, -8.23860864e-01,  3.72049418e-01,
        -1.47249972e+00, -5.18092470e-01,  1.85531431e+00,
         5.99799032e-01, -2.77828948e-01, -2.96116450e+00,
         7.18245321e-01, -1.40030016e+00,  2.97897059e-01,
        -1.26441807e+00,  1.89240747e-02, -4.79654950e-01,
        -1.72103768e-01, -1.47421190e+00,  3.02209397e-01,
        -6.12732834e-01,  6.12472564e-01,  3.94211159e-02,
        -2.58128943e+00,  2.47407310e-01,  5.08419588e-01,
        -5.96295356e-01, -1.20463663e-01, -6.04059534e-01,
        -5.91314808e-01,  4.75991605e-01,  4.74079751e-01,
         4.35691642e-01, -1.65195007e+00, -7.91820600e-01,
        -1.02554774e+00,  7.09911584e-01,  4.00505811e-01,
        -6.00398975e-01, -1.55953898e-01,  9.87535168e-02,
         1.81210184e+00, -5.42688812e-01, -3.21900847e-01,
         1.26612407e+00, -2.30897384e+00, -2.87169949e-01,
        -1.28597107e+00,  5.53351812e-01,  5.87194672e-01,
         6.46605276e-01, -4.97555970e-03, -3.89789738e-01,
        -3.95720131e-01, -1.12537044e+00,  1.22317749e+00,
        -5.69681303e-01,  1.78787566e+00,  6.71795104e-01,
         5.02333672e-01, -2.45554510e+00,  5.71262591e-01,
        -4.65495406e-01, -1.37102789e+00,  8.36811831e-01,
         8.36465920e-03, -6.46007448e-01,  3.20487027e-01,
        -6.57893195e-01,  2.32183632e-01, -1.01818474e+00,
        -2.67538606e-01,  6.99434677e-01,  5.75579327e-01,
         1.59012027e+00,  6.97042568e-01,  2.50820877e-01,
        -5.19577386e-01, -2.82971204e-01, -9.45858189e-01,
        -1.12264879e+00,  9.39246863e-01,  1.56754523e-01,
        -2.91265720e+00, -5.65573961e-01, -8.26529204e-01,
         1.16363951e+00},
       {-2.45158742e-01, -5.17767933e-01, -2.61259323e+00,
         1.41388109e+00, -2.99454048e+00, -8.13724821e-01,
         6.95100116e-02,  9.60290163e-01, -9.37665808e-02,
        -4.74215185e-01, -7.43256295e-01,  6.31755556e-01,
        -1.92357373e+00,  5.51289784e-01,  1.81831861e-01,
         2.24773229e-01,  2.78858334e-01,  9.21156740e-01,
         5.11594711e-01, -7.16958636e-01,  5.82729804e-01,
         2.05146525e-02,  2.64619701e+00, -5.96419227e-01,
        -4.96873864e-01,  1.57213609e+00,  8.72894217e-02,
        -9.61269056e-01, -1.35478756e-01,  1.60076474e+00,
        -1.92518593e+00, -4.18443354e-01, -4.37799663e-01,
        -1.70002773e+00, -6.71231552e-02, -9.68161312e-01,
        -5.09986934e-01, -5.53200928e-01,  1.10606899e+00,
         1.50224822e+00,  6.95814348e-02, -5.41199758e-01,
         1.18063266e+00, -1.70059504e+00, -2.27462752e+00,
        -7.43717164e-02, -1.38489818e-01, -1.02312700e+00,
        -5.30911310e-01, -1.14054014e+00, -3.64254747e-01,
         1.38010204e-01,  1.10543335e+00,  1.64360478e-01,
         4.41015754e-01,  5.92710847e-03, -2.25967946e-02,
        -1.00845448e+00,  1.15866220e+00, -1.45798081e+00,
        -1.27517375e-01, -8.16023751e-01, -4.23109228e-01,
        -4.09381108e-01, -7.40082268e-02, -9.75816928e-01,
         6.70352970e-03, -5.27944647e-01, -6.85953230e-02,
        -5.26532213e-01,  1.13259559e+00, -7.67868102e-01,
        -5.29605728e-02,  3.52351507e-01, -7.82172884e-01,
         3.76476166e-01,  7.71410860e-01,  9.79438089e-01,
         1.11197326e+00,  7.44494665e-01, -7.32859349e-02,
         4.07598421e-01, -1.54493918e+00, -1.14176008e+00,
        -8.91837603e-01, -8.91293864e-01, -1.20434822e+00,
        -8.47788707e-01,  5.90419776e-01,  7.93893783e-02,
         8.45731890e-01,  1.24894082e+00, -1.49665082e+00,
        -5.06806343e-01, -1.62060371e+00, -5.58310309e-01,
        -5.10932281e-01, -2.02953491e-02,  9.97472753e-01,
         1.28062780e+00,  1.91133858e+00,  1.42205141e+00,
        -4.62748377e-01, -6.47730528e-01, -4.63784177e-01,
        -7.88054850e-01,  7.63414292e-01,  4.99036040e-01,
        -2.83436465e-01,  1.78639374e+00, -1.71997820e-01,
        -2.18200392e-01, -8.83647154e-01, -1.04703074e+00,
        -6.66390577e-01,  1.20202488e+00, -1.33979255e+00,
         1.49245227e+00, -6.09098459e-01, -2.25163378e+00,
        -1.61931862e+00,  3.10426621e-01,  1.27818822e+00,
         1.03761205e+00, -1.92294376e-01, -2.93094592e-01,
         1.15487573e+00,  6.25775316e-01,  1.03828283e+00,
         8.21645838e-01,  1.65201960e+00, -2.15109315e-02,
         4.40162447e-01,  1.70525381e+00, -2.26498448e+00,
        -4.28425286e-01,  9.24149392e-02, -6.02086728e-01,
         9.44829921e-01, -1.19774024e+00, -1.10062023e+00,
         5.06201848e-01,  7.09729959e-01,  1.21943487e+00,
         3.07252292e-01, -4.43953735e-01, -5.90682414e-01,
        -2.80659218e+00, -4.90872281e-01, -1.62353973e-01,
        -4.38341337e-01, -6.66576277e-01,  7.78736394e-01,
        -7.88883767e-01, -4.72432558e-01,  7.27242423e-01,
         1.51904704e+00,  1.29060637e+00,  3.81714544e-01,
         1.24347651e+00,  6.21955980e-02,  6.86334779e-01,
        -7.31774537e-01, -2.50959614e+00, -1.46186916e+00,
        -2.98657361e+00,  4.76005567e-01,  1.65237002e+00,
        -3.95000344e-01, -1.33841244e+00, -7.63105823e-01,
         8.54360895e-01, -1.51157530e+00,  1.45495374e+00,
        -8.19055765e-01,  5.89654032e-02,  2.67195339e-01,
         2.53984550e-01, -8.11832949e-01,  2.84668324e-01,
        -2.37621468e-01, -1.26879724e-01,  1.53581110e+00,
         1.61707322e+00,  2.66774156e+00,  9.38891347e-01,
         2.50541512e+00, -4.34306962e-01, -1.44910686e-01,
        -9.40898584e-01,  2.25341494e+00, -1.37392209e-01,
        -6.41636615e-01,  6.86546848e-01,  2.80046180e-01,
         1.73447625e+00, -9.50219935e-02,  2.49860392e-01,
        -5.52983579e-01,  2.62117675e+00, -5.89642702e-01,
        -1.56970249e+00, -1.51065354e+00,  7.11607862e-01,
        -8.37199495e-02,  2.68960738e-01, -5.38128371e-01,
         4.85572602e-01,  9.10567309e-01,  1.63567309e-01,
         1.76518079e-01,  2.79452019e-01,  1.53492243e+00,
         1.08138279e+00,  1.84768047e+00,  4.28211848e-01,
         1.18704486e+00,  1.34407317e+00,  7.42847369e-01,
        -1.53869388e+00,  2.22017183e-02,  3.81281286e-01,
        -1.56432297e+00, -8.67268792e-01,  2.18119107e-01,
        -1.14031359e+00, -6.27900194e-01, -1.93444757e-01,
         1.63680664e+00,  4.63977588e-02,  7.15371749e-01,
        -1.86177480e-01, -1.19637821e+00,  7.26180470e-01,
        -3.55632019e-01, -2.16961165e-01, -2.22289445e-01,
        -8.13769299e-01,  1.10104328e+00,  1.49761687e+00,
         2.16631395e+00,  4.06662566e-01,  1.89939623e+00,
         5.14276081e-01,  5.18361087e-01,  3.91830708e-01,
         1.91391261e+00, -1.42349768e+00,  9.37260385e-01,
        -1.55687991e+00, -9.71224176e-02, -7.12728895e-01,
         2.45576918e+00,  1.81655836e-03,  1.27929467e+00,
        -4.88360493e-01,  3.89796304e-01, -1.25049514e+00,
         9.80717493e-01,  1.03567523e+00,  1.69203531e+00,
         5.95988402e-01, -2.57641099e-01, -7.86993750e-01,
        -1.08930728e+00, -1.55734793e+00, -1.37350732e+00,
         1.36733592e+00,  3.29383788e+00,  2.58489386e+00,
         3.97344259e+00,  1.30174091e+00, -2.11386134e-01,
        -1.57024550e+00,  1.58472246e+00, -1.84079944e+00,
         3.01942153e-03, -1.08677544e+00, -2.79468536e-01,
         1.85140060e+00,  2.83420719e+00, -4.78012494e-01,
         7.54141273e-01,  1.39284106e+00, -8.67021749e-02,
         1.76785370e+00,  9.13115003e-02, -1.26053585e+00,
        -1.70216814e+00, -2.11520486e-01, -1.51312713e+00,
        -2.36118751e+00, -2.84861798e+00, -3.44661610e+00,
        -1.80947384e+00,  7.66079494e-01,  2.96535437e+00,
         3.14716886e+00,  1.67639194e+00,  6.65473146e-01,
         1.51997983e+00,  5.52364277e-01, -4.54582873e-01,
        -1.36448592e-01, -3.13808512e-01, -1.29130844e+00,
         5.27431618e-01, -8.34361398e-01, -5.03261279e-01,
        -2.56891247e+00, -6.32879333e-01, -2.66142182e-01,
         1.29552724e-01, -9.85045504e-01, -1.01342882e+00,
        -9.92214920e-02, -3.91025578e+00, -1.29449177e+00,
        -3.33709895e+00, -1.62311049e+00, -2.47389407e+00,
        -2.41715570e+00, -4.16296682e+00, -1.74409947e+00,
         1.76524413e+00,  4.64379324e-01,  1.54236346e+00,
         2.26320943e+00,  1.06276846e+00,  1.52925058e+00,
         1.50331969e-02,  6.01648290e-01, -2.17008110e+00,
        -1.46414876e+00,  2.49106532e-01, -9.78784969e-01,
         2.76643828e-01, -1.82118197e-01, -1.72155894e+00,
        -1.33642110e+00, -1.61601156e+00, -5.28492762e-01,
        -1.02355319e+00, -1.20927238e+00, -2.40494402e+00,
        -6.13194161e-01, -6.21325784e-01, -1.13534314e+00,
        -1.11694367e+00, -1.58717725e+00, -1.25172556e+00,
        -2.78013519e+00, -5.88165341e-01,  8.49510787e-01,
         1.41469068e+00,  2.02382257e-01,  1.43754988e+00,
         5.44636556e-01, -1.24892153e+00, -6.74811170e-01,
         3.28648739e-01,  4.85332415e-01,  1.30351787e+00,
        -1.56674469e+00, -1.39947870e+00, -7.42555575e-01,
        -8.47221529e-01,  4.24493999e-01, -1.60258216e-01,
        -2.32691049e+00, -2.53108429e+00, -2.00637187e+00,
        -4.54325053e-01, -5.65126088e-01, -1.54256087e+00,
        -1.11748380e+00, -5.07101492e-01, -1.18721788e+00,
        -1.31965646e+00, -2.06763305e+00, -8.25058904e-01,
         4.51311279e-01,  2.62321642e-01, -5.52732026e-01,
         5.14799002e-01, -7.22010613e-01, -5.17440599e-01,
        -4.88377427e-01,  4.40761789e-01,  3.66233582e-01,
         1.64082828e+00, -1.01777880e+00, -1.03698932e+00,
        -6.28312552e-01,  3.62299578e-01,  2.33704301e+00,
         8.67010161e-01, -5.64177299e-01,  4.72267008e-01,
         3.17226592e-01, -2.53295516e-01,  7.57699538e-01,
         1.96565321e-01, -1.92418506e+00, -3.32072940e-02,
        -1.45462123e+00,  4.60692546e-02, -2.43580563e+00,
        -6.51766792e-01,  3.32604723e-01,  3.76490169e-01,
        -6.38266134e-01,  2.61643983e-01, -1.77669810e+00,
         1.11198606e+00,  1.14241029e+00, -1.30560612e+00,
        -2.80734966e-01, -1.01789322e+00,  7.64851154e-01,
        -1.28103245e+00,  1.20159830e+00,  4.00215633e-01,
        -1.31683275e+00,  2.13858948e+00, -8.30737667e-01,
         8.25766424e-02,  1.56714543e+00,  5.47478321e-01,
         3.14127456e-01, -8.92741233e-01, -1.80526329e+00,
        -1.16516553e+00, -1.97848692e+00, -8.63693494e-01,
        -2.93701140e+00, -4.58002824e-01,  5.92778712e-01,
        -3.21104024e-01,  1.87455123e+00, -3.97865887e-01,
         2.42084328e+00,  1.10038737e+00,  1.30872924e+00,
        -1.78521294e+00, -8.85996250e-01,  4.80989945e-03,
         5.94928525e-02, -5.69304682e-01,  5.98048629e-02,
        -8.05044024e-01, -9.93754663e-01,  2.09009833e+00,
         1.54213306e+00,  5.94783036e-01, -6.56674943e-01,
         1.06248367e-01, -1.56470022e-01,  5.04600605e-01,
        -1.76608947e+00,  1.09884783e-02, -1.50072140e+00,
        -1.67375995e+00, -9.53924003e-01, -2.04227324e-01,
         1.34731995e+00,  8.86698160e-01,  6.41861390e-01,
         5.43550774e-01,  7.60779673e-01, -7.95533175e-01,
         1.41848061e+00, -6.23728870e-01,  5.26193360e-01,
        -1.31593711e+00,  7.58771639e-02, -5.37440243e-01,
        -1.15685896e+00, -1.03723233e+00, -1.10367053e-01,
         1.46997833e+00,  5.81664096e-01, -7.80539320e-01,
        -1.44963068e-01, -2.56180431e+00, -4.05281891e-01,
        -1.10302100e+00, -3.37842825e-01, -1.24100531e+00,
        -2.10612376e+00, -1.40798925e+00, -6.42987160e-01,
         6.81762538e-01, -1.50214877e-01,  9.02624648e-01,
         6.55030171e-01, -9.74395576e-01, -1.88481119e+00,
        -9.57572905e-01, -3.89139051e-01, -8.80511047e-01,
        -1.18490425e+00,  5.05402841e-01, -1.74239832e+00,
        -4.40796951e-01, -5.87668618e-01, -8.62521599e-01,
        -1.04927348e+00,  3.18683922e-01,  4.11072968e-01,
         7.09242257e-01, -1.08806290e+00,  3.64098892e-01,
        -1.19478535e+00, -9.90755626e-01, -6.54041703e-02,
        -5.62164930e-02, -1.77320657e+00, -8.12175370e-01,
         1.03178385e+00, -2.41532181e-02,  1.43152924e-01,
        -1.19046034e-01, -3.68382895e-01,  7.00612186e-01,
         8.18294987e-01,  6.42219471e-01, -3.50984136e+00,
        -7.31211031e-01,  1.05186236e+00, -1.63040969e-01,
        -2.70152843e-01, -5.59047615e-01,  5.79903754e-01,
        -1.10602876e+00,  2.64593157e+00, -3.95231414e-02,
        -3.44128946e-01,  7.81493950e-01,  1.51474733e+00,
        -9.76852244e-01, -1.35302405e-01, -7.95395871e-01,
         5.09570245e-01,  2.45729338e-01,  3.87342682e-01,
         2.70487604e-01,  1.49023478e+00,  1.72951081e-01,
        -5.63821920e-01,  3.24437686e-01, -1.17350739e+00,
         1.67614400e-02, -2.32921359e+00, -8.70831260e-01,
        -4.66956221e-01, -8.71503342e-01, -1.33859107e-01,
         9.34925356e-01,  3.19655473e-01,  7.63435088e-01,
        -8.59615572e-01, -5.04801213e-01,  2.33397167e-01,
         4.10348190e-02,  1.19803560e+00,  2.20662350e-02,
        -5.48371982e-01, -1.01919494e-01,  1.01604036e+00,
         2.41898799e+00,  1.40433864e+00, -1.91718547e-01,
         2.72887255e-01, -1.72109385e+00, -1.01688462e+00,
        -6.93975439e-01, -1.23744023e+00,  3.18481265e-01,
        -1.83720749e-02, -4.38750575e-01, -1.05168463e+00,
        -1.06076627e+00, -1.09122313e+00, -6.80142210e-01,
         1.96849470e+00, -5.98316533e-01, -2.40585106e-01,
        -1.62673262e-01, -5.10872747e-01,  2.85888057e-01,
         3.53319010e-01, -3.47197625e-01,  4.85250167e-02,
         1.56698475e-02,  1.69065033e-02,  8.29621850e-01,
        -6.57809261e-01, -3.01456268e-01, -2.80722106e-01,
         5.12971975e-01, -9.46217170e-02,  4.51133646e-01,
         9.68855977e-02,  2.35406410e+00, -6.03560713e-01,
        -5.70439923e-02,  2.14757285e-02,  8.59710019e-01,
        -3.09707381e-01, -2.90722351e-02, -3.08793731e-01,
        -7.98195184e-03, -4.15441859e-01,  7.47041758e-01,
        -5.15296298e-01, -6.17767120e-01, -1.26948256e-02,
         6.69442541e-01, -6.67882208e-01, -1.43297349e+00,
         4.05252605e-01, -2.52260906e-01,  1.25680416e+00,
        -9.10172264e-01,  1.16463626e+00, -2.69358087e-01,
         6.19674086e-01,  2.94260262e-01, -2.23180515e+00,
         1.13520649e+00,  4.25606856e-01, -3.66984509e-01,
         4.70076673e-01, -9.13623636e-01,  1.70873322e+00,
        -7.00641625e-01, -6.57928347e-01,  9.36510621e-01,
        -5.33693064e-01, -7.33904700e-01, -5.67557129e-02,
        -2.81352384e-01, -3.38836086e-01, -1.77710078e+00,
         3.15951868e-01,  8.26871773e-01, -7.44458668e-02,
         2.14547735e-01, -6.82424431e-01, -9.18985149e-01,
         1.43361152e+00, -1.51804691e+00, -1.34926829e-02,
         1.18597645e+00, -7.50790151e-01, -1.88339918e-02,
        -6.78436191e-01,  1.12457288e+00, -1.78358486e+00,
        -1.31993452e-01, -1.16413252e+00,  2.21080633e+00,
        -5.65112436e-01, -1.51471773e-01,  2.73651240e-01,
         1.92734785e+00, -1.15654623e+00, -9.03099766e-02,
         1.97436071e+00,  7.62964407e-02, -4.66339482e-01,
         4.52056193e-01, -9.89097541e-01,  7.59427693e-01,
        -4.21547693e-01,  2.34971936e+00, -4.50820774e-01,
         9.68119890e-01,  1.01949665e+00,  5.92370249e-01,
         6.01120998e-01, -1.35990433e+00, -1.47019141e-01,
        -2.05695467e+00,  9.95856973e-03,  2.84964284e-01,
         3.41505708e-01, -8.13998560e-01, -1.15136976e+00,
        -1.56279509e+00,  1.30826768e+00, -1.66944646e-01,
         7.72229122e-01, -5.49951267e-01,  2.32089660e-01,
         4.65004302e-01,  2.32226138e-01,  4.89298738e-01,
        -3.66237758e+00,  1.98054268e-02, -8.37173597e-01,
        -3.68228281e-01,  3.27370834e-01, -2.04374861e+00,
         1.51970654e-01, -3.32868748e-01, -1.01289619e+00,
        -8.39441180e-01, -6.47083630e-01,  1.04243405e+00,
        -1.30318606e-02, -1.30571479e+00,  2.66485990e+00,
        -3.76004771e-01,  2.72543185e-01, -7.83476282e-01,
        -1.85634622e+00, -2.06941312e+00, -3.16933848e-02,
        -9.09488378e-01, -1.14002271e+00,  1.18357713e+00,
        -4.40745149e-01, -1.23647904e+00,  2.03248561e+00,
        -2.08235320e-01,  1.38737043e+00,  1.10384561e+00,
         1.64215351e-01,  1.33974558e+00, -3.80464539e-01,
         9.39752515e-01,  1.44522803e+00, -2.30983316e+00,
         2.64736896e+00, -1.86349777e-01, -6.67673940e-01,
        -2.59979231e-01, -8.60229265e-01,  3.29536239e+00,
         1.69514178e+00,  1.61952558e+00, -1.29634550e+00,
         1.23222538e+00,  5.82120392e-01,  1.24154248e+00,
         2.66817101e+00,  5.87475055e-01, -6.63020013e-02,
        -4.71636147e-01, -5.65369746e-01,  8.20321611e-01,
        -5.91858893e-01, -1.48593100e+00, -1.59857346e-01,
        -1.68939696e+00, -2.53137343e+00, -7.45361941e-01,
        -8.42928197e-01,  1.09474864e+00,  1.38143152e+00,
         3.80482768e-01,  5.97829526e-01, -1.22147489e+00,
        -7.40258142e-02,  2.73789213e-01,  2.26618995e-01,
         1.46400320e+00, -3.66438909e-01, -2.06854785e-01,
         1.35663351e-01,  4.05011034e-01, -1.47108113e+00,
         8.77602037e-01, -4.46895990e-01, -3.41922040e-01,
        -8.61907261e-01,  3.70752091e-01, -1.55957679e-01,
        -2.64304021e-01, -1.67900880e+00, -1.20520075e-02,
        -3.70712724e-01},
       {-2.19251972e+00,  1.14222045e+00, -1.62694709e+00,
         5.63978822e-01,  1.20253309e+00,  1.58284321e+00,
        -3.93239342e-01, -5.19859587e-01,  4.97826670e-01,
        -5.18365733e-01,  5.57622695e-01,  2.48977274e-01,
         5.56624719e-01, -3.22776090e-01, -3.07238320e-01,
         1.93959436e-01,  3.16907349e-01, -3.51722356e-01,
        -4.41680433e-01,  8.59805499e-01,  6.41792373e-01,
        -5.34017331e-01, -3.97951320e-01,  7.57606182e-01,
        -3.21382909e-03, -1.27355233e+00,  1.34841946e+00,
        -1.06324393e+00,  2.59942149e+00, -1.95775493e+00,
        -8.86308898e-01, -5.02115188e-01,  2.85104869e+00,
        -1.29090779e+00,  6.89097576e-01,  1.37514966e+00,
         8.78021804e-01, -3.35017506e-01, -4.91633268e-01,
        -3.43322081e-01,  7.07810803e-01,  5.16631903e-01,
        -3.44844863e-01,  3.06736187e-01,  9.97297875e-01,
         1.10654476e+00,  5.34333255e-01, -9.22399850e-01,
         4.67411229e-01, -9.58528789e-01, -1.44341547e+00,
         7.67521443e-01, -9.84529586e-01, -2.12886074e-01,
        -2.34254425e-02, -1.19598003e+00,  1.22843245e+00,
        -1.57979638e+00,  6.15838817e-01, -1.14129818e+00,
        -4.97350466e-01, -2.39593733e+00,  2.43630854e+00,
         1.59462675e+00,  2.88956031e+00,  1.23447142e+00,
        -3.05777635e-01, -1.87703998e+00, -5.38858708e-01,
         8.43953316e-01, -1.80495006e+00, -7.65337491e-01,
        -9.11408681e-01, -2.55242255e-01, -4.23965677e-01,
        -6.24194807e-01,  1.36736373e-01, -9.67411121e-01,
         3.87130750e-01, -1.52676332e-01,  9.14338236e-01,
         1.76335689e+00,  3.77606131e-01,  6.27400001e-01,
         1.33434848e+00,  8.51024658e-01,  3.22688554e-01,
         2.03148527e+00, -5.44345220e-01,  6.75629443e-01,
        -2.57776786e-01,  2.72130469e-01,  8.93680539e-01,
         1.28163955e+00, -1.55153109e+00, -7.65511794e-01,
        -7.61826477e-02, -3.39048344e-01, -8.05888801e-01,
        -2.87493707e-01, -1.46509985e+00, -2.94126102e-01,
         1.60622634e+00, -7.24827533e-01,  8.95201921e-02,
        -1.04765456e+00,  2.04774252e-01, -1.12648263e-01,
         6.74215089e-02,  9.76144185e-01,  1.42796219e+00,
         5.17186255e-01, -1.87982124e-01,  9.47797977e-01,
         4.99184327e-01,  5.66840806e-01, -1.31219581e+00,
         2.71770220e-01, -4.63252846e-01, -3.83273537e-01,
        -1.19607525e+00, -6.47624329e-02,  1.81692961e+00,
         4.59314520e-01,  1.60256004e-01, -1.49403463e+00,
        -2.73734501e-01,  6.11843836e-02,  4.91618246e-01,
         1.11235883e+00, -2.67182150e-01,  6.75088134e-01,
        -4.97446602e-02, -4.16592144e-01,  1.21241201e+00,
         1.75242097e+00, -6.07309405e-02,  6.50466588e-01,
         1.48149675e+00, -1.02219898e+00,  1.56847000e+00,
         9.00241187e-01,  6.75882537e-01, -1.17824800e+00,
         8.55300000e-01,  4.06039911e-01,  2.07515267e-01,
         6.19956907e-01, -5.93088334e-01, -8.46006676e-01,
        -6.21488020e-01,  5.09139261e-01,  1.14582010e-01,
         1.30112201e+00,  7.09428713e-02,  8.47097548e-01,
        -6.33487520e-01, -5.70976871e-01,  5.77749092e-01,
        -1.47613741e-01, -1.67234474e+00, -2.99366057e-03,
         8.79068958e-01, -1.41194522e+00, -2.13748593e-01,
        -3.18831745e-01,  7.39658056e-01,  2.34103295e+00,
         1.08356863e+00, -6.45867010e-01, -1.10827815e+00,
         4.72691251e-01,  8.70033875e-01,  1.15757911e+00,
         1.10236208e+00,  1.95814787e+00, -1.90510222e-01,
         2.58932943e-02, -1.08202085e+00, -2.30280268e-02,
         3.03456914e-01,  6.31729396e-01, -3.48791152e-01,
        -3.60367921e-01,  9.54705281e-01,  8.00772476e-01,
        -1.60274359e+00,  4.53641429e-02,  1.70629946e-01,
        -1.23367040e-01,  9.58564771e-01, -1.59468323e+00,
         9.32950318e-01,  6.96952537e-01,  3.86895916e-01,
         1.12896920e-01, -1.13070559e+00, -3.00318279e-01,
        -2.24104816e+00,  2.48202803e-01, -4.27941638e-01,
         1.95487823e-01,  3.23655388e-01,  2.83451112e-01,
         1.63773535e+00,  4.14997371e-02,  2.21717798e+00,
        -1.26155838e+00, -7.67809254e-01,  4.41181798e-01,
         2.51966921e-01, -8.47436946e-01, -5.90533294e-01,
         1.30002286e-02,  1.46834659e-01, -6.65558987e-03,
        -1.89875681e+00,  3.32775429e-01,  1.23620508e+00,
         7.50882295e-01,  1.77287316e+00, -1.23883416e+00,
        -1.75196881e-01, -2.07643598e-01,  5.56334187e-01,
        -3.66470655e-01, -2.49087456e+00,  3.39046399e-01,
         2.73778483e-01,  5.22879751e-01,  4.06122583e-01,
         1.50832071e+00,  1.86777905e-01,  1.05038011e+00,
        -5.25982696e-01,  1.68555772e+00,  3.46650877e-02,
         3.49248008e-01,  1.21039197e+00, -6.71832527e-02,
        -4.14360557e-01, -1.17163156e-02, -1.81166981e+00,
        -5.76580841e-01,  2.66490319e+00,  1.99321033e-01,
         1.25588004e+00,  2.48404732e-01,  1.38801745e-01,
         7.93546726e-01, -6.80910627e-01,  2.26270566e-02,
        -1.81532128e-02,  1.05267428e+00, -1.18120941e+00,
        -1.06790059e-02, -5.17989912e-01,  1.83103279e+00,
        -2.22802541e-02,  2.14069991e+00, -4.38132551e-01,
         4.49844733e-01,  3.74121314e-01,  2.43593847e-01,
         3.40183853e-01, -2.97091831e-01,  1.53481485e+00,
         1.20746127e+00,  1.76629396e-01,  4.58251622e-01,
         7.59173807e-01, -6.50633275e-01, -2.24326045e+00,
         1.09314678e+00, -8.15415452e-01,  2.28278769e+00,
         6.45110777e-01,  3.43929482e-01,  5.40227607e-01,
         3.54952962e-01,  1.38043506e+00, -1.92163245e-01,
        -1.44355899e-01,  4.74790339e-01,  1.34035777e+00,
        -1.36905730e-01,  3.47717718e-01,  2.18839869e+00,
         1.92939720e+00,  1.82384860e+00,  8.26105694e-01,
         7.53534862e-02,  2.03647462e+00, -2.58515987e-01,
         5.98521328e-01, -1.31347011e+00, -8.69385856e-01,
        -2.24604870e+00,  4.95863945e-01, -4.37681592e-01,
         5.80906761e-01,  3.45225652e-01, -1.40568748e-01,
        -5.70999129e-01,  5.92278513e-01, -3.06681706e-01,
         5.66553477e-02, -6.81797710e-01, -1.58239403e+00,
         1.18276596e-01, -6.79272757e-01, -3.51335915e-01,
         9.38415897e-01,  6.19541561e-01,  6.70417027e-01,
         1.82353866e+00,  1.71924378e+00,  2.10381415e+00,
         1.44136972e+00,  1.71033924e+00, -1.20226208e-01,
         8.92196162e-01,  4.10012705e-01, -5.92899954e-01,
        -1.26437692e+00, -1.12563161e+00, -5.08177603e-01,
        -1.59624747e-01, -1.29164939e+00, -1.15755915e+00,
         2.55173147e-01,  1.36215498e+00,  8.62155020e-01,
         2.39722922e+00,  7.78251941e-01, -6.31088429e-01,
         9.11492980e-01, -7.99427141e-01,  2.56203275e-01,
         1.98366935e-01,  5.27052275e-01, -9.26502151e-01,
         6.36451238e-01, -3.48166574e-01,  2.51287702e-01,
        -8.53152649e-01, -1.37040315e+00, -3.15286869e+00,
        -2.78256269e+00, -4.70792052e-01, -3.85637145e-01,
        -1.00991608e+00, -1.28985802e+00,  1.18743286e+00,
        -1.69009187e-01,  1.03168603e+00,  2.71114138e-01,
         8.21067655e-01,  8.60709444e-01, -1.48497417e+00,
        -1.48341919e+00,  3.06559094e-01,  5.16649185e-01,
         3.87593056e-01,  1.60139121e+00,  1.44169715e+00,
