[array([[ 1.63497473e+00,  1.47127872e-01, -7.12927636e-01,
         8.08526881e-01, -4.11112007e-01,  9.58499451e-01,
         1.01287999e+00,  1.16145479e+00,  7.12544053e-01,
         4.38451065e-01,  1.14944579e+00, -6.17480655e-03,
         5.70072827e-02, -2.57288873e-01, -6.55570699e-01,
         8.21369946e-01,  2.65240259e-01,  4.25734807e-01,
        -5.52741865e-01, -1.74142417e+00, -2.52183491e+00,
         3.63246755e-01,  3.03054551e-01,  1.22305131e+00,
         4.96556960e-02, -7.63242682e-03,  7.78916888e-02,
        -9.26687568e-01, -2.14021975e-01, -2.71710622e-01,
         7.94079898e-01,  9.00587386e-01,  1.49841503e-01,
         7.08250528e-01,  9.07580299e-01,  1.22371527e+00,
         1.15922661e-01,  1.93431628e+00, -1.58584547e-01,
         1.66660313e+00,  1.59003217e-01, -1.60004690e-01,
        -2.88354352e-01,  7.59413865e-01,  1.13251466e-01,
         3.67993308e-01, -1.09706083e+00,  2.23501747e-01,
        -1.19130253e+00, -9.94997777e-02, -3.55525812e-01,
        -1.17497058e+00,  7.89177501e-01, -5.57241009e-01,
        -6.50109771e-01, -2.47527076e+00,  6.57706909e-01,
        -6.63816603e-01,  1.28910496e+00, -1.54896048e+00,
         4.02736500e-01, -1.39542725e+00, -1.17683950e+00,
        -2.81044987e-01,  8.84512625e-01,  1.54063191e+00,
         8.34276782e-01,  6.90158177e-01,  1.02426239e-01,
        -2.13429115e-01, -1.47576652e-01, -1.37987693e+00,
         4.22619888e-01, -3.83747678e-01, -2.51592387e-02,
        -6.14243786e-01, -2.28510776e-01, -1.04616268e+00,
        -1.79909801e+00,  7.73921161e-01,  4.64866364e-01,
        -4.30357130e-01,  6.26862090e-01,  1.06612902e+00,
         7.21175032e-01, -2.71746262e-02,  1.39503080e-01,
         8.41408923e-01,  4.61185830e-01,  1.95534516e+00,
         3.44932895e+00,  2.98171068e+00, -7.15205211e-02,
         2.01939182e+00,  3.43363032e+00, -2.56103444e-01,
         1.28030240e+00,  2.21361128e+00,  2.08225567e+00,
         8.42454177e-01,  1.66443400e+00, -1.79343201e+00,
         8.10946993e-01, -2.96059867e-01,  8.05492396e-01,
         8.17298026e-01,  1.58857422e+00,  1.04071392e+00,
        -1.43238581e+00, -4.37595639e-01,  1.90705846e-01,
         6.86829210e-01,  1.50506389e+00, -1.11634442e+00,
         7.30854803e-01,  8.10001182e-02,  4.95806187e-01,
        -3.18345523e-01, -6.27637538e-01,  1.91059780e+00,
         2.08055124e+00,  2.74744225e+00,  1.65120058e+00,
         3.28312008e-01,  1.91621113e+00,  1.83223627e+00,
         2.12704078e+00, -7.57863116e-01,  3.76391417e-01,
         8.85490394e-01, -1.38664204e+00,  3.64806041e-01,
        -1.05919030e-01, -1.60112613e-01,  1.62827914e-01,
         1.58151828e+00, -8.40174841e-01, -9.72737721e-01,
        -9.80071183e-02,  3.61844854e-01,  6.25674668e-01,
         1.44302776e+00,  9.38468528e-01, -2.34262843e-01,
         3.71484460e-01,  1.94746193e-01,  9.27745274e-01,
         3.99427169e-01,  1.52760175e+00, -2.43353814e-01,
         1.23261037e+00,  6.06765421e-01, -2.40382731e+00,
        -1.77640752e-04,  1.34620154e+00,  7.23413737e-01,
         2.00314888e+00,  1.55261237e+00,  5.41539000e-01,
         1.82859623e+00,  1.79959903e-01,  3.78832351e-01,
         3.75442361e-02, -1.69360996e-01,  1.42574338e+00,
         1.43719201e+00, -6.70714335e-01,  2.50007334e-01,
         1.47096349e+00, -2.52067253e-01,  1.87676792e+00,
         3.24490811e-01, -1.02430399e-01,  1.88092048e+00,
        -9.62218128e-01, -4.92984283e-01, -1.19221074e+00,
        -1.91830802e-01, -7.42382761e-01, -2.54202153e+00,
        -7.92580423e-01, -1.45818945e+00, -6.95703313e-01,
        -5.93661418e-01, -3.13924159e-01, -8.44484639e-01,
         1.71275329e-01,  5.81435702e-02,  1.38677051e-01,
        -1.13084250e+00,  9.24198863e-01, -7.99378827e-01,
        -1.56651051e+00, -3.70884421e-01,  2.43682389e-01,
        -6.10034356e-01, -3.75998179e-01,  1.49386154e-01,
        -5.81736674e-01, -1.69747080e+00,  2.78371785e-01,
         1.40954597e-01, -1.03541637e+00, -2.69832826e-01,
        -1.41295657e+00, -4.20581588e-01, -8.63420225e-01,
         1.79011467e+00, -4.16236340e-01, -1.70392602e+00,
        -1.21749746e+00, -1.58130973e+00, -2.39318470e+00,
        -1.84094888e+00, -1.76527841e+00, -1.16732701e+00,
        -1.75705386e+00, -1.19414537e+00, -3.17666326e+00,
        -1.48875589e+00, -1.07867963e-01,  1.33089935e+00,
         1.08093265e+00,  4.71179421e-01, -1.39998703e+00,
        -9.44376502e-01, -8.18669133e-01, -5.86628806e-01,
         4.60257260e-01, -5.17697273e-01,  8.65868242e-01,
        -6.31827536e-02, -1.96137997e+00,  4.65595638e-01,
        -8.05816183e-01, -7.87419169e-01, -1.43512059e+00,
        -2.60847429e+00, -3.05940880e+00,  4.19649193e-01,
        -2.73027347e+00, -1.32202379e+00, -1.90364183e+00,
        -1.24928455e+00, -5.56572925e-01, -2.87671864e+00,
        -3.54132344e+00, -4.27057052e+00, -1.00055261e+00,
        -8.73974104e-01,  4.72169275e-01,  2.05239269e+00,
        -3.95750206e-02, -3.42023662e-01, -7.68619900e-01,
        -9.30477802e-01, -7.55278133e-01,  1.35587174e+00,
        -1.96929895e+00, -1.52294580e+00,  1.44075372e+00,
        -4.57354303e-01, -1.63445090e+00,  1.40842584e+00,
        -1.29398712e+00,  2.14702995e-01,  1.38152300e+00,
        -8.74001942e-01, -1.02979453e+00, -3.69905900e+00,
        -2.90090417e+00, -2.61548033e+00, -2.22335139e+00,
        -1.30227312e+00, -1.70469229e+00, -2.31398623e+00,
        -1.27093226e+00, -1.63352263e+00,  7.11661010e-01,
         6.52675893e-01,  5.25346738e-01,  4.90777641e-01,
        -7.79893642e-01,  8.86974314e-01,  1.33424669e+00,
         1.14910592e+00, -7.87801710e-01, -1.42233487e+00,
        -7.22276444e-01, -7.33977547e-01, -6.61811716e-02,
        -7.66487623e-01, -7.33833158e-01, -3.11090021e-02,
         1.29685550e+00, -4.60287353e-01, -3.99496266e-01,
        -4.31443019e-01, -3.43251436e+00, -3.15156046e+00,
        -6.21340917e-01, -2.06603549e-01, -1.77873958e+00,
        -7.83578182e-01, -1.27870846e+00, -8.66818877e-01,
        -7.71691660e-01,  7.68876434e-01, -1.37092943e-01,
        -7.24248469e-01, -4.12159181e-02, -2.37537473e+00,
        -1.28561585e-01,  8.78705408e-01, -1.47335335e+00,
        -1.83800018e+00, -6.13860087e-01, -3.03712022e+00,
        -1.61009707e+00, -1.16019458e+00, -7.23896964e-01,
        -1.23232025e+00,  1.69514328e+00, -1.34290809e+00,
        -6.81972685e-02, -7.36062817e-01, -1.85922323e-01,
        -1.68389615e-01, -3.44924408e-01, -1.98435801e-01,
        -2.11433318e+00,  2.24604707e+00,  1.75334429e+00,
        -1.53664620e-01, -3.12206821e-01,  2.31715422e-01,
        -5.66614879e-01,  7.86459826e-01, -9.05135366e-02,
        -6.10621023e-01, -2.39134077e+00, -1.35636728e+00,
        -1.01528924e+00, -3.23491111e+00, -9.51700651e-01,
        -3.01438711e+00, -1.82445407e+00, -4.99864293e-01,
        -1.53052550e+00, -4.40938167e-01,  8.39168263e-01,
        -2.09136947e-01,  4.30550991e-01, -1.19858861e+00,
         2.99959133e-01, -2.53500940e-01,  1.17571472e+00,
        -1.06459798e+00, -5.31605398e-01,  1.28079334e+00,
         1.82636997e-01,  5.35216370e-01,  3.90325600e-01,
        -4.52642664e-01, -5.07882165e-01,  8.39923396e-01,
         1.80963932e+00,  1.25420357e+00, -9.12818138e-01,
        -1.26539863e+00, -3.58511193e+00, -2.00017041e+00,
         1.97569453e-02, -1.51164927e+00, -2.63271542e+00,
        -2.01184821e+00, -4.56358481e-01,  2.03005037e+00,
        -2.27579471e-01,  4.35544745e-01,  2.21404296e+00,
         2.55045852e-01, -1.31686752e+00, -1.66703775e+00,
        -2.06344923e+00,  2.64188604e+00, -1.00734800e-01,
         1.93205132e-01,  6.19719969e-01, -1.16244269e+00,
         4.38400589e-01,  1.56558298e+00, -6.15629463e-02,
         4.12193519e-01, -1.51129686e-01,  5.61184347e-02,
        -1.57920392e+00, -2.14534820e+00, -5.33269118e-02,
         8.28775344e-01, -1.26746596e+00, -2.40774080e+00,
         1.87199763e+00, -4.62403358e-02,  3.83644014e-01,
         2.17525474e+00,  1.33910431e+00, -1.52528969e+00,
        -9.01527104e-03, -2.22214632e+00, -7.24944362e-01,
        -5.38940566e-01,  5.10424099e-01,  6.89167866e-01,
         1.29975323e+00,  1.38337900e+00, -1.66657307e+00,
         6.47377909e-01,  1.63256595e+00,  2.06138062e-01,
         6.00449222e-01,  5.60315251e-01,  6.64567953e-01,
        -4.74611792e-01, -1.32676162e+00, -1.35343066e+00,
        -6.33908486e-01, -1.87903689e+00, -2.26951744e+00,
        -1.25029610e+00, -1.74335914e+00, -1.58658562e+00,
         1.54847648e+00,  1.03695244e+00,  1.95042989e+00,
         1.04904461e+00, -3.80272984e-02, -6.93640209e-01,
        -1.00019370e+00,  1.35540520e+00,  5.73131039e-01,
         7.78553072e-01,  1.87736444e+00, -3.83912279e-01,
         1.45168962e+00,  3.03960674e+00, -8.34307037e-01,
         3.89724337e-01, -7.55549284e-01, -1.04169799e+00,
        -1.08763700e+00,  6.05749368e-01, -1.72847799e+00,
        -2.77576387e+00,  8.70274035e-01, -3.68412965e-01,
         4.67895362e-01,  2.27721278e-01, -2.32326496e-01,
         2.17380685e-01, -3.70776880e-01,  2.94405174e+00,
         7.27482165e-01,  2.31132806e+00, -6.01246856e-01,
        -2.88497148e+00,  8.49945296e-01, -2.70003233e-01,
        -2.54354297e-01,  1.23120310e+00, -1.24073220e-01,
         7.49409922e-01,  2.86235160e+00,  7.97183858e-01,
         1.70796054e+00,  5.42768520e-01, -4.11262628e-01,
        -1.44304291e+00,  1.24164768e-01,  1.70208296e+00,
        -8.22541458e-01, -4.95395257e-02,  1.81821136e+00,
        -7.10431122e-01,  2.73081049e-01, -9.61698483e-01,
         1.63948185e+00,  1.49770151e-01,  6.10656838e-01,
        -1.67595508e+00,  1.42611156e+00, -5.28880233e-01,
         3.40185448e-01, -8.68319766e-01, -2.03970581e-01,
         2.71042553e-01,  5.68620574e-01,  9.29545678e-01,
         3.77894501e-01, -2.74023899e-01,  2.16801549e+00,
         9.93890387e-01, -6.35390471e-01,  7.15580202e-03,
         2.88885316e-01, -8.83062158e-02,  3.63892310e-01,
         2.29907018e+00,  1.42540829e+00,  7.87338573e-01,
        -1.13105100e+00, -6.89548290e-01, -8.60169692e-01,
        -9.14655898e-01,  6.19442135e-01,  7.87640990e-01,
         1.13982290e+00,  1.97773810e+00,  2.83844164e+00,
         2.67382970e-02,  5.77129805e-01,  1.14119874e+00,
        -2.57647894e-01,  6.88922607e-01,  5.23933438e-02,
         5.18054400e-01, -1.41680615e+00,  1.51443307e+00,
         2.67010786e-01, -2.94065932e-01, -6.75039404e-01,
        -6.08134330e-01, -2.10941782e-01, -1.29119310e+00,
         2.51116075e+00, -1.13130556e+00,  1.72542227e+00,
         4.25811947e-01, -8.54419491e-01,  9.69885833e-01,
         2.60588165e+00,  1.69229597e+00,  2.04804450e+00,
         3.28864973e+00,  2.14931782e+00,  1.63235564e+00,
         6.22626423e-01,  7.72833122e-01,  3.01056620e+00,
         1.12833184e+00, -1.10962984e+00,  3.90097442e-01,
         1.37659207e+00,  6.18782561e-01,  8.25825692e-01,
         1.33731674e-01,  5.92865963e-01, -7.19107859e-01,
         1.22833162e+00, -8.11549900e-01,  8.96960056e-01,
         8.57998308e-01, -9.34938172e-01,  3.29091811e-01,
         1.22850375e+00,  1.06655236e+00,  1.19251642e+00,
         2.66805828e+00,  1.96303163e+00,  2.04231327e+00,
         3.19391697e+00,  4.04575607e+00,  8.94105815e-01,
         2.10479216e+00,  1.64202074e+00,  2.37542671e+00,
         9.24250290e-01, -6.43340638e-01,  2.11194345e+00,
         1.51187024e+00,  7.18058746e-02, -5.52738397e-01,
        -4.18430520e-01,  1.53514149e+00, -3.44334761e-02,
        -9.38547908e-01,  2.19069893e-01,  4.96573550e-01,
        -9.51372534e-02,  2.01055393e+00,  9.22681948e-01,
         1.61623998e+00,  1.88132152e-01,  2.98745251e+00,
         6.40757889e-01,  6.61804339e-01,  3.58746201e+00,
         1.74727440e+00,  1.66540847e+00,  2.62641291e+00,
         1.87542074e+00,  2.21693228e+00,  1.92016131e+00,
         1.25760855e+00,  1.30502383e+00,  3.84232858e-01,
        -7.03185998e-01,  4.54523733e-01, -5.47693006e-02,
        -1.30200366e+00, -5.34092384e-01,  1.43584005e+00,
        -1.34659684e-01,  2.97099039e-01,  4.05693605e-01,
        -1.64113030e+00,  1.32470116e+00, -9.91639327e-02,
        -1.41834081e+00,  2.73584173e-01,  1.83076624e+00,
         1.38481230e+00, -1.30232965e-01, -5.32634935e-01,
        -8.73565935e-01, -1.27220986e+00, -1.16089833e+00,
        -2.13328635e+00, -7.65918463e-01, -2.03505178e+00,
        -3.19203940e-01,  3.48090846e-01,  2.19308305e-01,
        -2.68047973e-01,  7.28170370e-01,  4.87386792e-01,
        -2.62296732e-01,  6.64271357e-01, -1.23474342e+00,
        -8.22170704e-01,  5.85724477e-02, -4.93893420e-01,
         4.67702314e-01,  7.56054211e-01,  9.42072884e-01,
        -7.63037011e-01,  2.01107820e-01, -1.12888014e+00,
         1.78499026e-01, -1.15817219e-01, -5.05434607e-01,
         6.69128834e-01, -1.86299124e+00,  1.53995924e-01,
        -4.81455649e-01, -2.46634092e+00, -6.43262519e-01,
        -2.29118802e+00, -2.27800254e+00, -2.30254731e+00,
        -2.38077530e+00, -2.60069624e+00, -1.45176032e+00,
         3.97214845e-02,  1.17810481e+00, -3.10256931e-01,
         6.26564874e-01, -4.02094355e-01, -1.28447413e+00,
         9.71638976e-01,  1.14384676e+00,  7.42418526e-02,
         1.91103103e+00, -3.98003749e-01,  1.11881696e-01,
        -7.63364919e-01, -1.66708485e-01, -2.08540310e-01,
         1.37702501e+00, -1.23237444e+00,  3.07141134e-01,
        -2.11905024e+00, -2.40344711e-01, -8.49047177e-01,
        -9.92171638e-01, -2.63012771e+00,  1.25391349e-01,
        -6.86767802e-01, -1.21957490e+00, -4.21261581e-01,
         2.94085604e-01,  5.65642406e-01,  7.11123676e-01,
        -1.70043112e-01, -3.14961913e-01,  8.09217922e-01,
        -3.43399084e-01,  9.97943580e-02, -6.91494423e-01,
         2.62492496e-02,  7.46800919e-01,  1.07930068e+00,
        -1.32435292e+00,  3.76124663e-01, -1.80297005e+00,
        -6.90862156e-02,  7.56864108e-01, -1.55786131e+00,
        -7.78122298e-01, -1.26335361e+00,  1.28584292e-01,
         2.12321204e-01, -5.20052090e-01,  5.53459131e-01,
        -7.91678248e-01, -2.50452082e+00, -3.63821752e-01,
        -1.67229780e+00,  2.12349869e-02,  1.66015811e+00,
        -1.44799832e+00, -3.72487130e-01,  9.74373597e-01,
         1.59868999e+00, -9.62804340e-02, -1.84375877e-01,
         5.81858467e-01,  5.01041593e-01,  1.30884865e+00,
        -1.85158260e-01,  6.16617083e-01,  1.06511026e+00,
        -1.90477336e+00, -1.90940621e+00, -1.00918595e+00,
        -9.21709564e-01, -6.87860208e-01, -1.66060025e+00,
        -5.73317823e-01, -2.06146047e-01,  9.75348563e-01,
        -1.17969295e+00, -1.88035074e+00,  1.39093276e+00,
        -2.00833838e+00, -1.06547518e+00,  7.53421578e-01,
        -1.83675845e+00, -4.17232282e-01,  1.76282044e-01,
         3.62900954e-01,  2.36841004e-01,  5.74486340e-01,
        -9.18188211e-01,  1.02924235e+00,  1.50154634e-01,
        -4.43796509e-01, -1.62304901e+00,  4.70489904e-02,
        -4.58766869e-01, -1.06431892e+00,  1.62352989e+00,
         4.96247143e-01, -1.02994089e-01,  3.98286949e-01,
        -6.49919830e-01, -1.31704322e+00,  1.06345060e+00,
        -2.52997101e-01, -1.31270136e+00, -1.47096553e+00,
        -2.13473995e+00, -4.52819153e-01,  8.55788274e-01,
         1.61204522e-01, -7.52539030e-01,  1.43748560e+00,
        -1.03772331e-01,  1.35503782e+00, -8.75022428e-01,
         1.87338359e+00, -8.32228844e-01,  2.19530893e+00,
         4.77069600e-01],
       [ 5.69310707e-01, -7.30144363e-01,  6.40525679e-01,
        -4.63409110e-01,  4.03001713e-01,  1.99796794e-01,
         3.48357230e-01,  5.26272885e-01,  1.08625894e+00,
        -3.62010669e-01, -4.50833191e-01, -2.52124237e-01,
        -1.06220531e+00, -1.42077679e+00,  3.54396500e-01,
         1.84011743e+00,  1.00402511e+00, -2.82625128e+00,
         1.62161349e-01, -4.15214783e-02, -5.47733726e-01,
         1.29879145e+00, -6.51870839e-01, -1.23366707e+00,
        -1.49863815e+00,  1.16657199e+00, -1.45631568e+00,
         8.47094995e-01, -2.29825767e-01, -1.18783997e+00,
        -9.63827360e-02,  8.92615042e-01, -2.38817340e-01,
        -2.80545283e-01,  1.68190604e+00, -4.53182890e-01,
         2.39719626e-01, -1.06295761e+00,  9.62724397e-01,
        -3.18534142e-01,  1.32157546e-01,  1.88344061e+00,
         1.35033849e+00, -1.38754787e+00, -5.61993323e-01,
        -1.18995107e+00, -8.63280301e-01,  2.24435823e-01,
         5.31858532e-01, -5.43327198e-01, -2.97062240e+00,
        -5.68030769e-01, -4.99683760e-01,  1.57103600e+00,
        -3.44719957e-02,  8.44028931e-01,  4.89296630e-01,
         8.62407961e-01, -2.65395792e+00, -3.78363401e-01,
         8.61611123e-01, -1.88921236e+00, -1.83924659e+00,
         2.97987878e-01,  1.03151739e+00,  9.33152352e-01,
        -3.56557772e-01,  1.79639096e-01, -1.10582867e+00,
        -2.06329978e+00, -1.11756427e-01, -1.94391759e+00,
        -2.55157250e-01,  2.27280721e-01, -8.78279641e-02,
        -1.23763477e+00, -6.11893227e-01, -5.18664828e-01,
        -4.22322517e-01, -8.31890591e-03, -1.77719691e+00,
         1.43646854e+00, -5.36831813e-01,  1.80716119e+00,
         6.63434199e-01, -9.67764810e-01,  3.92891070e-01,
         1.27564737e+00, -1.64432742e+00, -1.38727888e+00,
         4.60721189e-01,  2.16556534e+00,  1.30298351e+00,
        -4.15191358e-01, -1.95913053e-01,  5.97320320e-01,
         3.87878915e-01,  6.33312737e-01,  6.22373380e-01,
        -1.27319803e+00,  4.41625064e-01, -1.09281557e+00,
        -1.85810432e+00, -7.90153635e-01, -1.76224806e+00,
        -2.12182970e+00, -2.37115761e+00, -1.29507805e+00,
        -5.33211863e-01, -2.00821917e+00, -3.53305601e-01,
         8.00173631e-01,  2.43424293e-01,  5.34684335e-01,
        -1.06625161e+00, -1.64907876e+00, -2.99888004e-01,
         1.33430076e+00,  1.15123858e-01, -7.27879694e-01,
         3.57107628e-01, -5.36914274e-03,  6.14485191e-01,
         2.01944370e+00, -1.85772160e-02, -7.84537991e-01,
         7.85883813e-01,  3.05345175e-01, -6.63294959e-01,
         3.09924346e-01,  2.43864981e-01,  2.01228812e-01,
        -2.26718761e+00, -2.46071759e+00,  3.73990830e-01,
         4.46148721e-01,  2.03184544e+00,  1.29829604e+00,
         1.10147682e+00, -8.53882792e-01,  9.86938288e-01,
        -2.02669151e+00,  1.74346304e+00,  6.74143210e-01,
         4.65509146e-01,  1.52130865e+00,  6.75356007e-01,
         1.05977283e+00,  3.67718012e-01,  2.34301600e-01,
         2.09480895e+00,  1.72308177e+00,  1.32668770e+00,
         2.02026389e+00, -7.43626349e-01, -2.16798520e-01,
         5.99119593e-01,  6.92272256e-01,  8.96027810e-01,
         5.94040718e-01,  7.68775191e-01, -1.39460364e+00,
        -1.64447542e-01,  1.02612877e-01, -5.75037607e-01,
        -1.91968687e-01,  1.61194456e+00,  1.12043313e+00,
         1.76218231e+00, -1.36016957e-01, -4.83056509e-01,
        -9.87210205e-01, -8.63422162e-01, -1.36298725e-03,
         4.13858572e-01,  9.70974514e-01,  9.10010794e-01,
         8.05195705e-01,  6.63426782e-01,  4.54093427e-01,
         5.67908875e-01,  9.50204534e-01,  1.31054641e+00,
        -3.50011265e-02,  9.02834737e-01,  9.30471541e-01,
        -1.32131024e-01,  1.49447934e+00,  1.82098945e+00,
         1.89851644e+00,  1.11566885e-02,  6.02279185e-01,
         3.18670450e+00,  1.56696077e+00,  3.18455105e-01,
        -5.10170849e-01,  2.39078557e-01,  2.63215508e+00,
         1.27005957e+00, -9.19909325e-01, -5.49145051e-01,
         1.34297299e+00, -9.55139589e-02,  2.06702944e+00,
         6.06598271e-01,  1.56455330e+00,  1.16316421e+00,
         6.75129548e-01,  1.12185011e+00,  1.29544135e+00,
         1.83134512e-01, -2.09437356e-01,  2.15727285e+00,
        -6.56156775e-01,  1.11562229e-01, -3.64003756e-02,
         2.09334420e-01,  2.61760647e-01,  3.30459841e-01,
        -4.97334024e-01,  1.20755758e+00,  2.10738107e+00,
         8.80347435e-01, -6.13710238e-01,  1.49463832e+00,
        -7.96957250e-01,  1.17941990e+00,  6.06689245e-01,
         1.07000950e+00, -2.53072036e+00,  1.19047817e-01,
         4.78429205e-01, -1.36205831e+00, -5.80354195e-01,
         2.64000922e-01, -9.82086081e-01, -8.66718121e-01,
         3.30845162e-01,  6.95735609e-01,  6.82487301e-01,
         1.87362229e-01,  2.33966368e+00,  2.93832312e+00,
         1.85522707e+00,  1.38967081e+00,  1.55275450e-02,
         1.65022624e-01,  3.31543751e+00,  2.33520760e+00,
         5.66096909e-01, -5.27291737e-01, -7.54226063e-01,
         7.15102106e-01, -8.30115265e-01,  5.21379817e-01,
        -1.06027544e+00,  6.86532231e-01, -1.65344327e+00,
        -5.70531496e-01, -2.06272222e+00, -8.50863627e-01,
        -6.37666200e-01,  1.62999606e-01,  9.51364485e-01,
        -1.19799312e-01, -3.17488584e-01,  4.25579039e-01,
         5.37504002e-02, -7.53504376e-01, -2.16060115e+00,
        -7.07368423e-01,  6.86545294e-01,  8.71133445e-01,
         6.81549798e-01, -1.95535615e-01,  1.61870193e-01,
         3.14661297e-01, -2.58593856e+00,  7.44407544e-01,
        -1.59043917e+00, -8.75005923e-01,  1.00134563e+00,
         2.80739989e-01, -1.33412168e+00, -1.61244343e+00,
        -1.01875457e+00,  5.06505175e-01,  2.88505240e-01,
        -7.64965924e-01, -6.45252063e-01, -1.99337047e-01,
        -6.50291978e-01,  9.70714510e-01, -2.02141001e-01,
        -1.84987909e-01, -9.47815588e-01, -7.41146817e-01,
        -2.71517500e+00, -8.21972975e-01, -2.74658704e+00,
        -1.31338577e+00, -4.01981624e-01, -6.85251439e-01,
        -1.12561903e+00,  8.65083901e-03,  5.85480583e-01,
        -2.24455113e-01, -7.64314288e-01, -7.99715575e-01,
        -6.47606744e-01,  4.05112563e-01, -3.60126277e-01,
         2.58187481e-01, -7.12507026e-01, -4.65300506e-01,
        -1.35006005e+00, -1.36478703e-01, -1.72440657e+00,
         4.12464586e-02, -1.25323296e+00, -2.84539431e+00,
         1.35192944e-01, -1.04115018e+00, -1.42637500e+00,
        -3.52757613e-01,  5.05008930e-01, -1.08945375e+00,
        -2.15260558e+00, -2.80593920e+00, -5.20054323e-01,
        -1.27331482e+00, -4.93783319e-01, -5.15532709e-02,
        -2.25259857e+00, -1.57010013e-01,  3.31066252e-01,
        -5.96458455e-01, -5.57572341e-01, -1.81205751e+00,
        -1.14028573e+00, -9.05775795e-01, -5.93455057e-01,
        -1.66208413e+00, -2.23186862e+00, -4.31132146e-01,
        -2.16369346e+00,  1.52441073e+00,  1.18670932e-01,
         3.34078781e-01, -9.73893445e-01, -5.77415591e-01,
        -7.04601771e-01, -1.24053208e+00, -2.22785067e+00,
        -8.81722087e-01, -1.63791868e+00, -9.94693816e-02,
        -1.03727517e+00, -3.87531772e-01, -3.54713343e-01,
         8.77075849e-01, -2.60725296e+00, -2.60483731e-01,
         1.84037909e+00,  1.12828479e+00, -5.41858520e-01,
         7.27497359e-01, -6.62567254e-01,  5.40280809e-01,
         1.02394784e+00, -3.98345399e-01,  1.81939210e+00,
         1.76610091e-01,  1.04841532e+00,  4.93257787e-01,
        -3.69493246e-01, -2.71985182e-01,  3.47745479e-01,
        -7.10656592e-01, -1.86854892e+00, -1.63854733e+00,
         3.67650994e-01, -1.73165293e+00, -1.87067109e+00,
        -2.13324588e-01,  8.06048995e-01, -1.49375347e-01,
        -3.78241129e-01, -1.30704481e+00, -5.83493106e-01,
        -2.83825446e-01, -4.96909789e-02,  3.69986594e-02,
        -5.66836249e-01, -2.18046736e-01, -2.18486287e-01,
         9.75816428e-01, -1.54917119e-01,  1.33116109e+00,
         4.05572686e-01, -1.93488599e-01,  1.16819556e+00,
         1.07723934e+00, -1.75938906e+00, -2.72693580e-01,
        -1.09894697e+00, -2.40187004e-01,  1.28459273e+00,
        -7.75998230e-01, -1.90641161e+00, -1.21296012e+00,
         7.85586632e-04, -9.40139711e-01, -7.71399817e-02,
         2.60167071e-01,  2.19663698e-01,  1.52569721e+00,
        -8.21165101e-01,  4.39457347e-01, -6.31212686e-01,
        -1.04232894e+00, -3.70705221e-01, -2.46472982e-01,
         2.25683939e-01,  3.19617887e-01, -1.02910629e+00,
        -1.19704218e+00,  9.80876043e-02,  5.31519812e-01,
        -9.73300263e-01, -7.52561889e-01, -7.35128359e-01,
        -8.26139558e-01, -6.81503749e-01, -2.21272187e+00,
        -5.42881196e-01, -4.42210352e-01, -2.61221827e+00,
        -2.35936876e+00, -2.20562815e+00,  1.40724544e+00,
         1.17764920e+00, -2.94843427e+00, -1.84483948e+00,
        -5.84212911e-01,  3.56946132e-01,  1.31660017e-01,
         1.83899216e+00, -7.77186099e-01,  1.54681464e+00,
        -1.17911711e+00, -1.64156355e+00, -8.17904248e-01,
         2.15209211e-01, -1.39467796e+00, -5.76010846e-01,
        -3.32980224e+00, -2.89594404e-01, -9.35423397e-01,
        -2.60871866e+00, -9.02838102e-01, -1.41998465e+00,
        -1.76739056e+00,  7.52903822e-03, -2.41699522e+00,
        -1.51582280e+00, -1.49820703e+00,  1.34012311e+00,
         1.09496185e+00,  1.49927768e-01,  5.17675513e-01,
        -1.44139937e+00,  8.96317724e-01, -1.61236485e+00,
         6.11649830e-01, -1.28828506e-01,  2.51612162e-01,
         7.33210710e-01,  1.32035332e+00,  3.55428598e-01,
        -5.21806084e-01,  1.62314574e-01,  8.09781920e-01,
        -2.51320346e+00, -3.75758919e+00, -3.08071060e+00,
        -1.47294610e+00, -2.46679513e+00, -2.01319503e+00,
        -2.53983837e+00, -1.75041379e+00, -2.30932627e+00,
        -3.32299270e+00, -1.89527881e-01, -2.74481313e-01,
         1.40567185e+00,  1.54841205e+00,  4.56089468e-02,
         8.50137295e-02,  7.41350530e-01,  1.48204763e+00,
         3.44676869e-01, -4.06579751e-01,  1.09037112e+00,
         1.51860166e+00, -8.14766432e-01,  2.15164127e-01,
         2.02538948e+00,  1.05885772e+00,  9.30569426e-01,
         2.13846992e-01, -2.39788009e+00, -3.08653716e+00,
        -3.19360931e+00, -3.09123609e+00, -3.64576749e+00,
        -3.56253005e+00, -2.49324360e+00, -4.08497615e+00,
        -2.71999379e+00, -4.11685776e-01, -7.40204813e-02,
         6.48071024e-01, -1.19069924e+00,  3.39861070e-01,
         1.29948046e+00,  7.73150667e-01,  6.20078923e-01,
         2.10781755e+00, -9.26938239e-02, -6.57311820e-01,
         2.87204986e-01,  6.54913611e-01, -6.14474139e-01,
        -6.68271512e-01,  1.09306278e-01,  7.83427296e-01,
        -2.37915541e-01,  4.84272384e-01, -1.85537237e+00,
         8.33888175e-03, -1.93739289e+00, -1.99526806e+00,
        -1.03097097e-01, -1.91305234e+00,  2.12411961e+00,
        -6.88649145e-01,  1.09704065e-01,  1.07935535e+00,
         3.85096325e-01,  7.76506263e-01, -3.73936705e-01,
        -1.47211250e+00, -1.35576686e+00,  1.11497543e+00,
         2.78436892e-01,  4.02818028e-02, -5.48375158e-01,
         1.36312182e-01, -1.18203249e+00,  1.32098637e-01,
         6.92581555e-01,  8.76408814e-01,  7.46484686e-02,
        -2.69325832e-01,  3.75808946e+00,  5.40209994e-01,
         8.86349377e-01,  5.93461013e-01, -1.51177247e-01,
         8.55080401e-01,  3.02255323e-01,  3.95233579e-01,
        -6.86329949e-02,  1.05031590e+00,  2.67121737e+00,
         1.77773042e+00,  1.80908968e-01,  1.27814844e+00,
        -7.88659559e-01,  2.15447348e+00,  6.64726793e-01,
        -8.89644326e-02,  8.48222424e-01,  1.84566397e-01,
        -9.10698060e-02, -3.12074514e-02,  8.01589073e-01,
         1.27340670e-01, -6.81721356e-02,  8.09427571e-01,
         1.65254812e+00, -7.91135973e-01,  2.41818904e+00,
         3.27197513e-02,  1.61937249e+00, -1.66171785e-01,
         1.36994015e+00,  1.68843551e+00,  3.36722100e+00,
         3.28282349e+00,  1.92645039e+00,  1.50821471e+00,
         6.06440859e-01,  1.40588703e+00,  1.39734262e+00,
         2.64008855e+00, -8.05427700e-01,  2.53230882e-01,
        -5.83635174e-02,  1.54395536e-01,  1.23461634e+00,
         3.38739963e-01, -1.45882220e+00,  1.87525982e+00,
        -4.09813739e-01, -7.11286023e-01, -1.44294615e+00,
         6.85031022e-01, -8.49063606e-01,  3.78946616e-01,
         8.31232311e-01, -6.66170871e-01,  2.89327028e+00,
         1.76514979e+00,  8.43175197e-01,  9.03441702e-01,
         1.52406185e+00,  6.10340217e-01,  9.10051294e-01,
         2.84677743e+00,  8.52507628e-01,  8.90068598e-01,
         1.54434426e+00,  5.11065059e-01,  2.10675418e-01,
         1.40122053e+00,  1.18122277e+00,  7.83537664e-01,
         4.94292301e-01, -2.60848141e-01, -2.03150600e+00,
         2.08086464e+00, -6.74774317e-01,  1.52447929e-01,
         8.26162697e-01,  1.46747445e-01,  2.14038148e-01,
        -3.47003138e-02,  1.95763032e+00,  1.84354317e+00,
         9.96646831e-01, -7.04473063e-01,  2.06908388e+00,
         1.98515386e+00,  1.34072466e+00,  1.48307975e+00,
        -4.89577664e-01, -6.52648967e-01,  8.10654342e-01,
        -8.45119256e-01,  9.98245783e-02, -7.22402332e-01,
         9.74480191e-01, -2.39543592e-01,  9.22056823e-01,
        -6.63536022e-01,  3.75222207e-01, -1.02898417e+00,
        -5.73908123e-01,  8.84032213e-01, -3.83356208e-01,
        -3.24849695e-01,  1.00104042e+00, -1.41066680e+00,
         2.48841966e-01, -1.36137035e+00,  2.26015409e+00,
         1.80955065e+00,  1.61339128e+00,  1.63235614e+00,
         8.18474699e-01,  7.63541932e-01,  7.68072650e-01,
         1.60960802e-01,  2.45656939e+00,  5.11155566e-01,
         1.00636038e+00, -1.31837457e-01,  1.85780787e+00,
         1.47036561e+00, -1.09121903e-01,  2.46703104e-01,
         1.72282151e+00,  2.00971736e+00, -3.14809916e+00,
        -1.32762043e+00,  8.13726301e-01, -1.79064879e-01,
         1.08169820e+00,  9.19067637e-01,  1.67714591e-01,
         3.91525938e-01, -1.89623182e+00, -4.78571004e-01,
         3.10614310e-01,  6.85511824e-01,  3.06516490e-01,
         9.46001712e-01,  8.24013002e-02, -3.78102245e-01,
         1.78674733e+00, -1.64605852e+00,  1.02194695e+00,
        -1.78079734e+00,  7.24677892e-01,  3.97596785e-01,
         1.86954048e+00, -9.31591703e-01,  7.55685848e-01,
        -1.94358918e+00, -1.81047686e-01, -3.94258061e-01,
        -2.47697734e-02, -6.29712425e-01,  4.95269136e-01,
         1.56574754e+00, -2.47936817e-01, -9.50632095e-01,
        -4.81639034e-01, -7.36148180e-01, -1.56803421e-01,
        -1.01262678e+00, -1.92509360e+00, -6.10668829e-01,
         2.11015176e-01,  5.48272072e-01, -1.28309191e+00,
        -1.95988227e+00, -1.91792040e-01,  1.26532624e+00,
        -9.50760845e-01, -9.53017292e-01, -1.79421699e+00,
         9.91013722e-01, -1.55019155e+00, -5.39956544e-01,
        -3.56561620e-01,  6.61013718e-01, -1.30789803e+00,
        -3.01897890e-01,  1.51116816e-01,  7.92050825e-01,
         9.19741806e-01,  2.62707329e-01,  2.30691124e+00,
        -3.45132810e-01, -5.82951181e-01, -8.48504900e-02,
         1.24988011e+00, -2.17735209e+00, -8.79733081e-02,
        -1.00742042e-01, -6.90556813e-01,  1.49509400e-01,
         1.31698107e-01,  4.13363145e-01,  6.83803606e-01,
        -7.88846398e-01,  1.36678762e-01,  5.28864013e-01,
        -2.75259853e-01, -1.45922604e+00,  5.97806722e-01,
         1.54004573e+00, -1.34936597e+00,  5.95679514e-01,
         1.93969563e+00, -1.01268506e-01,  1.08377384e+00,
         2.57831183e-01, -2.21652626e-01, -6.81676966e-02,
         1.06968695e+00],
       [ 1.58639677e+00,  7.91823924e-01, -6.30251229e-01,
         1.08818339e+00,  1.44766420e-01, -1.49457372e+00,
         1.96237059e+00,  3.75932234e-02,  2.52740499e+00,
         4.12992220e-01,  5.62776268e-01, -5.87944260e-01,
        -4.56031246e-01, -5.64958892e-01,  9.59119202e-01,
        -1.32315014e+00, -8.36766905e-01, -9.74409061e-01,
        -1.03631861e+00,  1.10364446e+00,  1.31723773e+00,
         5.40589050e-01, -7.05926124e-01,  3.18525782e-01,
         1.21997494e+00, -2.02214542e+00, -1.04021262e+00,
         1.88785161e+00,  1.19841808e+00, -5.72400765e-01,
         4.58839957e-01,  9.25100084e-01,  5.10564631e-01,
        -1.58069667e+00, -3.26680040e-01, -7.93864303e-01,
         1.67885261e+00, -7.21656652e-01,  3.09357669e-01,
         1.82837009e+00,  1.58200792e+00, -4.20678315e-01,
        -4.99716350e-02,  3.32722669e-01,  7.03347460e-02,
        -9.04941538e-01,  1.21559095e+00,  2.87761084e+00,
         1.08280811e+00, -1.46951663e+00,  1.72986290e-01,
        -1.34895845e+00, -1.97662934e+00, -2.74588439e-01,
        -5.00638044e-01, -5.54102211e-01,  5.07387443e-01,
        -2.43547537e-01,  4.46457916e-01,  1.44734438e-01,
        -3.04883452e-01,  9.72442028e-01,  3.83683815e-01,
         4.48919146e-01, -3.19351057e-01,  1.59578453e+00,
         9.37107321e-01,  3.00442431e-01,  1.02609550e+00,
        -6.32698285e-01,  3.77845920e-01, -1.66704456e-02,
        -1.43143848e+00,  2.88487079e-01,  1.09853142e+00,
         1.04008078e+00,  2.94664980e+00,  1.21709287e+00,
        -5.26656963e-01,  1.14378824e+00, -5.49959876e-01,
         1.51830549e+00,  6.08862697e-02, -1.56263679e+00,
         1.66276517e+00, -1.33759699e-01,  1.07725817e+00,
        -1.21601611e+00, -1.25869915e-01, -1.66562099e+00,
         1.68555792e+00, -2.67607752e-01,  1.48078397e-01,
         1.44952948e+00,  6.10312460e-01,  2.08378153e-01,
         8.12933923e-01, -2.32772402e-01, -1.39650926e+00,
        -1.15744341e+00, -3.81091053e-01, -6.16957424e-01,
         9.90127984e-01, -5.74594781e-01,  1.48608375e+00,
         1.63067418e+00,  1.13290724e+00,  1.11588303e+00,
        -3.46537893e-01, -1.03215331e+00, -2.23129541e-01,
         9.78710044e-01, -1.98826890e-01, -1.92513093e+00,
         1.91277145e+00, -1.20905780e+00,  9.83376456e-01,
        -2.81783634e-01,  2.67518314e-01,  1.94252698e+00,
        -4.24934147e-01, -2.56337846e-01, -5.95014938e-01,
         7.34088032e-01,  3.01398249e-01, -1.02421615e+00,
        -1.54857507e+00,  3.68979518e-01, -4.61163608e-01,
        -4.59066044e-01,  3.20729930e-01,  9.66636326e-01,
         1.18458247e-01, -9.04573301e-01, -5.44112118e-01,
        -1.26130186e+00,  7.31999343e-02, -8.71539537e-01,
         3.77531188e-01,  1.94602353e-01,  8.58959470e-01,
        -4.37693988e-01,  9.18544389e-01, -5.18677333e-02,
         5.68665963e-01,  1.03059522e+00, -1.11104404e+00,
        -8.64444235e-01, -2.72931790e-01, -5.25927188e-01,
        -4.18215109e-02,  1.66952930e-01,  2.02996638e-01,
        -3.25541357e-01, -2.29588201e-01, -1.11440697e+00,
        -8.96073153e-01,  6.76694114e-01, -1.33091916e+00,
         4.78728536e-01, -3.19402369e-01, -7.29962107e-01,
        -1.09573618e+00,  1.79076719e+00, -1.18899801e+00,
        -4.04964945e-01, -1.99906923e+00, -2.88133611e-01,
        -1.31926146e+00, -2.63451461e-01, -3.48562670e-01,
         6.98606254e-01,  1.12289692e+00, -1.75171518e+00,
        -1.80159910e+00, -5.54807907e-01, -5.01311798e-01,
         1.28130402e+00,  2.77575737e-02,  8.66876030e-01,
         3.22800193e-01, -4.23492831e-01,  4.57277643e-02,
        -7.46607633e-01,  1.74309967e-01, -1.44244284e+00,
        -3.55664910e-01, -2.14635096e-01, -4.35499410e-01,
         3.24361749e-01, -1.34440808e-01, -1.11139225e-01,
        -5.53629003e-01,  6.57438074e-02,  1.40699397e+00,
         1.03012377e-01,  1.37884404e+00, -1.63370896e+00,
         2.66916183e+00,  4.75747898e-01, -7.41682025e-01,
         4.09206315e-01, -1.20798950e+00, -9.14450354e-01,
        -2.81425418e-01, -6.80236083e-01,  2.08764186e+00,
        -3.90704078e-01,  2.64312312e-01, -9.42710783e-03,
        -1.40438232e-01, -6.59475463e-02,  8.61116700e-01,
         3.99609674e-02,  2.37136184e-01, -2.23909934e-01,
        -5.78222677e-01,  1.27288223e+00, -2.39596268e+00,
        -1.92331223e+00, -3.03555803e-01, -9.69494621e-02,
        -1.31789648e-01,  1.29846827e-01,  4.89728269e-01,
        -9.28479678e-01, -1.35625140e+00, -5.30197431e-01,
        -1.28639616e+00,  7.07656653e-01, -9.28675828e-01,
        -1.00484133e-01,  7.27707201e-01, -1.11350617e-01,
        -1.88785937e+00, -2.41528691e-01,  1.08279559e+00,
        -2.40116390e-01, -3.21006780e-01, -1.25595004e+00,
        -6.09162618e-02, -4.98409687e-01, -1.71217532e+00,
        -9.93227181e-01, -1.19565489e+00, -1.47935402e+00,
        -1.34651303e+00, -2.83453524e-01,  1.69955052e+00,
         9.28403010e-01, -4.59662357e-01, -6.00795256e-01,
         6.48599236e-01,  3.18212751e-01, -5.24028361e-01,
        -3.89488418e-01, -2.62481528e+00, -4.19535487e-01,
         2.56658477e-02,  1.18657239e+00,  1.84481431e+00,
        -6.47765700e-02,  2.66733129e-01,  1.24840210e+00,
        -4.94282498e-01, -1.51667540e+00,  8.75696764e-01,
        -1.61882557e+00, -5.64684563e-02, -1.03999860e+00,
         5.32841851e-01, -3.50675308e-01,  4.85356540e-01,
         1.26158358e+00,  5.25689832e-01,  8.61208052e-01,
         7.21958360e-01,  1.49094193e-01,  3.46780717e-01,
        -5.28936348e-01,  1.38267679e+00, -5.90355925e-01,
        -2.15377066e-01,  4.82574219e-01,  1.14883931e+00,
        -2.88918433e-01, -6.08483251e-01,  3.24104592e-01,
         8.40230483e-01,  2.46646736e+00,  1.75296959e+00,
         6.17303429e-01, -1.99516047e+00, -3.97861421e+00,
        -7.84874320e-01,  1.13119012e+00, -7.92606480e-01,
        -8.04395573e-01, -1.81725503e-01, -1.16718234e+00,
        -5.02526543e-02, -5.94071192e-01, -6.34045992e-03,
        -1.92446268e-01,  8.97760186e-01,  2.20250207e-01,
         1.62720971e+00,  5.66155230e-01,  9.99412977e-01,
         1.93534898e+00,  1.02077175e-01,  9.55014680e-01,
        -2.18563659e-01,  1.67214120e-01, -2.02511278e-01,
         2.64190935e-01,  8.60942572e-01,  3.42811175e+00,
         3.38057751e+00,  2.96478185e+00, -2.19704650e+00,
        -3.02868386e+00, -4.36399880e-02, -9.81450998e-01,
         8.23708093e-01,  2.15803094e+00, -7.63111846e-02,
         1.19802451e+00,  1.51849854e+00,  1.41141972e+00,
         2.03453442e+00,  1.35887544e+00,  3.49926193e+00,
         8.66695293e-01, -4.49748434e-01,  1.31053568e+00,
        -3.56178299e-01, -9.50063470e-01, -1.51518092e-01,
         7.78155904e-02,  4.84926754e-01,  3.76856845e+00,
         3.42477871e+00,  8.86576400e-01,  1.90482051e+00,
         4.14931134e+00,  3.93943119e+00,  3.92078870e+00,
        -3.05241075e+00, -2.48118472e+00, -2.33950224e+00,
        -7.90243474e-01, -9.96839393e-01, -6.64406787e-01,
         6.01512773e-01, -6.18543214e-01, -3.04630550e-01,
        -1.34603002e+00,  1.33522202e+00,  1.96733115e+00,
        -1.23010629e+00,  7.13108144e-01, -1.23110585e+00,
         5.33425247e-01, -2.40440745e-01, -9.27983711e-01,
        -7.69567995e-01, -1.20052700e+00,  1.79886772e+00,
         3.44451811e+00,  3.43783208e+00,  4.20953057e+00,
         2.83658269e+00,  2.01900044e+00,  1.49647142e+00,
         2.13280404e+00, -1.69691806e+00, -1.25011256e+00,
        -4.44561545e-02, -3.95816501e-01, -2.26248558e+00,
         1.99065644e-01,  1.21626723e+00, -1.56234887e-01,
        -3.83106075e-01,  4.06797744e-01,  1.64278213e+00,
         1.20541328e+00,  5.93617000e-01, -1.59648591e+00,
         1.26159101e-01, -1.87380639e+00, -3.37984853e-01,
        -6.03598150e-01, -1.18576256e+00,  1.53308695e+00,
         2.92735490e+00,  1.52245026e+00,  1.99103724e+00,
         2.41555406e+00,  2.69860908e+00,  1.34724596e+00,
         1.20350954e-01,  4.37075361e-01, -6.59716869e-01,
         1.83395601e-02, -1.08316629e+00, -1.03218125e+00,
        -2.89669500e-01, -3.99408495e-01,  5.40630042e-01,
        -4.40803543e-01,  7.14000287e-01,  1.24151384e-01,
         1.23639148e+00,  1.69910892e+00, -7.82822107e-01,
        -6.36955184e-01, -7.90710753e-01,  6.78867146e-01,
        -1.23778478e-01,  1.48948245e+00,  7.58697880e-01,
         1.95306944e+00, -1.64979881e-01,  4.66918408e-01,
         3.08705930e-01,  1.51753582e+00, -6.29241702e-02,
         1.47194217e-01,  1.92615137e+00,  4.71358948e-01,
         4.78949630e-01,  2.28340963e-01, -2.78425128e+00,
        -2.31809521e+00, -8.40869524e-01,  6.51244707e-01,
         1.06267527e-01, -1.25572861e+00,  1.04899549e+00,
        -6.91888613e-01,  1.88058579e-01,  3.93561450e-01,
        -9.99850743e-01,  4.14241006e-01,  5.44624138e-01,
        -8.45306892e-01,  4.25408890e-01, -8.72073999e-01,
        -2.47613416e+00, -3.44767723e-02, -3.60036585e-01,
         1.07384855e+00, -1.03837660e+00, -8.24080503e-02,
         1.57421604e+00,  1.21431722e+00,  2.50078698e-02,
         6.34987273e-01, -1.19270493e+00, -1.15115173e+00,
        -5.46220564e-01, -1.53810544e+00, -1.10626422e-01,
        -5.04955275e-01, -8.46132620e-01,  1.70779247e-01,
        -2.00417384e-01, -1.82331657e+00,  2.89012859e-01,
         6.74178603e-01, -4.09458219e+00,  3.52799447e-01,
        -1.29467924e+00, -1.21228681e+00,  2.50452237e-01,
        -1.06364506e+00, -2.48948381e-02,  7.27340801e-02,
        -5.61064532e-01, -9.72894938e-01, -1.04970459e-01,
         8.67728797e-01,  8.23807605e-01,  9.28662888e-01,
        -1.93598312e-01,  1.86150482e+00, -7.47331253e-01,
         9.46619837e-01, -1.32667087e+00, -2.26519033e+00,
        -2.49813839e-01,  4.92858427e-01,  7.13370831e-02,
        -1.99611130e-01,  1.24602532e-02,  2.25124575e-01,
         2.08115091e-01, -1.20062115e+00,  1.02050993e+00,
        -1.03833481e+00, -1.04383563e+00,  2.19485706e-01,
         1.31479716e+00,  9.59285047e-01,  1.95294797e-02,
         1.51332323e-01, -2.84115972e+00,  2.59028131e-01,
        -1.49278145e+00,  2.09113734e-03,  2.35540488e-01,
         7.77261898e-01,  2.39672024e+00, -1.00643184e+00,
        -9.71031076e-01,  4.56666367e-01, -8.91486864e-01,
        -7.33026849e-01,  8.83910779e-02, -3.56716383e+00,
        -2.45853596e+00, -3.25281110e-01, -1.39425934e-01,
         3.45539144e-01, -3.93573045e-01,  1.36639364e-01,
        -1.33864697e+00, -1.59387728e+00, -2.18390471e-01,
         6.93853334e-01,  1.97898537e-02, -3.26007714e-01,
         8.81778821e-01, -5.19541622e-01, -3.91162705e-01,
        -5.54376602e-02, -3.45288498e-01,  9.09754093e-02,
         6.71837149e-01, -1.10522598e+00,  4.94768389e-01,
        -1.41902516e+00,  1.22752605e+00, -2.09490863e+00,
        -7.76157275e-01, -3.97077876e-01, -9.24537097e-01,
        -7.70502175e-01,  7.99622791e-01, -7.53387861e-01,
         4.82528295e-01,  1.14861250e+00,  2.63897151e-01,
        -2.31766464e+00, -4.24291822e-01,  9.84211089e-01,
         3.61688959e-02, -1.09010532e+00,  1.05969134e+00,
        -1.14011032e+00, -6.24072754e-02, -2.47685153e+00,
        -1.27346977e+00,  1.59391723e-01, -1.07993889e-01,
        -9.58084464e-01, -2.65307555e-01,  9.57499504e-01,
         6.88746579e-01, -1.48322402e+00,  1.27259428e+00,
         5.37162595e-01, -8.22716273e-02, -1.32014974e+00,
         5.48912682e-02, -4.12647233e-01,  7.20996306e-01,
        -1.30658941e+00, -2.31629181e+00, -2.38149998e+00,
        -1.09153398e+00, -1.33043641e+00, -1.78858848e+00,
        -9.81670253e-01,  5.89524031e-01, -2.39277560e-01,
         1.24322490e+00, -7.51613921e-01, -5.39910976e-01,
         1.90460000e+00, -1.87714295e+00, -1.45348037e+00,
         8.17361422e-01, -1.32890742e+00, -4.31561302e-01,
        -6.03785381e-01, -9.57805293e-01, -1.46566731e+00,
         8.42138172e-01, -8.22998760e-01,  1.67161714e+00,
        -8.22068678e-01, -1.36920411e+00,  1.00019088e-02,
         2.19137948e+00, -1.31408063e+00, -7.87838635e-01,
        -5.59008687e-01,  1.39910673e-02, -9.71728005e-01,
        -9.15227982e-01, -1.53093569e+00, -1.21490585e+00,
         7.14415406e-01,  2.57612117e-02,  5.09110420e-01,
        -4.24149614e-01, -1.41858934e+00, -9.07218314e-01,
         1.38651418e+00, -1.63016839e+00, -2.69580342e-01,
        -1.72118332e+00,  5.95467165e-01, -2.87684229e-01,
         4.14969353e-01,  5.66222237e-01, -1.05562603e+00,
         2.21517205e-01,  1.53397359e+00,  6.37408182e-01,
         6.21098947e-01,  7.92128399e-01,  1.58870853e-01,
        -2.58396830e+00,  2.40356997e-01,  1.13968349e+00,
        -7.59595211e-02,  4.05022512e-01,  4.59334036e-01,
        -5.26543028e-01,  2.25286296e+00, -2.18672942e-01,
         9.87533006e-01, -4.39119956e-01,  2.65376003e+00,
        -1.53015905e+00, -2.99238759e-01, -8.02275848e-01,
         3.85907526e-02,  8.41131125e-01,  6.11904550e-02,
         1.24561281e-01, -3.99322738e-01, -2.08588976e-01,
        -2.58297565e-01,  6.22255401e-01, -7.13510225e-01,
         1.11833849e+00, -5.24014516e-01,  1.19373053e+00,
        -1.12520652e+00, -5.39834881e-01,  6.61785386e-01,
        -2.37115160e+00, -1.16045306e+00, -7.08308245e-01,
         5.17966106e-01, -3.76383816e-01,  1.23625634e+00,
        -5.03772053e-01,  3.70038518e-03, -1.58585567e+00,
        -2.39237914e-01, -4.08733750e-01,  4.93324420e-01,
         1.03400111e+00,  1.77005629e+00, -2.14694911e-01,
        -2.15319967e-01,  7.02443344e-01, -8.22561115e-01,
        -2.66143778e-01,  1.02150201e+00, -7.03150325e-01,
        -2.07163457e+00,  1.42337791e+00,  1.57142817e+00,
        -2.57190032e-01, -8.41433991e-01,  1.04943334e+00,
         2.78193725e+00,  1.30406502e+00,  8.00070446e-01,
        -3.59208298e-03,  5.90772926e-01, -1.44095583e+00,
         3.52524001e-01, -1.99629659e+00,  1.55289561e+00,
         9.79245892e-01,  5.39341720e-01,  1.49131642e+00,
        -6.34080672e-01, -1.93964970e+00,  7.53538566e-01,
         1.04999572e+00, -5.31638661e-01, -2.32360048e-01,
         1.28502131e+00,  5.25806843e-01,  9.55289690e-01,
         1.92217408e+00,  4.97041192e-02,  5.08566954e-01,
         8.89526478e-01,  2.21238834e-01,  1.22276290e+00,
         4.93508833e-01,  1.14120275e+00,  1.75784168e+00,
        -4.76172497e-01, -5.00395125e-01,  9.17166655e-01,
         1.24090151e+00, -5.62995981e-01, -9.23240485e-01,
        -3.42137680e-01, -2.93252559e-01,  1.22041589e+00,
        -5.95376460e-01,  9.20279734e-01, -1.71859404e+00,
         7.65055886e-01, -4.33675719e-01, -2.21987068e+00,
        -1.34089606e-02, -1.78953060e-01,  6.25806570e-02,
         1.93704457e+00, -9.74694973e-02,  3.57296743e-01,
        -6.98332732e-01,  8.43519845e-02,  4.73858343e-01,
         7.86575706e-01,  9.46740703e-01,  2.70736373e+00,
        -1.11036993e+00, -6.22015409e-01,  1.26889693e+00,
        -1.26600684e+00, -4.32141913e-02, -4.46901148e-01,
         3.75219273e+00,  7.09003508e-01,  8.99966617e-01,
        -3.54871923e-01, -1.08694787e-01,  2.82290807e+00,
         1.42295672e+00,  3.10765545e-01,  2.59898244e+00,
         2.22599195e-03,  1.52969985e+00,  3.59010556e-01,
         6.94688972e-01,  3.13548631e-01,  1.50701199e-01,
        -8.65490975e-02, -1.27876957e+00, -1.85474339e+00,
         1.46496704e+00,  9.72260474e-01,  1.57083995e+00,
         8.87363812e-01,  9.65312075e-01,  1.22908518e+00,
        -2.23495910e-01, -8.89684194e-01, -5.37304241e-02,
         5.02762629e-01],
       [ 2.79915004e-01,  1.03408196e-01,  9.82990004e-01,
         7.67148746e-01, -4.36478933e-01,  1.96292438e+00,
        -1.61357422e+00,  1.58119527e-01, -1.89418450e-01,
        -3.22213358e-01, -2.20760394e+00, -1.42131097e+00,
        -2.53496621e-01,  1.59791010e+00,  4.83683374e-01,
         2.09041389e-01,  3.32990413e-01, -2.06998838e+00,
        -3.30609583e-01,  4.72037905e-01,  4.95172274e-01,
        -9.57930583e-01, -7.01034404e-01,  1.30447037e+00,
         4.19912474e-01,  1.04771693e-01, -3.67983751e-02,
         7.38751677e-01,  1.99409423e-01,  4.41259297e-01,
         1.76433411e-01,  1.02902814e+00,  1.43531176e+00,
        -1.50708864e+00,  1.32986940e+00,  5.22330519e-01,
        -4.53860360e-01, -1.71151116e+00, -4.89632632e-01,
        -1.72214036e+00, -1.07397065e+00,  3.20028623e-01,
        -6.20098711e-02,  6.94579967e-01,  2.04346112e-01,
        -9.81359363e-01,  8.30119525e-01,  3.97995363e-01,
        -6.25031126e-01,  1.05608547e-01, -7.34535232e-01,
         6.42582192e-01, -1.80660587e+00, -5.82023628e-01,
        -8.53618790e-01,  2.93797634e-01,  7.59614585e-01,
         2.24607243e-01,  4.84207699e-02,  7.07688744e-02,
         4.33262793e-01,  1.33749644e+00,  1.94142902e+00,
        -1.66162172e-01,  1.13682069e-01, -1.28642134e+00,
         3.96300099e-01,  3.68637381e-01,  1.62556831e-01,
         1.14308249e-01,  1.34597744e+00,  1.01487005e+00,
         4.95212790e-01, -1.07385331e+00, -2.98459613e-01,
        -1.79474764e+00, -6.60500000e-01, -1.96011824e-01,
        -8.79165768e-01, -1.16022574e+00, -1.13258514e+00,
         9.27472149e-01,  1.61738177e+00,  1.29208112e+00,
        -1.04135525e+00, -8.33064067e-01, -3.57402726e-01,
         2.25853812e+00,  7.27875611e-01, -2.34556276e-01,
        -3.42751266e-01,  1.21313122e+00,  5.58964585e-01,
         1.00559364e+00, -1.01994318e+00,  8.14937018e-01,
         1.68838782e-01,  5.99163762e-01, -2.07088949e-02,
         5.57975784e-03,  1.03177201e-01,  1.26226084e+00,
         1.03502182e+00,  3.24753621e-01, -2.17409175e-01,
        -1.21183299e+00,  1.66286379e+00, -1.91463399e-01,
         1.55828793e+00,  1.34159812e+00, -1.02610089e+00,
        -8.17645284e-01, -8.07571341e-02, -5.25001756e-01,
         5.38130928e-01,  2.94616903e-01, -4.76603110e-01,
        -7.89750130e-01, -7.49899271e-01,  3.49264911e-01,
        -1.02661035e+00,  5.04901475e-01, -1.85932123e-01,
         1.78350834e+00,  1.92209609e+00, -5.12648695e-02,
         4.95599962e-02,  1.53473390e+00, -8.47611984e-02,
         3.16063677e-01, -1.24536915e+00, -1.17004847e-01,
        -1.37235233e+00, -1.89789384e+00,  1.42215214e+00,
        -6.56854601e-01,  2.11730983e+00,  1.21167240e+00,
         3.47666452e-02,  5.51092122e-01, -7.80653631e-01,
         3.13600212e-01, -1.61064304e+00, -5.18784636e-01,
         1.60430787e-01, -4.29538425e-01,  1.48762437e-01,
         8.99373206e-01, -4.72211907e-01, -2.20837042e+00,
         1.16501939e-01,  6.30265212e-02,  1.65783216e-01,
         1.62033638e-01,  8.51283064e-01,  1.49373877e+00,
         1.17261589e+00,  1.20966768e+00,  6.29001213e-01,
         6.93807634e-01, -2.22723458e+00,  4.61853833e-01,
        -9.64490504e-02, -1.88524556e-01, -4.07856414e-02,
        -9.07355793e-01,  1.45526742e+00, -1.59599561e-01,
         1.36409379e+00, -8.70346204e-01,  1.98126623e+00,
         1.56015896e+00,  9.10392136e-01, -1.30794427e+00,
        -1.17921684e+00, -1.69808470e-01, -6.08797553e-01,
         7.95195613e-01,  2.24463205e-02,  3.38247068e-01,
         1.56273364e-01,  7.44721437e-01, -1.37006372e-01,
         9.58103603e-01, -7.21573084e-01,  1.25087687e+00,
        -4.29559653e-01, -8.69321757e-01, -2.31551979e-01,
         5.67098637e-01,  1.38870264e-01,  1.30916841e+00,
         5.63581214e-01, -3.62873265e-01,  6.49819444e-01,
        -5.10589964e-01,  9.70384677e-01,  1.11138467e+00,
         1.10324706e+00, -9.04242611e-01,  1.90613610e+00,
        -3.98234359e-01,  1.51498139e+00, -8.72747000e-01,
         1.92717473e+00, -7.05882745e-01,  9.00698995e-01,
        -2.20279003e+00, -2.27131084e-01,  1.76774175e-02,
         6.60458687e-01,  6.73451023e-01,  5.84625253e-01,
        -9.57674166e-02, -3.47674884e-01, -1.35661405e+00,
        -7.01126549e-01, -2.61457302e-02, -9.40908857e-01,
         3.42371504e-01, -5.09659143e-01,  1.11844783e+00,
        -1.05009660e-01, -6.78283574e-01,  1.97683813e+00,
        -6.83331305e-01, -1.20415869e+00,  1.06719080e+00,
        -4.31478197e-01, -8.32056062e-01, -8.53610993e-01,
        -3.05472589e-01,  2.88848898e-01,  1.64401023e+00,
         1.11574497e+00, -1.04121348e+00,  1.36270753e+00,
        -2.86410599e-02,  9.43488178e-01,  2.85029349e-01,
         1.05450997e+00, -3.01085555e-01, -1.55421601e-01,
        -8.26970958e-01,  9.42213666e-01,  6.66469936e-01,
        -1.35202348e+00,  2.07870350e-01,  1.01847209e+00,
         1.46921592e-01, -1.47625749e-01,  1.75819251e-01,
        -1.26223565e-01, -6.38029646e-01, -2.84806055e-01,
         1.48053774e+00, -3.60679245e-01,  8.05706223e-01,
        -7.37952289e-01,  5.30606122e-01,  1.14612785e+00,
        -2.45222521e-01, -3.45460755e-02,  1.39259031e+00,
         1.12164172e+00,  2.55610046e-01,  6.67824504e-01,
         8.22895238e-01, -2.16295150e+00, -5.87001183e-02,
        -9.02881683e-01,  9.48639808e-01,  3.86399874e-01,
        -6.84304191e-01, -1.12536457e+00,  2.12938589e-01,
        -8.60604986e-01,  1.87846667e+00, -8.32219576e-01,
        -5.42208484e-01,  1.34569339e+00,  2.39196401e-02,
        -1.52958263e+00, -5.53923007e-01,  4.04168778e-01,
         8.38660670e-02,  1.16415697e+00, -5.61933232e-01,
        -9.00271399e-01,  2.11422973e+00,  2.37653955e+00,
         2.85384831e-01,  1.07891425e+00,  1.85957832e+00,
         8.56406167e-01,  1.35250738e-01, -1.28093675e+00,
        -3.29892509e-01, -3.17808003e-01, -7.05788397e-02,
        -4.89726339e-01,  5.79837355e-01,  1.94174939e+00,
        -2.27186785e-01, -6.61420841e-01,  1.42670714e+00,
         6.58325645e-01, -9.09508587e-02,  1.34797869e+00,
         1.30869392e-01, -4.48993006e-01, -1.17181528e-02,
        -4.59045849e-01, -1.97783969e+00,  3.62075548e-01,
         7.00534733e-01, -8.16218669e-01,  1.12968011e+00,
         1.38416740e+00,  1.23452080e+00,  9.68545565e-02,
         1.27384948e+00,  5.31345181e-01,  5.29342753e-01,
        -3.14302725e-01, -3.80846513e-01, -1.28048370e+00,
         8.43828007e-01, -4.21456670e-01,  5.93493350e-01,
         4.38197727e-01,  1.05097993e-01,  1.06510929e+00,
         1.00783720e-01, -1.45630389e+00, -8.28051099e-01,
         8.98050506e-01,  5.20474552e-01, -6.67753798e-01,
        -1.29110242e+00, -1.52381031e+00,  4.86326805e-01,
        -6.57874256e-01,  1.56915534e+00,  1.74851789e-01,
         1.14332422e+00,  1.56533284e+00,  8.70015140e-01,
         1.43118406e+00,  6.10668971e-01,  6.70534241e-01,
        -1.20308026e-01, -4.62177795e-01, -6.37156836e-01,
         1.69598407e-01, -7.02407996e-01, -1.69309782e-01,
         2.28932338e+00, -3.30668253e-01, -1.48073877e+00,
         1.58438095e+00,  3.28270770e-01,  3.68753142e-01,
        -1.60983109e+00,  4.21920633e-01, -1.33913955e-01,
         8.21955476e-01, -8.62601324e-02, -1.80020215e+00,
         1.33875360e+00, -2.12694371e-01,  9.16133950e-01,
        -1.63302600e+00,  1.25053356e-01,  1.06679010e+00,
         2.96617322e-01,  1.37622867e-01,  1.12191155e+00,
        -2.92857013e-02, -1.01453726e+00, -1.49251518e-01,
        -1.31732888e+00,  3.93871074e-01,  1.68969645e+00,
        -7.27473590e-01,  5.82375406e-01,  8.61698121e-01,
        -3.44491680e-01,  5.76678409e-02, -2.02967133e+00,
        -1.05005661e+00, -3.86356945e-01, -1.01306303e+00,
        -2.09255576e+00,  1.41009319e+00, -3.20920609e-01,
         6.29875540e-01, -1.75777252e+00,  1.09591206e+00,
        -1.63624647e+00,  2.84753110e+00, -7.90969025e-01,
         1.01116083e+00, -9.57890106e-02, -1.63831875e-01,
         4.88417748e-01, -2.45952737e-01,  1.28644459e+00,
         3.54817879e-01,  5.05439272e-01, -4.33832188e-01,
        -3.34579416e-01, -1.90769815e+00, -3.31570394e-01,
        -2.29370286e-01,  5.50562286e-01,  1.23956728e+00,
        -1.55461368e+00, -1.30167021e+00,  1.42254427e+00,
        -7.05683621e-01, -3.38378195e-02,  1.27772116e+00,
         1.86618581e+00,  1.80695950e+00, -1.59272378e-01,
         1.24271096e-02,  7.38489430e-01, -1.12510182e-01,
         1.41436148e+00, -1.88252882e-01, -8.87570812e-01,
         5.37254537e-01,  1.31767555e-02, -7.46404318e-01,
         3.22088679e-01, -1.07676934e+00,  5.79650603e-01,
         1.08831045e+00,  2.27789516e-01, -9.70743465e-01,
         6.62336478e-01,  3.69297335e-01, -1.53646767e+00,
         7.02341756e-01, -2.83913858e-01,  1.95419702e+00,
        -1.98359744e+00,  1.56314925e+00, -2.97891403e+00,
        -2.48205447e+00, -1.35923265e+00,  4.65716732e-01,
        -2.02006918e-01, -9.15298104e-01,  1.37189213e+00,
         6.96958240e-01,  2.71531000e-01,  1.58023963e-01,
        -2.30481048e+00, -3.00564619e-01,  1.49699256e+00,
        -8.63927258e-01,  1.01594863e+00, -1.88437615e+00,
         2.55624147e-01, -3.00492371e-01,  8.27470946e-01,
        -1.89929523e-01,  3.07042473e-02,  7.75070090e-03,
         1.85086724e+00, -6.96165779e-01,  1.13615450e+00,
         1.43900770e+00,  1.27106738e+00, -5.36330575e-01,
        -5.96740676e-02, -2.16458767e+00, -9.22853558e-02,
         3.75842159e-01,  4.46981533e-01, -9.66825264e-01,
         1.17324490e+00, -3.45042465e-01, -6.19820657e-02,
        -9.55368348e-01, -1.26633850e+00, -1.79932546e+00,
        -1.03986261e+00, -2.16643006e-01,  7.93188592e-01,
         1.43821354e+00, -1.17938912e+00,  2.19173584e+00,
         1.17656137e-01,  1.46049530e+00, -5.13114937e-01,
         2.43720676e-01,  1.54425146e+00,  1.66542256e-01,
         1.29546798e+00,  3.27818066e-01,  9.35869079e-01,
        -1.06207013e-02,  3.65364465e-01, -1.25350088e+00,
        -5.58208831e-01, -1.40124969e-01,  9.62392626e-01,
         5.16961375e-01,  1.23632489e+00,  5.58487650e-01,
         2.55192564e+00, -2.03361528e+00, -1.40067349e+00,
         2.16294617e-01,  4.81376556e-01,  4.07731445e-01,
        -4.26726393e-01,  1.49555541e+00,  1.57254803e-01,
         2.35406291e+00, -7.23613741e-01, -1.85428930e+00,
         1.61426761e+00,  4.63462440e-01, -5.81109134e-01,
         7.89569876e-02,  2.63829636e-01,  1.98691786e+00,
         2.12948672e+00,  1.37258572e+00,  9.82311392e-01,
         3.36239609e+00, -1.67699863e+00,  1.70781618e+00,
         7.40916727e-01,  1.13119698e+00, -4.53377819e-01,
         7.03077962e-01,  7.87897044e-01, -1.04321559e+00,
        -2.05805116e+00, -2.59699924e-01,  1.73648472e+00,
         1.71773346e+00,  2.49722975e+00,  1.95029856e+00,
         7.68267561e-01,  9.70315040e-01, -1.38606791e+00,
         4.20999441e-01, -2.99120838e-01,  1.18918105e+00,
         1.28208164e+00,  6.76164761e-01, -2.50160727e-01,
        -1.80672591e-02,  1.24682903e+00, -1.08927701e+00,
        -3.07831290e-01, -9.70100331e-01, -9.71296651e-01,
        -2.98286795e-02,  8.74407922e-01,  3.55070718e-01,
         1.34354161e+00, -6.89185660e-01,  2.54651541e-01,
        -1.32527707e+00,  1.24446005e+00, -6.44992312e-01,
         6.92468734e-01,  9.22461645e-02,  3.31850648e-02,
         1.66119814e+00,  6.64668299e-01,  7.92916358e-01,
         1.85753956e+00, -1.98925429e+00,  1.63290830e-01,
        -1.21292978e+00, -6.38804167e-01,  1.73950692e-01,
         2.34659863e-01, -1.04721385e+00, -1.95153420e+00,
        -3.16645829e-02,  3.81459493e-01, -1.06389070e-01,
        -1.36855715e-01,  5.86976061e-01, -5.66118068e-01,
        -3.88915027e-01, -6.39611433e-01, -1.32629375e+00,
        -1.50736454e-01, -9.56704844e-02,  1.01675381e+00,
         1.06607424e+00, -5.91957386e-01,  9.15015454e-01,
         1.98475243e+00,  1.23898155e+00,  1.92588193e+00,
        -6.46602509e-01,  1.16525212e+00,  1.50385965e-01,
         1.08624220e+00,  4.94697861e-01,  4.94501765e-01,
         2.09964749e+00, -1.28959770e+00,  8.20027664e-01,
        -9.69036764e-01, -9.91135979e-01, -1.44637260e+00,
        -3.13741024e-01, -7.27711444e-01,  1.21160005e+00,
        -1.79014558e+00, -2.68051154e-01,  7.90761643e-01,
         8.15553182e-01, -4.06671518e-01, -2.89524781e-02,
        -2.13694825e-01,  1.62442056e-01,  1.39251565e+00,
         2.06967229e+00,  3.05495404e-01,  2.48127824e-01,
         6.19958822e-01,  1.65301996e+00, -1.10860324e-01,
         1.42800146e-01,  7.75419254e-01,  1.27287456e+00,
         1.21856864e+00, -1.01407107e+00,  2.88584518e-01,
         1.07567429e-02, -6.57176791e-01,  7.91059119e-01,
        -1.00821486e+00, -1.53028113e+00,  7.38298480e-01,
        -1.17121007e+00, -2.39408814e+00,  6.95923837e-01,
        -1.95602353e+00, -5.26111753e-01, -2.24133408e-01,
        -1.29872721e+00,  1.14807897e+00,  9.82693945e-01,
         1.20748326e+00,  4.01791598e-01,  7.11425644e-01,
         6.03182936e-01,  2.63891559e-01,  4.64993809e-01,
        -3.02476976e-01,  1.13377437e+00, -3.30056437e-01,
         2.07035385e+00, -1.21412944e+00,  4.16035178e-01,
         1.54655107e+00,  1.40538183e+00,  3.21620756e-01,
         1.11586601e+00,  1.67473628e+00,  7.87308302e-01,
         5.96547869e-01, -2.16427204e-01,  3.50920446e-01,
        -2.17151850e-01, -1.89633697e+00, -7.47360817e-01,
         1.37533580e+00, -1.47215981e+00, -2.13346718e-01,
         8.71569165e-01, -1.50053065e+00,  5.93678228e-01,
         2.27539880e-01,  2.09148155e+00,  1.94954092e-01,
        -1.48723607e-01,  4.56361735e-01, -8.39566081e-01,
        -6.76908023e-01,  2.58916034e-01,  1.21641614e-01,
        -1.51862060e+00, -1.35993754e+00, -4.48851222e-01,
        -2.60617844e-01,  3.65857134e-01, -8.29126068e-01,
        -8.52173128e-03, -3.85220631e-01, -1.99686550e+00,
        -1.67562393e+00,  3.77720549e-01,  1.37801022e-01,
         1.55274851e-01, -6.67939140e-01, -9.90676379e-01,
         8.89527208e-02, -1.32484328e+00, -2.92728916e-01,
         6.39638564e-01, -1.06569692e-01,  1.84886079e+00,
         1.30423910e+00, -3.73766077e-01,  2.81631340e+00,
         7.48867061e-01, -9.76913372e-01,  9.76835031e-01,
         2.05728641e-01,  9.83020208e-01,  4.49883653e-01,
         3.39794209e-01,  1.34769083e+00,  6.89775909e-01,
        -9.50823361e-01,  5.52005912e-01, -2.70408788e-01,
        -1.09094508e+00,  6.94784870e-02, -2.32373934e-01,
         1.04502862e+00, -1.20535791e+00, -6.21537657e-01,
        -2.22124500e-01, -6.23653986e-01, -8.85971857e-01,
         2.58133950e+00, -4.64937315e-01,  1.02821297e+00,
        -3.99917432e-01,  4.39134242e-01, -1.44799299e+00,
        -1.36171812e+00, -1.04800286e+00, -1.07035560e+00,
         1.93323259e-01,  8.83757588e-02,  7.26597610e-01,
         2.06892153e+00,  2.68032790e+00,  9.00662320e-01,
         2.72526453e-02, -6.24148515e-01,  6.11559157e-01,
         4.71655346e-01,  1.50720786e+00, -2.63523250e-01,
        -2.35013065e-01, -1.46178573e-03,  1.99264925e+00,
        -4.19989865e-01, -9.76276916e-02, -4.46245574e-01,
        -7.43050025e-01,  3.17811225e-01,  2.44412337e-02,
        -2.05101525e+00, -3.01296891e+00,  1.03837534e-01,
         5.60656911e-01, -2.94570002e-01, -1.12116172e+00,
        -6.03585949e-01, -8.38750461e-01,  8.72671637e-01,
         9.51858623e-01,  1.25002452e+00,  5.98789784e-01,
        -1.16565677e+00],
       [ 4.01666752e-01,  4.52727798e-01,  9.56000647e-01,
         9.29147478e-01, -7.65507292e-01,  6.34330582e-01,
         1.23132387e+00, -2.89079940e+00,  1.54779997e-01,
         8.80416163e-01,  8.03472590e-01,  5.51270327e-01,
         9.26508418e-01,  8.98077395e-01,  1.50255776e+00,
        -3.35068601e-01,  1.07574024e+00,  5.56634208e-01,
        -2.47444585e-01, -1.46057787e+00,  3.03979121e-01,
        -4.62843767e-01, -2.02497319e-01,  4.36447524e-01,
         2.00187421e+00, -6.06347446e-02, -5.38570428e-01,
         1.94260394e-02,  7.17436444e-01, -1.65569843e-01,
        -1.69332833e-01, -4.10112043e-01,  1.90697811e-01,
         1.05883975e+00, -1.03123559e-02,  8.26249270e-02,
         2.87871186e-01,  6.97659759e-01, -2.08563182e-01,
         3.93648637e-01, -1.37783671e-01, -1.14873764e+00,
        -7.64566278e-01, -7.33936965e-01, -6.60388099e-01,
        -4.50087412e-01, -5.47835349e-01,  7.56122785e-01,
         4.23280034e-01,  5.29381634e-01,  2.22850109e+00,
        -9.86501600e-01,  2.18991914e-01,  4.56806208e-01,
         1.60512783e+00,  8.76718130e-01,  1.89265055e-01,
         2.21412263e-01,  6.30954242e-01,  1.73936112e-01,
        -1.15105993e+00,  1.03128496e+00, -2.54117007e-01,
        -1.60693339e-01, -5.80712235e-01, -3.97160638e-01,
         4.95843876e-01, -2.31658369e-01, -1.45957535e+00,
        -6.69428876e-01, -1.48836721e+00,  7.56631210e-01,
        -1.20414548e+00,  3.85241597e-01, -2.83976650e-02,
         1.57393151e-01, -1.50883526e+00, -1.47542755e-01,
        -1.10734945e+00,  9.02809279e-02,  1.36194116e-01,
        -5.73624529e-01, -3.25532783e-01,  1.37613616e+00,
        -1.03565157e+00,  4.49779423e-01,  1.91618329e-01,
        -1.39049730e+00, -3.45897951e-01,  2.28205681e-01,
         2.31815705e+00, -8.69940760e-01, -5.97170592e-01,
         8.15317431e-01,  1.86516989e-01,  1.07900528e+00,
        -1.02175584e+00, -1.49803581e-01,  1.20306478e+00,
         3.16552576e-01,  9.73059705e-01, -3.09220785e-01,
         1.28799948e+00,  6.94854103e-01,  9.71270865e-01,
         1.08465762e+00, -4.64338742e-02,  9.12819208e-01,
         5.72561123e-01, -2.06222798e-01,  1.23667613e+00,
        -1.64497048e+00, -1.16851269e-01,  4.85911106e-01,
        -1.41330169e+00,  9.28469481e-01,  7.35581563e-01,
         6.93794522e-02, -4.63624892e-01,  1.46528747e+00,
         5.19966666e-01, -3.64366425e-01, -7.82893255e-01,
        -7.34437779e-01,  2.88928272e-01, -7.27421099e-01,
        -3.34148971e-01, -1.28763906e+00,  3.39329136e-01,
         9.21407269e-01,  4.06495923e-01,  7.09915350e-01,
        -7.14126067e-01,  7.73298028e-02, -1.85532732e+00,
        -2.24581079e-01, -1.00625860e+00, -4.01867309e-01,
        -2.08327083e+00,  4.75139930e-01, -1.41411958e+00,
        -1.40540820e+00, -2.13114785e+00, -8.52665331e-01,
        -1.72314713e-01,  9.41234237e-01, -5.73864759e-01,
        -5.37928458e-01,  1.11516832e+00, -3.92818138e-01,
        -4.70389997e-01,  8.28970065e-01, -3.97335603e-01,
         1.70654170e-01, -1.98064322e-01,  3.10630354e-01,
         5.15920434e-01,  1.52393768e-02,  4.90422540e-01,
         6.57397740e-01,  6.84405693e-01,  1.16824455e+00,
        -1.34544872e+00,  3.16977132e-01,  3.31914683e-01,
         7.20832865e-01,  2.12684227e-02, -8.70974594e-01,
        -1.07711522e-01,  2.42815353e-01, -4.38455507e-01,
         7.55905093e-01,  7.01406443e-01,  4.59779008e-01,
         1.26751998e+00, -1.06372084e+00, -1.18956859e-01,
        -1.68880724e+00,  6.89031390e-02, -6.32341115e-01,
        -1.60137779e-01, -9.03764081e-01,  1.24568023e+00,
         4.44831799e-01,  3.86879417e-01, -3.89269858e-01,
        -1.10353916e-01, -1.16281259e+00,  2.42147888e-01,
         3.85905834e-01,  4.19913738e-01, -2.11266831e-02,
        -4.42587895e-01, -9.89208642e-01, -4.19936174e-01,
        -1.51069400e+00, -9.72133537e-02,  4.39648251e-01,
        -1.07261268e+00,  2.74379549e+00,  1.01596686e+00,
         1.16201900e+00, -1.21997917e+00, -1.33209362e+00,
        -8.80325998e-01, -2.18961433e+00,  7.72188620e-01,
         2.13764558e-01,  2.24149555e-01,  1.29500238e+00,
         1.17733476e+00,  3.48234864e-01, -1.20864845e+00,
         5.92500335e-01,  1.65805009e+00, -2.09283238e-01,
         2.62594864e-01, -1.63912993e-01,  1.33624471e+00,
        -3.17452309e-01,  1.83547063e+00, -2.07889465e-01,
        -1.59178871e+00, -2.04769722e-01, -8.81490689e-01,
         1.52510488e+00, -2.48455005e+00,  1.04668809e+00,
         1.88973409e+00, -6.77463923e-01, -1.65547034e-02,
        -9.09904107e-03,  1.77795216e+00, -1.03398607e-01,
         4.11429079e-01, -3.39387491e-01,  1.19771114e+00,
         2.94264196e-02,  1.90845701e-01,  1.18250494e+00,
         3.00303840e-01, -8.70703869e-01, -1.82339814e+00,
         6.50738805e-01, -9.94072898e-01,  9.62411263e-01,
         4.83697734e-02,  5.02690837e-01,  3.63264392e-01,
         6.43850063e-01,  9.54732083e-01, -2.94023133e-01,
        -4.78358235e-03, -7.87121240e-01, -9.72176290e-01,
         7.03684298e-02, -8.57206643e-01, -7.34817698e-01,
        -8.42784085e-01,  1.42756229e+00, -9.19049018e-01,
         1.27072208e+00, -1.29633688e-01, -1.41049839e+00,
         1.02770714e+00, -3.85169189e-01,  1.22808276e+00,
        -2.42409246e-01, -2.99013600e-01,  1.67611144e-01,
        -1.08299076e+00,  7.52478817e-02, -4.33331300e-01,
        -1.94324294e-01, -2.12339203e+00,  1.36311503e+00,
        -1.49870500e-01, -1.08793030e+00, -1.48104220e+00,
        -8.24257630e-02, -2.30396200e+00,  1.37213469e+00,
         1.14208450e+00, -1.32997373e-01,  3.00817659e-01,
        -6.20917755e-01,  7.04450037e-01, -2.00763971e+00,
         4.87696198e-01,  5.69330376e-02, -1.29300000e-01,
         5.97197361e-01, -1.18318793e+00,  1.15805263e+00,
        -8.50827556e-01, -1.21725261e+00, -4.77926535e-01,
        -1.89854969e-01, -5.95599265e-01, -1.31215383e+00,
        -1.11311634e+00, -1.92963872e+00, -8.57408838e-01,
         7.24710446e-01, -4.70111613e-01,  8.20371723e-01,
         3.03177044e-01,  4.89552249e-01, -8.07584286e-03,
         9.86946835e-01, -1.20148893e+00, -5.70997380e-01,
         3.07481836e-01,  3.85850075e-01, -1.72536418e+00,
         2.92417084e+00,  1.87197563e+00, -1.33819622e+00,
        -1.59526180e-01, -1.11330807e+00, -1.49902589e-01,
         4.28869804e-01, -6.74067315e-01, -8.55632417e-02,
        -1.70724289e+00, -4.41649336e-01, -5.13432988e-01,
        -7.79604774e-01, -8.30917994e-02, -2.87896726e+00,
        -5.88650434e-01, -2.93193367e-01,  5.56749451e-01,
        -1.08746525e+00,  5.74043946e-01, -3.85103152e-01,
         2.65564886e+00, -7.44035267e-01,  1.50987682e+00,
        -1.48465644e+00,  4.18925001e-01,  4.07883986e-01,
        -1.21981024e+00, -7.31799886e-01, -6.86905530e-01,
         2.43727670e-01,  2.42891397e-01,  2.40894282e+00,
         6.88973504e-01, -1.68128262e+00, -1.88133082e+00,
        -7.59475625e-01,  1.15385588e+00, -7.59651918e-01,
         9.43491724e-01, -9.92742185e-01,  1.57153623e+00,
        -5.70690573e-01, -5.65729405e-02, -1.01864757e+00,
         1.18697248e+00,  1.09055206e+00,  3.20059101e-01,
         2.09133936e+00, -8.06549492e-01, -4.90999458e-01,
         1.53610661e-01, -5.60498702e-01, -6.26751740e-01,
        -5.37997770e-01, -6.37751003e-01, -1.14323281e+00,
         7.91503141e-01, -1.82587395e-01, -4.56099575e-01,
        -1.08537581e+00,  1.39604405e+00,  7.92431145e-01,
         2.08740652e-01, -9.11272137e-01, -2.42804129e+00,
         1.58920635e-01, -1.10072517e+00, -2.21159136e+00,
        -1.11171567e+00, -6.86608175e-01, -1.16471442e+00,
        -7.18294936e-01,  4.28517434e-01,  1.38508772e+00,
        -1.45631582e+00, -1.57730844e-01,  1.38784594e-01,
         3.87943367e-01,  1.37826690e-02, -2.23573432e+00,
         1.36747171e+00, -1.28978449e-01, -2.75424210e-02,
         6.35429347e-01, -1.09966593e+00,  8.64317862e-01,
        -1.30196451e-01, -3.94993106e-01,  6.65205148e-01,
        -1.49053217e+00,  3.10810109e-01,  1.27557615e+00,
        -4.56237620e-01,  1.19079824e+00,  8.97973963e-03,
         8.38576897e-01, -1.27520896e+00, -5.07669100e-01,
         4.99110512e-01, -1.37766010e+00, -1.34543185e+00,
         2.61152481e-01,  1.33812878e+00,  6.10711279e-01,
         9.96160199e-01, -2.05028925e-01,  8.38647191e-01,
         9.46448335e-01, -9.33349246e-01, -6.16272919e-01,
         1.35842309e+00,  3.39278993e-01,  1.25522225e-01,
         2.84020796e-01,  1.69135551e-01, -8.09863022e-01,
        -8.39577204e-01, -1.66957283e+00, -5.05021258e-01,
         1.23473725e+00,  1.23679974e-01, -2.18745200e-01,
        -1.25851054e+00,  1.29173513e+00, -6.90701527e-01,
        -3.80452597e-01, -1.99587223e+00, -8.69102888e-01,
         1.52572709e+00,  1.67251406e+00,  2.76831500e+00,
         2.42349200e-02,  1.00334964e+00, -8.62857436e-01,
         5.51696424e-01,  1.67901870e+00,  1.55106314e-01,
        -4.05480957e-02,  1.39711115e+00, -1.24115397e+00,
         2.42190194e-01,  3.57267404e-01,  8.58113961e-02,
        -1.26289920e+00,  2.72831171e-01, -1.87451099e-01,
        -1.33559077e-02, -3.72845097e-01, -3.96113489e-01,
         4.22030107e-01,  1.38123208e+00, -9.98537382e-01,
        -2.33696728e-05,  5.86743938e-01, -5.97426766e-01,
         5.86310545e-01,  3.04514975e-01, -8.53461726e-01,
         9.64428113e-02, -7.20645009e-01,  9.22861116e-01,
         9.64248878e-01, -3.91370328e-01,  3.80566494e-01,
         1.44218402e-01, -2.02459201e+00, -2.85219308e-01,
        -7.10088236e-01, -2.41682506e-02,  9.20416167e-01,
        -4.27383648e-01,  4.38150110e-02, -3.48314362e-01,
         2.75337322e-01,  1.09357025e+00, -6.16021844e-01,
        -6.02031542e-01,  4.07006935e-01, -3.91341986e-01,
         5.56131072e-01,  1.72014966e-01, -4.26083316e-01,
        -3.42093497e-01,  5.46477536e-02,  9.89225691e-01,
        -3.78796250e-01, -5.55505302e-02, -8.54880717e-01,
         2.52211377e-01,  1.33144004e+00,  3.71886223e-01,
         2.91427037e-01,  1.55628352e+00, -9.44269098e-01,
         1.35155386e+00,  6.64254048e-01,  1.47102076e+00,
        -1.52204558e-01, -1.74158834e+00, -1.54895098e+00,
         9.46147788e-01,  8.64142142e-01, -1.47595723e+00,
         3.39303253e-01, -2.03233739e+00, -5.50894793e-01,
         1.33731008e+00, -4.82308897e-02,  5.92546328e-01,
        -1.24274319e+00, -3.90608397e-01,  2.52644369e-01,
         3.46513833e-01, -9.01004376e-01,  1.55053566e+00,
        -8.54910023e-01,  4.87940099e-01, -1.51575353e+00,
         5.42639026e-01,  1.43680423e+00,  1.70795150e-01,
         1.85397872e+00,  3.70795926e-02, -2.59999301e-01,
        -1.29793952e+00,  1.40989233e+00, -3.15723360e-01,
         2.76488564e-01, -9.37790285e-01,  3.04786439e-02,
        -9.62728627e-01, -2.17047987e+00,  2.04734163e-01,
        -4.17425617e-02,  2.93094232e-01,  8.68564319e-01,
         3.30861566e-01,  1.28056982e+00,  1.32567037e-01,
         1.81016919e+00, -5.77891349e-01,  4.05820355e-02,
        -1.24049544e+00,  3.58934038e-01,  5.12195078e-01,
         1.45287802e+00, -1.80306990e+00, -1.10501766e+00,
         1.68059166e+00, -9.09827261e-01,  3.90290470e-01,
         2.00969113e-01, -2.70589455e-01,  5.96862722e-02,
         1.29087058e+00,  7.34624792e-01,  1.09470833e+00,
        -2.25107775e-01, -2.80303480e-01, -1.56810384e+00,
        -2.53005321e+00,  8.17569213e-01, -1.60682156e+00,
        -1.02342099e+00, -2.69006386e-02,  7.55935269e-01,
        -8.10664461e-01, -4.80376265e-01, -1.68613330e+00,
        -2.00961386e-01,  1.33690123e+00,  1.71251159e-01,
         6.32237266e-01, -6.20483181e-01, -1.02263687e+00,
        -1.20110880e-03, -1.85042597e-01, -4.83976108e-01,
        -2.92825100e-01,  1.46696129e+00, -1.64435549e+00,
         1.20563216e+00,  8.74374389e-02, -8.97517147e-01,
        -6.84835229e-01,  7.56976633e-01, -1.70232886e+00,
        -2.48817331e+00,  3.11029454e-01,  8.80226840e-01,
         1.03959489e+00,  1.37346146e+00,  1.61014238e-01,
         7.02988929e-01,  1.97276443e+00, -1.63614469e+00,
         1.92851323e-01, -1.32990137e+00,  5.08917696e-01,
        -2.55421677e-01,  5.92508565e-01,  8.36559532e-02,
        -4.28023970e-03, -5.62556136e-01, -9.21416527e-01,
         2.05354189e-01,  7.24744082e-01,  2.03869759e-01,
        -4.97756573e-01, -4.78181319e-01,  1.88758532e+00,
         1.79192174e+00, -5.70944390e-02,  1.34611960e+00,
         3.65414714e-01,  1.24323383e+00,  6.46391083e-01,
         2.20898107e-01, -2.06689191e+00, -4.50398773e-01,
         5.74596563e-02,  2.02583354e+00, -9.56167590e-01,
        -3.77864441e-01, -1.50634307e-01, -2.35277653e+00,
        -4.62081865e-02,  2.14521563e-01,  8.92635473e-02,
         4.29038097e-02,  8.81066063e-02, -2.27872848e+00,
        -7.31537051e-01, -1.72097098e-01,  5.40390049e-02,
         4.90536253e-01,  5.80519474e-01, -5.07850313e-01,
        -5.57123808e-01, -6.85859633e-02,  2.82581994e-01,
         1.11435885e+00,  2.57465739e-01, -3.62011586e-03,
        -1.30198755e+00,  6.18896976e-01,  1.13047038e+00,
        -2.33679030e+00, -1.86235854e+00, -6.52614093e-01,
        -7.39608305e-01,  4.72697414e-01, -2.15026621e-01,
        -9.57927928e-01, -2.23254082e-01, -2.46788899e+00,
         3.47496500e-01,  6.82371278e-01,  3.89327398e-02,
         4.72534177e-01,  1.06802489e+00,  1.04666734e+00,
         2.64641176e-01, -3.62278119e-01, -1.54701509e+00,
        -7.70914054e-01, -8.41040444e-01, -4.50300080e-01,
        -1.54954155e+00, -7.47419741e-01,  2.47943795e-01,
        -9.96728532e-01,  1.02684038e+00, -1.05691044e-02,
        -4.13821754e-01, -2.18631907e-01, -2.40653134e-01,
        -1.51174824e+00, -3.53650495e-01,  1.37009255e+00,
         4.36726792e-01, -4.58955956e-01,  6.05952857e-01,
         1.95240967e-01, -1.49100784e+00,  4.24867767e-01,
        -9.59624319e-02,  2.45677992e-01,  7.70713264e-01,
        -6.48360743e-01, -6.30032278e-01,  1.93252568e-02,
        -7.15997112e-01,  2.75964149e-01,  1.75499063e+00,
        -1.42146950e+00,  6.61753484e-01,  1.43737032e+00,
        -6.60337406e-02,  4.11210317e-01,  7.04717764e-01,
        -3.10347588e-01, -6.21317509e-01,  1.27226046e+00,
         4.87849670e-01,  9.24192556e-01,  9.42551370e-01,
         5.18707133e-01,  5.41461211e-01,  1.31116563e+00,
        -6.88904924e-01,  3.45252369e-01, -1.04262787e+00,
         2.29308613e+00,  2.92365653e-01,  1.12157333e+00,
         1.15847530e+00,  2.31658489e-01,  5.29870141e-01,
         8.44012351e-01,  4.38256545e-01,  8.74778421e-02,
         7.41571355e-01, -1.02103106e+00,  1.17207516e+00,
        -1.64721013e+00,  1.36823646e+00, -6.54373494e-02,
         6.89485902e-01, -5.82398563e-01,  1.38610916e+00,
         1.02219240e+00,  9.09783017e-01,  5.12211221e-01,
        -1.14332573e+00, -2.22279876e-01,  1.56673766e+00,
        -1.71096832e+00,  3.36269607e-01,  6.34423085e-02,
         7.19730204e-01,  2.81007678e+00,  8.82454972e-01,
         4.11306767e-01, -1.85164186e+00, -9.42207334e-01,
        -1.60358092e+00,  7.07614115e-01, -1.00800337e+00,
         1.42113949e+00, -1.70006273e+00,  4.39724736e-01,
        -1.88230658e+00, -1.44452744e+00,  4.77206941e-01,
        -1.73980238e+00,  1.12235102e+00,  6.86431763e-01,
        -1.40151426e-01, -2.04716844e-01,  1.00213704e+00,
        -1.02900362e+00,  8.20757256e-01,  2.21441919e+00,
         2.40173105e-01,  3.59867244e-02, -5.08377132e-01,
        -1.04085639e+00],
       [-1.40637195e+00, -1.55462639e+00,  1.00762323e+00,
        -6.63875776e-01,  1.03032328e+00,  5.78467737e-02,
         4.15596288e-02,  4.11350386e-01, -7.48316060e-01,
         4.40582142e-01,  8.83286107e-01,  1.11787607e+00,
        -5.29241370e-01, -1.90664743e+00,  1.09243645e+00,
         7.90718861e-01,  3.09573651e-01, -8.33893807e-01,
         8.04083781e-01,  1.08463989e+00, -4.32067872e-01,
        -5.07504090e-01, -9.61611919e-02,  9.46781923e-01,
        -1.06253568e-01, -5.14250495e-01,  1.65641099e-01,
         5.83836538e-01,  2.58237889e-01, -2.15047073e+00,
        -4.51784516e-01, -6.49595907e-01,  6.73063553e-01,
         7.90785165e-01,  1.07369081e+00, -2.13222281e+00,
         1.76979068e-02,  2.79661997e-01, -8.84783695e-01,
         3.30022579e-01,  1.80226059e-01, -9.90878704e-01,
         4.00922983e-01, -9.43599516e-01, -6.99481195e-01,
        -4.10272967e-01, -1.57620726e+00, -1.18592237e-01,
        -5.92944240e-01,  1.49489830e+00,  3.23562293e-01,
         9.50072235e-01,  3.69409461e-01, -9.67914505e-01,
        -1.23927231e+00,  2.26915923e-01,  6.44016137e-01,
         4.08334160e-01, -8.04122752e-01,  5.63764566e-02,
         9.59867428e-01,  5.64379311e-01, -1.00318571e+00,
        -2.17401960e+00, -8.08025967e-01,  3.44861316e-01,
         4.62240287e-01, -8.20078166e-01, -6.87504094e-01,
         1.05478652e+00, -6.05012734e-01,  6.66729053e-01,
         5.10473681e-01,  1.35299088e+00, -2.12871094e+00,
         4.43319401e-01, -1.06565031e+00, -1.31172284e+00,
        -9.67018090e-01,  3.30774866e+00, -1.40020518e+00,
        -1.28974402e+00, -1.51444218e+00, -8.89474018e-01,
        -8.33912875e-01, -8.56117195e-01,  1.82926131e+00,
        -8.25653155e-01,  5.95010638e-01,  5.39281641e-01,
        -1.69782430e-01,  2.17499195e+00,  9.39911369e-01,
         1.48685749e+00,  6.31228894e-01,  2.83330310e+00,
         2.02869922e+00,  6.23288856e-01, -4.67733190e-01,
         1.26176563e+00,  1.66747878e+00,  7.51842196e-01,
         3.53732570e-01, -2.76583272e-01, -3.66381033e-02,
        -9.28116391e-01,  7.97472594e-01,  1.13547592e+00,
         1.14088161e+00, -1.45089380e-01,  1.62704879e-01,
        -8.39294898e-01, -1.27130098e-01,  6.34522813e-01,
        -2.69144882e-01,  2.67992244e-01,  3.20830539e-01,
        -1.17824308e+00, -2.05507807e-01, -9.37477746e-01,
         3.05717839e-01,  6.91220083e-01,  7.20697878e-01,
         1.40094094e+00,  3.22191243e+00,  1.20654745e+00,
         2.94121685e+00, -1.19024833e+00,  2.77261083e+00,
         3.47548946e-01, -1.73578816e+00,  2.03364375e+00,
         1.15038004e+00, -7.74081119e-01,  3.44137678e-01,
         3.26489472e-01, -3.33858465e-01, -4.04394531e-01,
        -7.06402249e-01,  4.36131330e-01, -3.88440617e-01,
         7.07630301e-01,  1.46710093e+00,  1.45515793e+00,
        -8.41407956e-01, -1.30336441e+00,  8.76709332e-01,
         1.03104306e+00,  2.72581501e-01, -4.25877233e-01,
         2.57353017e+00,  1.20820400e-01,  3.85971862e-01,
         9.52285578e-01,  1.50581231e+00,  1.69065410e+00,
         3.32661734e-01,  1.62423769e+00, -4.85440062e-01,
         1.25666334e+00,  1.46677916e+00, -9.10887532e-01,
        -2.30757288e-01, -3.54424907e-02, -1.07747815e+00,
         2.08159708e+00, -9.30056614e-01, -2.44113474e-02,
        -1.35301625e+00, -1.25176284e+00, -3.61266721e-01,
        -1.02838164e+00,  1.54228452e+00, -2.98715031e-01,
        -6.49763846e-02,  5.85534839e-01,  2.63475555e+00,
         9.21788673e-01,  2.21208933e+00,  2.35608874e+00,
         1.21068277e+00,  7.46776325e-01, -8.80288978e-01,
        -3.19026517e-02, -1.28270110e+00, -2.08508514e+00,
         2.89996974e-01, -3.45685683e-01, -1.61629907e+00,
         8.11662942e-01,  1.13405401e+00,  6.42353860e-01,
        -3.37065111e-01, -7.31147081e-01, -1.00966993e+00,
        -4.80805277e-02,  5.40591739e-01, -9.26804801e-01,
        -1.31954433e+00,  2.62822197e-01,  3.57027867e-02,
         3.69793073e-01,  1.35483349e+00,  1.09872772e+00,
         2.94562576e+00,  2.35220767e+00,  1.21187063e+00,
         2.16248824e+00, -2.57280094e-01, -1.65633054e+00,
         6.08675229e-01, -1.22098306e+00,  4.92019397e-01,
        -1.59914011e+00, -1.21154039e+00, -5.42759252e-02,
         9.69051733e-01,  1.96867875e-01, -1.67136738e+00,
        -4.61434252e-01,  4.81957697e-01,  5.29451301e-02,
         5.10783338e-01, -1.34894984e+00,  8.38004522e-01,
         1.42477560e+00,  1.19099145e+00, -6.86016662e-01,
        -3.59030941e-01, -2.76716259e+00, -3.79144477e-01,
         1.27438742e+00,  2.65672286e+00,  5.81426801e-01,
         7.22078258e-01,  4.08514422e-01,  7.64239845e-01,
        -4.71842354e-01, -1.30589354e+00, -2.36806283e-01,
        -1.30194119e+00, -6.78662843e-01, -9.01083796e-01,
        -8.65911197e-01,  1.14702446e+00,  7.90282605e-01,
        -1.34641262e-01,  1.38877377e+00,  1.03333863e+00,
        -1.91265304e+00,  1.69364881e+00, -9.03883080e-01,
        -9.01207093e-01,  7.52762021e-01,  8.05096727e-01,
         1.03351274e+00,  1.11245070e+00,  2.65474528e+00,
         1.75132136e+00,  1.29004290e+00, -3.61088321e-02,
         3.60584339e-01, -1.98082075e+00,  1.58148638e+00,
         4.72510376e-01,  3.32984808e-01,  2.92412462e-01,
         4.49873713e-01, -8.81021728e-01,  1.24685386e+00,
         1.43567348e+00,  2.82943500e-01,  1.47622618e+00,
         6.92310403e-01, -9.13644502e-01,  1.51311577e+00,
         2.92161682e-01,  5.30884803e-01,  6.88488057e-01,
         1.69234145e+00, -2.11178978e+00, -1.70078962e+00,
         6.69886208e-01, -7.92826974e-01, -6.68279108e-01,
         1.34013059e+00,  1.63594240e+00,  1.24655652e+00,
        -2.08835796e+00,  1.46897427e+00,  2.28307049e+00,
        -8.84945244e-01, -1.18534741e+00, -2.00961451e-01,
        -6.42977226e-01, -2.28429153e+00, -1.16734732e+00,
         6.36488614e-01, -6.65866889e-01, -8.07594892e-01,
        -1.69080901e+00,  1.10811583e+00,  4.23666428e-01,
        -8.14045882e-01, -1.43099051e+00,  1.29544648e+00,
         8.56795401e-01,  4.22014995e-01, -5.70743534e-01,
         2.07213305e+00,  1.43754736e+00, -1.99112633e-01,
         2.41417901e+00,  9.41347527e-01,  1.97591685e-01,
        -4.54108207e-01, -5.54140574e-01,  2.92793773e+00,
         1.32366282e+00, -6.95950305e-01, -1.37402159e+00,
        -1.28763368e+00, -1.19340708e+00, -2.76326328e-01,
         1.35989264e-01,  2.41410779e+00,  1.01796690e+00,
         1.73994958e-01, -3.21311829e-01, -7.02566887e-01,
         2.54217660e-01,  3.19736616e-02,  3.15587229e+00,
         1.00224180e+00,  2.05370312e+00, -1.53885099e-01,
         6.58410263e-01, -1.39761223e+00,  1.17332754e+00,
        -7.48978206e-02,  5.97644777e-01,  3.97520451e-01,
         1.36714556e+00,  4.63752353e-02,  1.83907647e+00,
         6.91750355e-01,  1.94406819e-01, -1.86738919e+00,
        -1.22630329e+00, -1.67920546e+00, -1.86635821e+00,
        -1.41719461e+00,  9.42276134e-01, -1.58163874e+00,
         1.26974204e-01,  1.50345314e+00,  7.82254160e-01,
         1.14794941e+00, -2.26932694e-01,  5.76774840e-01,
         2.85661925e-01,  5.51168280e-01, -8.52144507e-01,
         1.20292833e+00,  1.31316667e+00,  6.35679637e-02,
         9.19991485e-01, -9.75425869e-01, -8.00401257e-02,
         8.63720666e-01,  4.17836939e-01,  2.84573358e-01,
         6.12854567e-01, -8.01408126e-01, -1.40990344e+00,
        -1.76142602e+00, -2.97216191e+00, -9.18333159e-01,
         1.06985161e+00, -1.08194575e+00,  2.81151995e-01,
         1.41041779e-01,  6.33494764e-01, -1.08833938e+00,
         2.17008494e+00, -1.11795946e+00,  8.44976006e-01,
         2.16838525e+00,  9.07502922e-01, -9.34492537e-01,
        -1.03045451e+00,  9.35166518e-01, -3.92756643e-01,
        -1.58913000e+00,  1.72213237e+00,  2.69727036e-01,
        -1.64721414e-02,  7.78579900e-01,  1.30611469e+00,
         1.71743001e+00, -1.02885885e+00, -1.81184865e+00,
        -3.26633885e-01, -9.96986580e-01,  6.96488512e-01,
         6.55697419e-02,  1.69039718e+00,  1.03901925e+00,
        -3.65626778e-01,  5.57376823e-01,  4.60427151e-01,
         5.76801548e-01, -7.06399025e-02, -2.29971650e-01,
         1.34570208e+00,  2.09322796e+00,  1.80607108e+00,
         6.91964819e-01,  3.02451170e+00, -1.09975382e+00,
        -1.43662765e+00,  2.02968069e+00, -1.52430744e+00,
        -9.56729435e-01, -1.43770354e+00,  2.70642539e-01,
         8.75010622e-01,  2.21937845e+00,  2.02289083e+00,
        -2.53031441e-01,  8.08502404e-01, -4.13933494e-01,
        -2.33305068e-01,  7.03033704e-02,  3.33158009e-02,
         1.38602260e+00,  8.02281628e-01,  1.48351614e-01,
        -2.20587445e-02,  3.91058314e-01, -2.14449946e+00,
         2.14753780e-03,  2.58474605e+00,  5.69166291e-01,
         2.65489862e-01, -4.77384604e-01,  8.55099806e-02,
        -7.84042906e-02,  8.17444227e-01,  1.23525365e-01,
        -1.84382063e+00,  1.15130462e-02, -6.15285289e-01,
        -1.55876202e+00, -1.43729690e+00,  3.63333790e-01,
        -5.06093655e-02,  2.61789722e+00, -1.13182418e+00,
         8.64620093e-01,  6.51287467e-01,  2.34378364e-01,
         1.83491220e+00, -1.05448929e+00, -1.13799370e+00,
        -1.69708236e+00,  1.63077910e+00, -5.19156977e-01,
        -4.04874684e-01,  1.44814046e+00,  1.90537504e+00,
         1.34052637e+00,  8.35766153e-01,  1.69579322e+00,
        -4.16879059e-01,  4.99245167e-01,  7.39151977e-01,
        -5.42187840e-01, -9.68817353e-02, -5.01395033e-01,
        -3.36378699e-02, -7.11012653e-01, -1.22990813e-01,
         2.71568536e-01, -5.52195827e-02,  1.07369146e+00,
         1.78309124e+00,  7.05739092e-01,  2.62210895e-01,
         9.82418092e-01, -4.22440471e-01, -5.27724699e-01,
         1.42871383e+00, -1.67114955e+00,  8.40342188e-01,
         3.71130619e-01,  1.85010768e+00,  8.02776765e-01,
         1.79372812e+00,  1.93255681e+00,  1.39403154e+00,
        -1.84960917e-01, -6.68547498e-01, -9.26977590e-01,
         4.14148073e-01,  2.96695986e-01, -2.48850749e-01,
         1.31652523e+00,  2.05572807e-01,  6.29241080e-01,
        -1.21925899e+00,  2.33068479e-01,  3.62489134e-01,
        -1.28499332e+00,  8.74779149e-03,  1.46541199e-01,
         2.01839993e+00,  9.32198911e-02,  1.14663539e+00,
        -1.26363325e+00, -4.45561370e-01, -6.16215050e-01,
        -1.34242477e+00,  1.17107678e+00,  5.69693775e-01,
         3.22551124e-02,  3.57726214e+00,  8.73535465e-01,
         8.11424284e-01,  1.39452921e+00,  4.35335408e-01,
        -1.45570222e+00,  5.16595855e-01,  6.38902368e-01,
        -1.41540215e-01, -7.20897400e-01,  3.75993402e-02,
        -9.98213562e-01, -5.43448235e-01, -8.76625226e-01,
        -1.50420725e-01,  1.37999828e-01,  3.93853516e-01,
        -5.63325667e-01, -6.32919906e-01,  1.16318760e-01,
         3.56375946e-01,  1.22222234e+00, -5.41249773e-01,
        -4.66133971e-01,  1.07588005e+00,  1.12355259e+00,
        -1.66329500e-01,  1.16117188e+00,  2.21697402e+00,
        -8.86963420e-02,  1.79808791e-03,  5.81194747e-01,
        -4.26014455e-01,  8.10544173e-01,  1.00316504e+00,
         2.74749091e-01,  5.23127312e-03,  8.47223704e-01,
         4.73531482e-01, -8.64420516e-01,  8.81672261e-01,
         2.04812861e+00,  8.53838913e-01,  4.53244978e-01,
         2.62025725e+00,  2.99366620e-01, -1.71176623e+00,
        -6.31531094e-02, -2.79451586e-01, -9.50544470e-01,
         1.55152590e-01,  5.45009032e-01,  8.81557726e-01,
         1.27738627e+00,  1.76641877e+00,  5.37199385e-01,
         1.39452213e+00,  1.45160910e+00, -4.23501385e-01,
        -2.87485847e-01, -3.19080714e-01, -1.76441842e+00,
        -1.57038234e+00,  1.70500480e-02, -5.08447184e-02,
        -5.90742724e-02,  7.59870984e-01, -1.95617220e+00,
        -8.81856815e-01,  1.12615578e+00,  2.35392098e-01,
        -3.96579546e-01, -9.51735526e-01, -4.85114238e-01,
        -1.44503497e+00, -1.35181670e+00,  4.07141106e-01,
        -8.07763612e-01,  1.92239442e+00,  1.43114539e+00,
         5.29009210e-02,  2.99974502e+00,  7.25301549e-01,
         5.71662548e-01, -6.44481972e-01, -1.22281879e+00,
        -9.14739371e-01,  1.97670389e-02, -6.20817256e-01,
        -8.50452404e-01, -1.20740726e+00,  8.84461858e-01,
        -1.05072439e+00,  1.80586251e-01, -1.86221369e+00,
         1.42762485e+00,  1.35603236e+00,  9.05816334e-01,
        -1.12221038e+00, -2.28469409e-01,  3.58966922e-01,
         1.83403924e+00, -1.34921337e-01,  1.13059226e-01,
         1.33838700e+00,  4.92140353e-01,  3.18447796e-01,
         1.44451728e+00,  1.63172759e+00,  1.28897405e+00,
         9.28003204e-01, -6.52352422e-01, -1.02115942e+00,
        -7.37808752e-01,  1.79061322e-01,  9.63005278e-01,
         1.21465875e+00,  1.93794929e+00,  5.32153696e-02,
        -2.44147424e-01, -2.91497549e-02, -1.24705568e+00,
         2.00420541e-01, -1.96584440e-01, -1.01585438e+00,
         1.72576701e+00, -1.11981846e+00,  2.37311099e-01,
         5.40691138e-02,  4.87229613e-01, -7.63688631e-01,
        -3.22410110e-02, -6.79597755e-01,  1.22108507e+00,
         1.70621991e+00,  6.63690683e-02,  2.37708673e+00,
         5.00495452e-01,  8.46955032e-01,  2.21210604e+00,
        -4.67546134e-01,  1.43406154e+00,  1.03530683e+00,
        -5.18902288e-01, -8.78094220e-02, -1.45696454e+00,
         9.57106190e-01,  1.53737260e-01,  1.73911109e+00,
         7.01816207e-02, -1.78659790e+00,  3.80683258e-01,
        -1.68252846e+00,  1.39156792e-01, -1.13139531e-01,
         4.59337792e-01,  5.59261960e-01,  1.70820034e+00,
         6.93083976e-01,  1.41032488e+00,  2.05610953e+00,
         1.88147740e+00, -9.03984214e-01, -1.42291117e+00,
        -1.33025148e+00, -6.77716732e-01,  4.51591803e-01,
        -8.55501048e-01, -5.02354667e-01,  1.02429374e+00,
         4.25153135e-01,  1.90535832e-01,  4.61075385e-01,
        -1.31971639e+00, -5.53730691e-01, -1.45087743e-01,
         8.18336579e-01,  4.98570338e-01, -6.64405282e-01,
        -1.08707836e+00, -1.86926080e+00, -2.47374427e-01,
         3.66555109e-02,  1.26753274e+00,  5.48810114e-01,
         6.62719442e-01, -2.57314025e-01,  7.84096356e-01,
        -5.07275064e-01, -4.46697135e-01, -8.26102169e-01,
        -1.05632890e+00,  2.50158557e-01, -1.06294130e+00,
        -1.33668725e-01, -4.00481729e-01, -2.37962296e+00,
         4.38458269e-01, -1.69275371e+00,  9.02925500e-01,
        -9.20579411e-01, -1.92959907e-02, -6.65686819e-01,
         1.73323784e+00, -2.54684643e-02, -4.68972552e-01,
         5.14789197e-01,  6.27310244e-01,  4.05321398e-01,
         3.78241496e-01, -1.57565419e+00, -1.39046052e+00,
        -1.15353249e+00, -2.10708121e-02, -7.91789018e-01,
         2.99790204e-01,  5.03417728e-01, -2.85356891e+00,
        -2.46274876e+00, -6.35941486e-01, -1.23842970e+00,
         4.65803155e-01, -3.34551292e-01, -2.68016302e-01,
        -1.11141169e+00, -8.58908741e-01,  8.69978766e-01,
         1.58002606e-01, -2.67175849e-01,  3.38951764e-01,
         1.96300971e+00, -1.18607110e+00, -9.28476951e-01,
         5.20525224e-01,  1.65602815e+00,  3.83002988e-01,
        -1.08852597e+00,  5.81583827e-01,  7.47376847e-02,
         2.18397498e-01, -4.46296483e-01,  1.96293715e+00,
        -4.13958383e-01,  2.18049420e-01,  9.03976288e-02,
        -1.03627011e+00,  3.31246081e-01,  6.13511725e-01,
         1.71422356e+00,  1.14677544e+00,  1.28917792e+00,
        -1.15341928e+00,  1.35392070e-01, -6.00151527e-01,
        -1.23372778e+00,  6.92120199e-01,  9.15281470e-01,
         3.90415192e-01],
       [ 5.35098513e-01,  2.58442231e-01, -8.53329885e-01,
        -3.75455095e-01, -1.28250777e-01, -8.24532882e-02,
        -1.53825381e-02,  2.14659808e-01, -1.38328407e-01,
         8.63701672e-01,  1.44178752e+00,  1.85277889e+00,
        -6.38997280e-01,  3.47297316e-01, -1.78806918e+00,
         1.25105330e-01, -9.31508285e-02,  6.80388610e-02,
         6.63801644e-01,  1.25174621e+00, -6.46608369e-01,
        -8.82426499e-01,  8.33307932e-01,  2.39511039e+00,
        -8.80066985e-01,  9.71075374e-01,  7.71369738e-01,
         1.79568731e-01,  5.93999324e-02,  1.24322871e+00,
         5.75329036e-01, -4.45565262e-01,  1.40028331e+00,
        -1.62474933e+00, -6.90631524e-01, -4.03849473e-02,
         1.49587259e+00, -6.26093475e-01,  1.24074622e+00,
        -8.17377132e-01,  7.65797468e-01,  5.30399110e-01,
        -1.46963166e+00, -3.96226722e-01,  2.98705968e-01,
        -2.53460409e-01,  7.33143126e-01,  2.00461971e-01,
        -8.71199676e-02,  5.32274683e-01, -3.90346170e-01,
        -7.34940653e-01, -1.18691249e+00,  1.39320790e+00,
        -3.66250001e-01,  8.70907369e-01, -1.22334691e+00,
         3.35639716e-01,  1.44650365e+00,  6.27033396e-02,
         3.35892920e+00,  9.34591437e-01, -5.53026194e-01,
        -6.49501060e-01, -1.00715440e+00,  6.57454519e-01,
         3.54220444e-01,  7.25280179e-01,  3.14972761e-01,
        -7.36099764e-01,  1.73204351e+00,  2.26713593e-01,
        -6.90552946e-01,  1.24323172e+00, -8.71195256e-01,
         2.39141898e-01,  2.45044172e-01,  1.17154752e+00,
        -4.85503348e-02, -2.05360686e-01,  1.13405850e+00,
         1.71658877e+00, -1.47754891e-01, -2.06327888e-01,
        -1.27227827e+00,  1.04090125e+00, -7.16185618e-01,
         2.74111316e-01,  1.61241270e+00, -6.57027939e-01,
        -1.78281174e+00, -7.70039494e-01,  7.89059756e-01,
         6.82458564e-01,  5.45929058e-01,  6.39408873e-01,
         1.48091864e+00,  6.24236048e-01, -1.02211408e+00,
        -7.18464614e-01, -4.23871299e-01,  4.31158693e-01,
        -2.37311132e+00, -4.75105983e-01, -2.82590623e+00,
        -4.69787627e-01, -3.82756886e-01, -1.09600622e+00,
        -2.06539290e+00,  1.49584271e+00,  1.68618178e-01,
         1.56415722e+00,  2.32767805e-01,  7.97925490e-01,
         4.97061481e-01,  5.20632055e-01, -3.34253410e-01,
         6.01690103e-02, -4.23817443e-01, -2.74613205e-01,
        -1.82600412e+00,  1.48676036e+00,  1.92713052e+00,
         1.41510110e+00,  1.14366976e-01, -2.27945691e-01,
         1.01683510e+00, -1.59081612e+00,  1.96855386e-01,
        -1.24123422e+00,  1.29292458e+00,  1.95462330e-01,
        -8.96730014e-01, -3.17911931e-02, -5.59554836e-01,
        -4.38061559e-01, -7.83224305e-01, -9.02031152e-01,
         3.92481898e-01,  2.87800245e-01, -1.03447389e-01,
         2.00016605e-01, -1.21436015e+00, -2.39209781e-01,
        -7.99913810e-01, -8.87278752e-01, -9.17779809e-01,
        -9.82824615e-01,  1.24233710e+00, -4.09898666e-01,
         6.77628912e-01,  7.08081220e-01,  2.58582110e-01,
         1.06191516e+00, -1.21077772e+00,  4.57769959e-02,
         1.07553296e+00,  2.73705804e-01, -9.34789761e-01,
        -1.02769938e+00,  5.50239735e-01,  2.10713828e-01,
         2.66906037e-01,  2.25552906e+00, -7.48443715e-01,
        -1.32788856e+00, -9.85200137e-01, -4.02927826e-01,
         5.88253474e-01, -5.43131024e-01,  1.04737340e+00,
        -2.15278470e-01, -6.60058622e-01,  1.12440939e-01,
         6.90452308e-01, -1.00336284e+00,  2.23206110e+00,
         7.52342902e-01,  1.33020438e+00,  1.00312505e+00,
        -7.08833000e-02,  9.94597753e-01, -3.87039115e-01,
         4.29856401e-01, -2.34238600e-01,  8.24443035e-01,
         3.76251800e-01,  4.56629405e-02, -2.12575293e-01,
        -8.80272755e-01, -9.33245719e-01,  6.12837387e-01,
         3.01251715e-02, -1.32466828e+00,  9.54969824e-02,
        -8.24673242e-01,  4.47557580e-01,  2.14675205e+00,
         1.39905860e+00, -4.53717908e-01,  8.18239284e-01,
        -7.38568597e-01, -1.26909099e-01,  5.49294653e-01,
         6.51194033e-01, -3.97342092e-01,  8.61621025e-02,
         6.87582885e-01,  1.29433270e+00,  6.19223896e-02,
         7.69824441e-01, -9.21195551e-01, -5.10946597e-02,
         2.46849996e-01, -3.64500708e-01, -1.53184414e+00,
         5.18431645e-01, -3.96781427e-01,  7.97536208e-01,
        -2.85256772e+00, -1.49038891e+00,  1.46406459e-01,
         2.55995341e+00,  1.18702335e-01,  1.22761587e+00,
         1.74705181e+00, -4.36995157e-01,  2.14319033e-01,
        -1.08412663e+00,  1.34017384e-01,  1.66669682e-01,
        -1.52776080e+00,  1.13564316e+00,  3.13935217e-01,
         9.02123123e-01,  1.92185883e+00, -9.80746593e-02,
         5.70668677e-01, -6.07043363e-02,  1.23102402e+00,
        -5.93706075e-01, -6.41646639e-01, -7.13120562e-01,
         4.07828993e-02, -3.69400240e-01, -7.64560390e-01,
        -3.64157471e-01,  5.32849331e-02, -3.61610979e-01,
         4.82982292e-01,  4.30446295e-01, -4.60758855e-01,
        -1.51905642e+00,  9.85604551e-01, -2.59022306e+00,
         1.66695371e-01,  8.81336135e-03, -1.02962219e+00,
        -3.96548916e-01,  7.30833651e-01, -5.28527927e-01,
        -3.74203690e-01,  1.05493933e+00,  1.38460270e+00,
         1.47667133e+00, -1.29029369e-01,  4.29057963e-01,
         3.60724487e-01,  9.93067692e-01, -7.79189986e-01,
         1.09638747e-01, -1.29761540e+00, -1.18602250e+00,
        -1.97722788e-01, -1.53227511e-01, -5.27614373e-01,
        -4.41550108e-01, -1.26632877e+00,  1.94192308e+00,
        -2.81018297e-02, -1.05035145e+00, -1.41389850e-01,
         2.20582933e+00,  7.30381509e-01, -1.00188826e+00,
        -2.83182100e-01,  6.87854824e-01,  5.43517301e-01,
        -5.04641308e-01,  1.47137404e+00,  1.65446687e+00,
         9.22793809e-01, -1.68922948e+00, -3.07026909e-01,
        -6.63926173e-01, -4.73627283e-01, -1.29886459e+00,
         1.37331128e+00, -5.87831841e-01, -9.85549697e-02,
        -1.37273122e+00, -1.78788949e+00,  2.23081770e-01,
         3.40047133e-01, -6.01186045e-02,  3.02799288e-02,
         5.37810443e-01, -9.27158775e-01, -3.80621085e-01,
        -2.72979713e-01,  1.76328083e+00, -4.76304439e-01,
        -5.21999286e-02,  2.71960680e-01,  1.12506246e+00,
        -2.23577473e+00, -7.78478512e-01, -1.11753625e+00,
        -1.33379455e+00, -1.85763210e+00, -3.26739059e+00,
        -4.03656183e+00, -2.76070500e+00, -2.10223278e+00,
        -5.80691927e-01,  7.90554009e-02,  1.96529244e-02,
        -1.84213894e-01, -9.02336529e-01, -6.09433110e-01,
        -1.93025851e+00, -3.03761156e+00, -1.66621381e+00,
         3.58353110e-01, -1.29353503e+00, -2.49813396e-01,
        -1.82313408e-01,  5.74848943e-01, -1.17654619e-01,
         2.09678597e+00,  9.59511952e-02,  4.64204237e-01,
        -1.83659013e+00, -2.93661900e+00, -4.95893580e-01,
        -1.20685585e-01, -3.87684290e+00, -3.30170715e+00,
        -5.75851365e+00, -1.77367576e+00, -3.64141822e+00,
        -1.97823266e+00, -1.76389046e+00, -1.32779938e+00,
        -5.65414946e-01,  1.88466514e+00, -1.05494565e+00,
        -9.63934095e-01, -8.31284289e-01, -1.51657818e+00,
        -6.34585371e-01,  1.44635953e+00,  1.29449009e+00,
        -3.25739771e-01, -7.75216489e-02, -3.50814775e-01,
         1.12778084e+00,  2.35834324e+00,  4.51260031e-01,
        -9.88080056e-01, -2.80405737e+00, -1.30159071e+00,
        -2.56950746e-01,  2.23211416e-01, -1.80400234e+00,
        -2.00794297e+00, -1.94232310e+00,  1.00450267e+00,
